tree
version=v3
num_class=1
num_tree_per_iteration=1
label_index=0
max_feature_idx=431
objective=binary sigmoid:1
feature_names=TransactionDT TransactionAmt ProductCD card1 card2 card3 card4 card5 card6 addr1 addr2 dist1 dist2 P_emaildomain R_emaildomain C1 C2 C3 C4 C5 C6 C7 C8 C9 C10 C11 C12 C13 C14 D1 D2 D3 D4 D5 D6 D7 D8 D9 D10 D11 D12 D13 D14 D15 M1 M2 M3 M4 M5 M6 M7 M8 M9 V1 V2 V3 V4 V5 V6 V7 V8 V9 V10 V11 V12 V13 V14 V15 V16 V17 V18 V19 V20 V21 V22 V23 V24 V25 V26 V27 V28 V29 V30 V31 V32 V33 V34 V35 V36 V37 V38 V39 V40 V41 V42 V43 V44 V45 V46 V47 V48 V49 V50 V51 V52 V53 V54 V55 V56 V57 V58 V59 V60 V61 V62 V63 V64 V65 V66 V67 V68 V69 V70 V71 V72 V73 V74 V75 V76 V77 V78 V79 V80 V81 V82 V83 V84 V85 V86 V87 V88 V89 V90 V91 V92 V93 V94 V95 V96 V97 V98 V99 V100 V101 V102 V103 V104 V105 V106 V107 V108 V109 V110 V111 V112 V113 V114 V115 V116 V117 V118 V119 V120 V121 V122 V123 V124 V125 V126 V127 V128 V129 V130 V131 V132 V133 V134 V135 V136 V137 V138 V139 V140 V141 V142 V143 V144 V145 V146 V147 V148 V149 V150 V151 V152 V153 V154 V155 V156 V157 V158 V159 V160 V161 V162 V163 V164 V165 V166 V167 V168 V169 V170 V171 V172 V173 V174 V175 V176 V177 V178 V179 V180 V181 V182 V183 V184 V185 V186 V187 V188 V189 V190 V191 V192 V193 V194 V195 V196 V197 V198 V199 V200 V201 V202 V203 V204 V205 V206 V207 V208 V209 V210 V211 V212 V213 V214 V215 V216 V217 V218 V219 V220 V221 V222 V223 V224 V225 V226 V227 V228 V229 V230 V231 V232 V233 V234 V235 V236 V237 V238 V239 V240 V241 V242 V243 V244 V245 V246 V247 V248 V249 V250 V251 V252 V253 V254 V255 V256 V257 V258 V259 V260 V261 V262 V263 V264 V265 V266 V267 V268 V269 V270 V271 V272 V273 V274 V275 V276 V277 V278 V279 V280 V281 V282 V283 V284 V285 V286 V287 V288 V289 V290 V291 V292 V293 V294 V295 V296 V297 V298 V299 V300 V301 V302 V303 V304 V305 V306 V307 V308 V309 V310 V311 V312 V313 V314 V315 V316 V317 V318 V319 V320 V321 V322 V323 V324 V325 V326 V327 V328 V329 V330 V331 V332 V333 V334 V335 V336 V337 V338 V339 id_01 id_02 id_03 id_04 id_05 id_06 id_07 id_08 id_09 id_10 id_11 id_12 id_13 id_14 id_15 id_16 id_17 id_18 id_19 id_20 id_21 id_22 id_23 id_24 id_25 id_26 id_27 id_28 id_29 id_30 id_31 id_32 id_33 id_34 id_35 id_36 id_37 id_38 DeviceType DeviceInfo
feature_infos=[86400:15811131] [0.251:5420] [0:4] [2:13551] [0:500] [0:114] [0:4] [0:119] [0:4] [0:332] [1:74] [0:10286] [0:10237] [0:59] [0:60] [0:4682] [0:5690] [0:25] [0:2251] [0:349] [0:2251] [0:2253] [0:3328] [0:207] [0:3254] [0:3186] [0:3186] [0:2915] [0:1426] [0:640] [0:640] [0:819] [-53:855] [0:775] [-6:871] [0:770] [0:1707.7916259765625] [0:0.95833301544189442] [0:864] [-28:666] [0:648] [0:820] [0:878] [-60:878] [0:2] [0:2] [0:2] [0:3] [0:2] [0:2] [0:2] [0:2] [0:2] [0:1] [0:8] [0:8] [0:6] [0:6] [0:9] [0:9] [0:8] [0:8] [0:4] [0:4] [0:3] [0:6] [0:1] [0:7] [0:14] [0:10] [0:10] [0:7] [0:14] [0:3] [0:7] [0:11] [0:11] [0:7] [0:13] [0:4] [0:4] [0:4] [0:9] [0:7] [0:14] [0:7] [0:13] [0:3] [0:4] [0:53] [0:53] [0:14] [0:23] [0:1] [0:8] [0:8] [0:47] [0:47] [0:5] [0:12] [0:4] [0:5] [0:5] [0:5] [0:12] [0:5] [0:5] [0:15] [0:49] [0:6] [0:10] [0:10] [0:10] [0:6] [0:10] [0:7] [0:7] [0:1] [0:7] [0:8] [0:2] [0:4] [0:5] [0:6] [0:10] [0:7] [0:8] [0:3] [0:4] [0:30] [0:30] [0:7] [0:14] [0:14] [0:7] [0:7] [0:7] [0:7] [0:30] [0:30] [0:1] [0:2] [0:4] [0:6] [0:7] [0:7] [0:2] [0:880] [0:1410] [0:973] [0:10] [0:88] [0:28] [0:869] [0:1285] [0:925] [0:15] [0:99] [0:55] [0:1] [0:7] [0:7] [0:7] [0:9] [0:9] [0:9] [0:6] [0:6] [0:6] [0:2] [0:2] [0:2] [0:3] [0:3] [0:3] [0:13] [0:13] [0:13] [0:94901] [0:146252] [0:103327] [0:30250] [0:41690] [0:30250] [0:93736] [0:133915] [0:98308] [0:60500] [0:60500] [0:60500] [0:22] [0:30] [0:30] [0:5] [0:7] [0:869] [0:62] [0:297] [0:24] [0:26] [0:20] [0:20] [1:3389] [1:57] [1:69] [0:18] [0:18] [0:24] [0:24] [0:24] [0:24] [0:44116.9296875] [0:641511.4375] [0:3000] [0:3000] [0:3000] [0:93736] [0:98308] [0:101640] [0:872] [0:961] [0:19] [0:47] [0:60] [0:30] [0:7] [0:6] [0:14] [0:47] [0:861] [0:1235] [0:917] [0:83] [0:19] [0:83] [0:41] [0:16] [0:31] [0:37] [0:216] [0:30] [0:30] [0:41] [0:21] [0:44] [0:36] [0:6] [0:16] [0:38] [0:14] [0:21] [0:44] [0:44] [0:54] [0:101640] [0:139777] [0:102219] [0:30250] [0:30250] [0:30250] [0:3000] [0:8050] [0:3000] [0:92888] [0:129006] [0:97460] [0:101640] [0:101640] [0:101640] [0:302] [0:400] [0:378] [0:23] [0:384] [0:384] [0:15] [0:142] [0:51] [0:242] [0:360] [0:53] [0:176] [0:65] [0:293] [0:337] [0:332] [0:120] [0:23] [0:45] [0:39] [0:23] [0:23] [0:7] [0:5] [0:19] [0:55] [0:20] [0:262] [0:44] [0:18] [0:36] [0:22] [0:18] [0:18] [0:24] [0:163] [0:60] [0:82] [0:82] [0:47] [0:66] [0:285] [0:7] [0:49] [0:20] [0:101640] [0:101640] [0:101640] [0:30250] [0:30250] [0:30250] [0:30250] [0:4000] [0:4000] [0:4000] [0:29997] [0:33606] [0:33181] [0:101640] [0:101640] [0:101640] [0:880] [0:972] [0:22] [0:30] [0:68] [0:10] [0:94] [0:7] [0:31] [0:10] [0:12] [1:61] [1:1052] [1:310] [0:869] [0:1286] [0:925] [0:93] [0:12] [0:93] [0:49] [0:11] [0:11] [0:15] [0:20] [0:15] none [0:101640] [0:145765] [0:103272] [0:30250] [0:41690] [0:30250] [0:30250] [0:3594.949951171875] [0:7519.8701171875] [0:4489.85009765625] [0:93736] [0:134021] [0:98308] [0:101640] [0:101640] [0:101640] [0:880] [0:1411] [0:973] [0:10] [0:44] [0:17] [0:15] [0:99] [0:55] [0:94901] [0:146358] [0:103327] [0:30250] [0:41690] [0:30250] [0:52030] [0:52030] [0:52030] [-100:0] [1:999595] [-13:9] [-13:0] [-40:50] [-100:0] [-46:52] [-100:0] [-36:25] [-100:0] [90:100] [0:2] [1:54] [1:25] [0:3] [0:2] [0:104] [1:18] [0:522] [0:394] [0:490] [1:25] [0:3] [0:12] [0:341] [0:95] [0:2] [0:2] [0:2] [0:75] [2:130] [0:4] [0:260] [0:4] [0:2] [0:2] [0:2] [0:2] [0:2] [2:1786]
tree_sizes=3412 3429 3454 3460 3443 3484 3472 3471 3453 3463 3477 3486 3477 3461 3502 3487 3506 3474 3501 3451 3487 3503 3509 3495 3514 3470 3476 3493 3523 3500 3516 3496 3463 3490 3490 3483 3510 3520 3485 3501 3460 3486 3506 3473 3520 3500 3476 3522 3483 3513 3489 3476 3512 3492 3490 3528 3495 3471 3479 3480 3480 3522 3538 3479 3506 3469 3457 3497 3445 3411 3380 3488 3494 3498 3419 3407 3406 3453 3431 3459 3478 3513 3502 3493 3468 3410 3494 3484 3487 3481 3478 3437 3484 3456 3487 3497 3433 3446 3426 3496 3489 3501 3460 3477 3460 3493 3431 3434 3460 3495 3474 3478 3490 3447 3467 3438 3503 3477 3414 3458 3490 3457 3421 3409 3442 3483 3523 3470 3450 3432 3433 3422 3494 3441 3446 3396 3432 3446 3429 3441 3444 3400 3489 3413 3473 3438 3449 3499 3472 3461 3460 3483 3394 3421 3470 3432 3465 3465 3452 3421 3457 3419 3451 3456 3405 3446 3449 3460 3488 3419 3466 3458 3436 3406 3412 3476 3455 3450 3436 3416 3456 3451 3448 3453 3445 3455 3439 3438 3512 3498 3399 3469 3439 3459 3418 3438 3437 3437 3436 3408 3526 3425 3456 3459 3459 3418 3418 3437 3444 3430 3452 3489 3430 3443 3414 3424 3437 3434 3433 3453 3454 3425 3436 3463 3456 3455 3452 3476 3430 3393 3421 3414 3419 3484 3504 3437 3425 3400 3424 3404 3407 3395 3444 3455 3434 3474 3453 3417 3432 3445

Tree=0
num_leaves=31
num_cat=0
split_feature=310 26 15 208 27 28 346 15 28 15 10 114 201 335 387 27 392 208 139 199 4 241 30 365 314 5 97 139 64 9
split_gain=55961.1 10128.3 9102.41 7999.29 6253.85 5166.07 4622.04 4542.6 3992.88 3360.84 2725.98 1726.03 1723.15 1587.37 1549.62 1533.58 1526.01 1425.8 1236.55 1235.1 1164.3 1163.26 1055.99 980.655 902.491 869.673 788.482 737.787 686.832 1529.57
threshold=2.5000000000000004 5.5000000000000009 4.5000000000000009 1.5000000000000002 13.500000000000002 1.0000000180025095e-35 1.0000000180025095e-35 2.5000000000000004 1.0000000180025095e-35 11.500000000000002 62.500000000000007 2.5000000000000004 1.5000000000000002 10.500000000000002 46.500000000000007 4.5000000000000009 -97.499999999999986 1.5000000000000002 1.5000000000000002 1.0000000180025095e-35 499.50000000000006 1.5000000000000002 3.5000000000000004 151.45999908447268 3.5000000000000004 72.000000000000014 3.5000000000000004 3.5000000000000004 1.5000000000000002 13.500000000000002
decision_type=10 2 2 10 2 2 10 2 2 2 2 10 10 10 10 2 10 8 10 10 2 10 8 10 10 2 10 10 10 2
left_child=1 3 8 5 9 7 21 10 17 15 -1 23 -5 -13 -4 -3 -9 -2 20 -14 -12 22 -7 27 -24 -10 -6 28 -8 -30
right_child=2 4 14 12 26 6 11 16 25 -11 18 13 19 -15 -16 -17 -18 -19 -20 -21 -22 -23 24 -25 -26 -27 -28 -29 29 -31
leaf_value=-3.2450723536617638 -2.5389152537442419 -1.6751720351925312 -0.85539161170409095 -3.0244197125358423 -3.1230796690785438 -3.2462174609165495 -3.2689320784760518 -2.9282931020903549 -3.200089215094942 -0.91178536772410324 -2.960369308617973 -2.910382248718415 -2.368188889500952 -1.4685753542035098 -3.2441316628947074 -3.2773538980191588 -1.424761614803099 -1.1078791658083902 -2.1841538601304942 -0.95938123761079863 -0.88951376826492723 -2.9222904915969581 -3.3865375839015242 -3.0227809778335817 -1.4303159279897106 -2.403906363228109 -0.88800579538487856 -2.2122085475885687 -0.49426613970487443 -3.0140811160929086
leaf_weight=797.92682647705078 9.5023380517959595 11.557808339595796 93.709227383136749 9.5360342860221845 65.370694398880005 560.30098271369934 1568.4249182939529 10.108870267868044 30.966839253902435 29.787471055984497 155.87877953052521 36.290844261646271 9.6708192229270953 9.6708192229270917 2.7967874407768241 12.366517961025236 20.318829238414764 26.047189056873322 26.316758930683136 17.454649329185486 2.7630912065505973 55.531394004821777 14060.798314154148 207.43401789665222 2.3587363958358756 24.631947219371796 1.6174192428588856 6.7729430794715872 2.5609138011932364 40.603962242603302
leaf_count=23680 282 343 2781 283 1940 16628 46546 300 919 884 4626 1077 287 287 83 367 603 773 781 518 82 1648 417281 6156 70 731 48 201 76 1205
internal_value=-3.31929 -3.33748 -1.60147 -3.34374 -2.42456 -3.34682 -3.36024 -3.12764 -2.31812 -1.6207 -3.16489 -3.21225 -1.86814 -2.60701 -0.924618 -2.50334 -1.92427 -1.49039 -2.81899 -1.46165 -2.9243 -3.37911 -3.38085 -3.22749 -3.38621 -2.84736 -3.06911 -3.25372 -3.2581 -2.86458
internal_weight=0 17721.4 187.654 17600.7 120.7 17564.1 16550.7 1013.31 91.1483 53.7118 982.885 1871.76 36.6615 45.9617 96.506 23.9243 30.4277 35.5495 184.959 27.1255 158.642 14679 14623.5 1825.8 14063.2 55.5988 66.9881 1618.36 1611.59 43.1649
internal_count=531486 525917 5569 522335 3582 521247 491175 30072 2705 1594 29169 55548 1088 1364 2864 710 903 1055 5489 805 4708 435627 433979 54184 417351 1650 1988 48028 47827 1281
is_linear=0
shrinkage=1


Tree=1
num_leaves=31
num_cat=0
split_feature=310 346 28 22 8 14 30 114 30 0 30 0 335 22 25 367 25 4 367 31 47 8 392 4 360 192 276 27 192 24
split_gain=9635.68 4075.97 2600.8 1416.69 961.746 942.629 881.046 658.214 1064.44 622.785 526.826 526.426 423.936 420.353 394.952 389.596 381.816 536.123 489.829 375.918 375.825 373.911 736.225 1927.33 370.02 361.817 338.814 325.038 424.714 298.764
threshold=1.5000000000000002 1.0000000180025095e-35 1.0000000180025095e-35 3.5000000000000004 1.5000000000000002 54.500000000000007 3.5000000000000004 1.5000000000000002 142.50000000000003 2578406.5000000005 9.5000000000000018 2414750.5000000005 4.5000000000000009 4.5000000000000009 2.5000000000000004 165.94999694824222 1.5000000000000002 476.50000000000006 189.92499542236331 1.0000000180025095e-35 2.5000000000000004 1.5000000000000002 -48.999999999999993 499.50000000000006 215.1080017089844 1.5000000000000002 2.5000000000000004 2.5000000000000004 1.5000000000000002 3.5000000000000004
decision_type=10 8 2 2 2 2 8 10 10 2 10 2 8 2 2 10 2 2 10 8 2 2 8 2 10 8 10 2 8 2
left_child=1 2 5 6 7 11 24 15 -9 14 27 -1 13 -6 -2 29 -14 -18 -19 -11 21 22 23 -8 -4 -15 -17 28 -5 -3
right_child=9 4 3 10 12 -7 20 8 -10 19 -12 -13 16 25 -16 26 17 18 -20 -21 -22 -23 -24 -25 -26 -27 -28 -29 -30 -31
leaf_value=0.04195721766872483 0.030582536127982337 0.090560285183672595 0.020227946927239383 1.8484055465346487 0.023514744648972186 0.011333596360564422 0.000674163577699705 0.37479757647365353 2.2802515522819164 0.14625848935289817 0.0047156985999454223 0.27394719653406274 0.056332580507510721 1.624274824320056 0.26841800635166652 0.33245067922222615 0.24488086768122033 0.16154807641158681 2.1223552579702831 0.31087541266519014 -0.083340398754477699 -0.061263532143238535 -0.0062955341059117795 3.0219966516426613 0.22454707007115426 0.27392615235051337 2.2453306200200545 0.1902706668981145 0.43327664248255693 0.3389214411776077
leaf_weight=134.68335838243365 182.53426181524992 411.88135096803308 480.69403687864542 2.254246424883604 1364.4430664256215 460.18746368587017 7.6816000007092935 100.29849035665393 3.0200191698968402 163.90112960711122 149.20685474947095 357.30644292011857 156.22570863366127 2.0832374803721905 113.07401644438505 82.987890604883432 137.71480686962605 2.2346850857138625 2.9635856114327908 902.98740528151393 6793.5014733485878 4985.8134275078773 1176.9844361133873 2.9116467386484146 108.67362505197525 41.760181356221437 0.93639479205012222 151.65723747014999 35.83182642236352 54.890023089945316
leaf_count=3321 3663 10992 13293 70 36640 12573 239 1915 85 2163 4209 7094 3931 59 915 1923 2954 51 70 8975 214286 157341 37020 92 3008 572 25 2796 367 844
internal_value=0 -0.0262624 -0.0456714 -0.0566274 0.0957704 0.114212 -0.0616764 0.198885 0.430494 0.249998 0.145306 0.210439 0.0562734 0.0333082 0.121558 0.155431 0.164389 0.282511 1.27942 0.285586 -0.0671115 -0.0492524 0.00117417 0.831111 0.0579024 0.338089 0.353794 0.25586 0.517036 0.119766
internal_weight=0 17208.8 14847.4 13895.2 2361.44 952.177 13556.3 654.014 103.319 1362.5 338.95 491.99 1707.43 1408.29 295.608 550.696 299.139 142.913 5.19827 1066.89 12966.9 6173.39 1187.58 10.5932 589.368 43.8434 83.9243 189.743 38.0861 466.771
internal_count=531486 515770 455709 432721 60061 22988 425279 15784 2000 15716 7442 10415 44277 37271 4578 13784 7006 3075 121 11138 408978 194692 37351 331 16301 631 1948 3233 437 11836
is_linear=0
shrinkage=0.1


Tree=2
num_leaves=31
num_cat=0
split_feature=253 346 28 22 30 223 30 143 1 30 119 14 65 0 47 8 36 30 15 28 1 333 9 8 1 97 24 38 376 372
split_gain=6909.69 3072.7 2300.07 1491.95 757.277 703.658 543.023 513.682 404.445 480.703 413.557 395.26 391.633 381 352.527 297.69 295.669 285.366 284.754 465.705 279.843 257.397 252.888 249.885 246.219 233.796 229.553 228.766 228.576 220.208
threshold=1.5000000000000002 1.0000000180025095e-35 1.0000000180025095e-35 2.5000000000000004 3.5000000000000004 1.5000000000000002 6.5000000000000009 1.0000000180025095e-35 350.02000000000004 508.50000000000006 1.5000000000000002 1.5000000000000002 2.5000000000000004 2414750.5000000005 2.5000000000000004 1.5000000000000002 31.145833015441898 24.500000000000004 2.5000000000000004 1.0000000180025095e-35 75.003000000000014 1.0000000180025095e-35 301.50000000000006 1.5000000000000002 335.00500000000005 1.5000000000000002 2.5000000000000004 55.500000000000007 1.5000000000000002 2740.404907226563
decision_type=10 8 2 2 8 8 10 10 2 10 8 2 10 2 2 2 8 8 2 2 2 8 2 2 2 8 2 8 10 10
left_child=1 2 5 4 20 13 25 8 10 17 12 -2 21 -1 15 24 -15 -10 19 28 -4 -3 23 -23 -6 -5 27 -12 -13 -17
right_child=11 7 3 6 14 -7 -8 -9 9 -11 26 18 -14 16 -16 29 -18 -19 -20 -21 -22 22 -24 -25 -26 -27 -28 -29 -30 -31
leaf_value=0.030087218593894779 0.023134305324465636 0.032603338410178616 -0.013566867817246307 0.085607354773614308 -0.015977988227167499 0.018850291990670953 -0.01174950462706818 -0.042513476202668238 0.36444994459886437 1.709441159787084 0.19493715993826377 0.33761941990158273 0.68786928113883872 0.48808299023691903 -0.0817379200555029 -0.059695047105201349 0.19778096183450727 0.098793111405731326 0.26449672625499637 0.042541550784868785 0.12112890331579373 0.34647938047566729 -0.034463100955573665 0.12033717062203907 0.15629250649517679 0.25777723116675239 0.2697366290426968 0.039863054593329138 0.0015377435191296965 0.61096821756450825
leaf_weight=132.49991155788302 95.867529392242432 1315.2392937391996 338.02750245854259 130.69786506332457 1099.9060372598469 569.24411986023188 225.9891134314239 323.03966519981623 76.068236485123634 2.205867175012826 193.47639052942395 125.52133582159877 9.7574185915291292 38.698564790189266 6276.5652327500284 4684.44570434466 375.58754625916481 86.320012059062719 855.01464474014938 173.06022321619093 283.69415405392647 65.27194856479764 72.137222573161125 194.36163503676653 89.734805345535278 198.90390821546316 136.76772935688496 187.14496224746108 24.126420117914677 4.900932826101779
leaf_count=3109 1360 31916 9096 2294 34076 14226 6417 8385 1403 61 3657 1241 174 567 213792 156348 5548 2161 5529 3750 7136 1258 1804 4254 2852 2433 1492 4447 536 164
internal_value=0 -0.0230433 -0.0412318 -0.0527751 -0.0597505 0.0966723 0.107645 0.0756884 0.092015 0.243154 0.0805731 0.218394 0.0562006 0.177691 -0.0652563 -0.0476601 0.224898 0.223236 0.234288 0.15425 0.0478954 0.0524584 0.13117 0.177189 -0.0029836 0.189506 0.158618 0.11869 0.283436 -0.0589941
internal_weight=0 17110.7 14448.9 13332.9 12777.3 1116.03 555.591 2661.79 2338.75 164.594 2174.16 1273.59 1656.77 546.786 12155.6 5878.99 414.286 162.388 1177.72 322.708 621.722 1647.01 331.771 259.634 1189.64 329.602 517.389 380.621 149.648 4689.35
internal_count=531486 519070 458058 434608 423464 23450 11144 61012 52627 3625 49002 12416 39406 9224 407232 193440 6115 3564 11056 5527 16232 39232 7316 5512 36928 4727 9596 8104 1777 156512
is_linear=0
shrinkage=0.1


Tree=3
num_leaves=31
num_cat=0
split_feature=310 346 28 22 30 27 15 2 8 385 5 122 43 27 24 367 365 19 25 1 8 8 47 1 105 335 350 1 48 26
split_gain=5264.47 2530.49 1687.57 977.709 589.931 549.841 456.781 443.549 403.797 394.109 336.989 328.608 303.603 289.86 273.086 250.087 324.517 244.493 319.731 235.768 235.165 230.296 227.61 232.046 225.306 238.473 226.334 219.175 364.007 214.222
threshold=1.5000000000000002 1.0000000180025095e-35 1.0000000180025095e-35 1.5000000000000002 4.5000000000000009 1.5000000000000002 5.5000000000000009 1.5000000000000002 1.5000000000000002 15.500000000000002 41.500000000000007 1.0000000180025095e-35 64.500000000000014 25.500000000000004 1.5000000000000002 289.44999694824224 195.09999847412112 1.0000000180025095e-35 1.5000000000000002 100.02150000000002 1.5000000000000002 1.5000000000000002 1.0000000180025095e-35 881.97500000000014 1.5000000000000002 3.5000000000000004 7.5000000000000009 770.97000000000014 1.0000000180025095e-35 5.5000000000000009
decision_type=10 8 2 2 8 2 2 2 2 10 2 8 8 2 2 10 10 2 2 2 2 2 2 2 8 10 8 2 2 2
left_child=1 2 7 4 21 -5 15 19 12 10 -2 20 22 29 -9 -7 -17 18 -10 -1 -6 27 23 -3 25 -20 -27 -4 -29 -8
right_child=9 8 3 5 11 6 13 14 17 -11 -12 -13 -14 -15 -16 16 -18 -19 24 -21 -22 -23 -24 -25 -26 26 -28 28 -30 -31
leaf_value=0.1151526447545051 -0.012458688817376671 0.21853800924667044 0.10567702138407085 0.26924144044483572 -0.0075826004192474225 -0.038136273316474796 0.50524451906909829 0.0059677052709655835 0.017074815848098106 0.052540073676505476 0.19617566562702302 -0.081628111112457657 0.055132183679450913 0.019367739025223658 0.32361983392939186 2.3497386607433817 0.22518082147569018 -0.030410216453911544 0.04139570207264618 0.29843421197938691 -0.057872076997552195 -0.0016370942834735018 0.10751198431499803 0.61155156660108889 0.2588771316313363 0.1730677605275569 1.4889357773865513 1.1485470132845061 -0.082512498831970774 0.17873730833140331
leaf_weight=416.12910908460617 82.236711576581001 211.85186179354787 158.90901122055948 104.8121811170131 1180.297660915181 468.39790224656463 25.926232691854239 605.99537241831422 857.0957015901804 272.52869445085526 1321.3620351273566 5527.9584993440658 387.59097554162145 99.767996968701482 28.329494092613459 0.97820187918841783 2.7127479258924723 408.37652935087681 371.37380474805832 84.424895972013474 4382.3887870945036 489.99941565096378 244.47523325309157 16.169747915118933 88.343509156256914 173.76161550730467 1.3170573599636544 5.343223497271536 4.3632527608424425 89.335146956145763
leaf_count=6411 1150 3419 3946 2287 37198 14460 477 15074 20807 4537 10029 203587 7954 2009 189 30 65 10785 8778 1314 155142 12768 4191 220 1034 2846 27 111 90 551
internal_value=0 -0.0234565 -0.0410844 -0.0516515 -0.0589005 0.0558952 0.0233516 0.0756892 0.0638801 0.162585 0.183952 -0.064361 0.120731 0.144161 0.0201543 -0.0316753 0.788246 0.0381488 0.0569155 0.146065 -0.0472016 0.0330508 0.174542 0.246408 0.110708 0.0867538 0.182967 0.133855 0.595161 0.25218
internal_weight=0 16436.4 13676.1 12541.2 11749.3 791.93 687.118 1134.88 2760.36 1676.13 1403.6 11090.6 860.088 215.029 634.325 472.089 3.69095 1900.27 1491.89 500.554 5562.69 658.615 472.497 228.022 634.796 546.452 175.079 168.615 9.70648 115.261
internal_count=531486 515770 455709 432721 412842 19879 17592 22988 60061 15716 11179 395927 15784 3037 15263 14555 95 44277 33492 7725 192340 16915 7830 3639 12685 11651 2873 4147 201 1028
is_linear=0
shrinkage=0.1


Tree=4
num_leaves=31
num_cat=0
split_feature=253 143 346 28 15 30 27 15 22 28 26 367 27 1 129 134 106 127 32 2 346 25 30 134 32 20 19 97 96 43
split_gain=4070.75 1999.44 1335.4 1284.85 816.735 523.911 479.317 315.869 300.137 297.069 252.202 236.771 220.729 197.705 193.034 194.689 186.415 350.647 176.371 173.746 171.762 232.851 233.718 192.301 430.61 603.241 370.622 310.837 224.712 217.029
threshold=1.5000000000000002 1.0000000180025095e-35 1.0000000180025095e-35 1.0000000180025095e-35 6.5000000000000009 8.5000000000000018 13.500000000000002 3.5000000000000004 1.5000000000000002 1.0000000180025095e-35 10.500000000000002 155.99500274658206 1.5000000000000002 335.00500000000005 2.5000000000000004 1.5000000000000002 2.5000000000000004 1.5000000000000002 24.500000000000004 1.5000000000000002 35.500000000000007 1.5000000000000002 220.50000000000003 1.0000000180025095e-35 147.50000000000003 7.5000000000000009 3.5000000000000004 1.5000000000000002 1.5000000000000002 609.50000000000011
decision_type=10 10 8 2 2 8 2 2 2 2 2 10 2 2 10 8 10 8 8 2 8 2 10 10 10 2 2 10 10 8
left_child=1 2 3 8 5 12 -6 9 -1 -2 11 20 -5 16 15 -13 -7 -18 -16 -15 21 -4 23 24 -23 27 -27 -26 -29 -25
right_child=7 -3 10 4 6 13 -8 -9 -10 -11 -12 14 -14 19 18 -17 17 -19 -20 -21 -22 22 -24 29 25 26 -28 28 -30 -31
leaf_value=0.061232923384676355 0.16905955023243571 -0.076115765273253755 0.01561111009870023 0.12429675705698642 0.21214088454431168 -0.052456411407652663 0.011508244604882999 0.19332808934234172 0.21026374380312776 0.032515425805691098 0.21782548067987906 0.080324420727908769 0.0042863325717243687 0.83638096459360389 0.21522664669565961 0.24068883565935106 0.15512109511906444 2.9347994759133478 1.0600944134034751 0.023585037133525666 -0.088744555054714985 0.14133786197176551 -0.053793362274787884 0.067763457604051877 0.050292094621391926 2.0866620260474869 -0.10607833104782433 2.1507585725137139 0.36731923390627735 0.91482474229408062
leaf_weight=1007.4445177316666 314.69223369285464 4627.3591934051365 1031.8427229449153 222.92682206630707 200.92578016221523 6371.4079310316592 292.30096254311502 838.0789893809706 156.06928062438965 322.74979643896222 101.81526551768184 454.12603539228439 490.3913252055645 2.6533135902136555 6.3984364196658117 90.850133165717125 1.9381993878632777 0.59256299771368492 4.0253094360232353 299.00656893663108 96.415683414787054 212.93760268762708 106.56373609602451 558.10531816631556 10.273930206894876 3.6968519464135161 0.97389351949095715 1.374688804149627 1.4534956030547617 3.041218038648366
leaf_count=19456 2528 176480 23959 5368 1712 230284 8431 4333 1033 5555 664 7196 13320 85 71 1034 72 22 64 10180 2181 3818 2582 10562 248 92 21 35 24 76
internal_value=0 -0.0204513 0.00150858 -0.0168707 -0.0313507 -0.0396674 0.09324 0.152977 0.0812233 0.0999245 0.063453 0.0573659 0.0417921 -0.0483717 0.115211 0.107058 -0.0521156 0.805966 0.541487 0.0307342 0.0415137 0.04802 0.0852418 0.103952 0.180807 0.653693 1.62946 0.305845 1.23419 0.0723542
internal_weight=0 16356.9 11729.6 9045.66 7882.14 7388.92 493.227 1475.52 1163.51 637.442 2683.89 2582.08 713.318 6675.6 555.4 544.976 6373.94 2.53076 10.4237 301.66 2026.68 1930.26 898.421 791.857 230.71 17.7729 4.67075 13.1021 2.82818 561.147
internal_count=531486 519070 342590 289963 269474 259331 10143 12416 20489 8083 52627 51963 18688 240643 8365 8230 230378 94 135 10265 43598 41417 17458 14876 4238 420 113 307 59 10638
is_linear=0
shrinkage=0.1


Tree=5
num_leaves=31
num_cat=0
split_feature=22 28 360 30 15 47 30 253 8 28 28 239 48 313 43 19 0 97 369 45 11 360 47 1 1 191 7 400 221 16
split_gain=3292.44 1783.89 1982.2 838.913 583.743 401.988 395.013 378.48 349.822 302.931 260.056 242.321 220.553 206.861 203.367 200.407 216.055 182.754 166.571 164.337 186.882 162.655 177.379 185.395 199.874 160.279 155.635 151.99 144.976 142.506
threshold=1.5000000000000002 1.0000000180025095e-35 118.00999832153322 11.500000000000002 3.5000000000000004 2.5000000000000004 14.500000000000002 1.5000000000000002 1.5000000000000002 21.500000000000004 1.5000000000000002 1.5000000000000002 1.5000000000000002 10.500000000000002 60.500000000000007 1.0000000180025095e-35 2414750.5000000005 1.5000000000000002 334.97500610351568 1.0000000180025095e-35 203.50000000000003 335.16549682617193 1.0000000180025095e-35 834.47500000000014 1012.0450000000002 2.5000000000000004 7.0000000000000009 1.5000000000000002 1.5000000000000002 4.5000000000000009
decision_type=2 2 10 10 2 2 8 10 2 2 2 10 2 10 10 2 2 8 10 2 10 10 2 2 2 10 2 10 10 2
left_child=1 7 5 4 10 8 21 15 14 28 17 -7 18 -5 27 16 -1 -2 -8 20 -20 -4 23 -23 -25 -19 -18 -3 -6 -24
right_child=3 2 6 13 9 11 12 -9 -10 -11 -12 -13 -14 -15 -16 -17 26 25 19 -21 -22 22 29 24 -26 -27 -28 -29 -30 -31
leaf_value=-0.01908841921121094 0.019969332125831452 0.032206956122611451 0.045333850716920095 -0.012960488534270873 0.20264789341519426 -0.077098302794933182 -0.00025535664460448799 0.15321992574877047 -0.049894609230429043 0.034366108470370069 -0.045336178326773745 0.16589370915992196 -0.060042553758560151 0.70043021117883653 -0.049981652568873408 -0.080637758537033657 0.23847228902937523 0.18929470202742407 0.079418085080308343 0.054049250106727391 0.43846150180902033 0.14028594549236026 0.0076455624752931719 0.50935578786161373 0.056604996147465336 0.0041306209003426032 0.069007843846854072 0.44716118420875983 0.068763192237217594 0.21865834563150136
leaf_weight=291.61994234472513 185.45325536094606 871.60927502065897 448.98248082213104 533.34933345206082 1008.5926566850394 5069.9693621322513 709.71567650511861 420.32078416645527 4345.1045326627791 137.33388771489263 179.85200144536793 41.374881522729993 342.44156035780907 4.0958619415760031 394.59694001451135 116.53685279563069 57.605427458882332 212.87618886120617 34.277924805879593 439.56285599991679 25.12101561948657 339.19981476478279 161.6467524189502 29.294990912079811 14.615412823855875 59.902689574286342 915.10883271694183 8.9173165764659625 87.929902996867895 39.905772583559155
leaf_count=6342 3542 24770 10347 13694 5890 209765 22231 2812 156743 1826 4774 700 11712 41 12346 3313 998 2984 655 8532 319 5335 2967 280 169 852 16347 124 464 612
internal_value=0 -0.0232681 -0.0359018 0.102601 0.134218 -0.0548366 0.0427127 0.0701339 -0.0363794 0.174376 0.0565652 -0.0751314 0.0108004 -0.00752375 0.00967495 0.0448435 0.0564095 0.0965606 0.0308715 0.0751459 0.231265 0.0906013 0.125364 0.165315 0.358659 0.148632 0.0790438 0.0364093 0.191912 0.0494244
internal_weight=0 15117.5 13316.3 2409.39 1871.94 10731.6 2584.76 1801.19 5620.23 1233.86 638.084 5111.34 1551.12 537.445 1275.12 1380.87 1264.33 458.232 1208.68 498.962 59.3989 1033.65 584.663 383.11 43.9104 272.779 972.714 880.527 1096.52 201.553
internal_count=531486 497419 467607 34067 20332 404448 63159 29812 193983 8180 12152 210465 43449 13735 37240 27000 23687 7378 31737 9506 974 19710 9363 5784 449 3836 17345 24894 6354 3579
is_linear=0
shrinkage=0.1


Tree=6
num_leaves=31
num_cat=0
split_feature=22 28 360 15 27 47 241 27 43 8 5 332 48 8 279 239 8 25 431 43 4 0 19 372 32 39 1 135 13 4
split_gain=2639.58 1446.75 1677.27 698.652 531.203 384.712 317.722 308.252 305.91 304.414 236.71 235.358 225.486 218.4 205.795 197.371 192.598 187.95 175.667 165.847 157.251 154.331 164.674 146.342 449.339 149.395 143.437 170.744 251.315 140.539
threshold=1.5000000000000002 1.0000000180025095e-35 118.00999832153322 5.5000000000000009 1.5000000000000002 2.5000000000000004 1.5000000000000002 25.500000000000004 54.500000000000007 1.5000000000000002 61.000000000000007 1.5000000000000002 1.5000000000000002 1.5000000000000002 2.5000000000000004 1.5000000000000002 1.5000000000000002 14.500000000000002 290.50000000000006 60.500000000000007 205.50000000000003 2414750.5000000005 1.0000000180025095e-35 2095.1250000000005 432.50000000000006 105.50000000000001 271.97500000000008 1.0000000180025095e-35 15.500000000000002 226.50000000000003
decision_type=2 2 10 2 2 2 10 2 8 2 2 10 2 2 10 10 2 2 2 10 2 2 2 10 10 8 2 10 2 2
left_child=1 6 5 4 11 9 10 -5 12 19 21 -2 13 -4 17 -7 -12 -6 -14 -3 -10 -1 26 25 -25 -22 -23 28 -28 -27
right_child=3 2 8 7 14 15 -8 -9 20 -11 16 -13 18 -15 -16 -17 -18 -19 -20 -21 23 22 -24 24 -26 29 27 -29 -30 -31
leaf_value=-0.04295078419796803 0.15843666830375336 0.031688044275090935 0.15685732496968985 0.17120602914353938 -0.029712379202662387 -0.074962754203336965 0.17486767463540753 0.033903023839680677 -0.040383412349649685 -0.047171752505020016 0.17287174393147903 0.013137099644588505 0.51131643177712338 0.059505749932403845 0.26570932033388583 0.13241743429187483 0.044714730043663081 0.30576658882807844 -0.026421345413289745 -0.047238030265707893 0.10089945531592948 0.035890570127368203 -0.08334689248386111 0.11051595966064845 1.5756765561167836 0.086856261699448128 -0.02418252351810805 0.064679392095346566 0.43026376073620565 -0.021514576500887981
leaf_weight=281.08062101528049 385.89186013489962 907.81005178578198 353.95185753144324 944.19305976480246 732.73076817765832 4711.6051904708147 214.45665074884892 197.75717883557081 497.99136789143085 4146.8822218254209 223.43284323066473 156.77015621587634 6.2316675446927539 660.4192651771009 25.701818943023682 46.344587063416839 246.78619850054383 17.089276757091284 241.71514573693275 376.71659018658102 196.77486456185579 659.96427538245916 94.227903977036476 14.739510538056495 2.4396202731877557 153.29391170293093 17.994974248111248 100.42343017458916 37.586605608463287 545.50809530727565
leaf_count=6340 4238 24894 4627 4780 19432 209765 1078 2857 13558 156743 2129 2374 77 13647 307 700 2573 79 6685 12346 4806 11677 2888 226 58 3913 293 2233 601 15562
internal_value=0 -0.0217211 -0.0336864 0.0901733 0.0405727 -0.0521821 0.0603183 0.147429 0.0368168 -0.0339957 0.0455329 0.116461 0.0725797 0.0934753 -0.0125292 -0.0729428 0.105611 -0.0220664 -0.0129063 0.00854118 0.00481663 0.0218191 0.0418208 0.0294774 0.318584 0.0239317 0.0562752 0.14251 0.283133 0.00225838
internal_weight=0 14738.4 12862.4 2460.13 1318.18 10189.4 1875.95 1141.95 2673.07 5431.41 1661.5 542.662 1262.32 1014.37 775.522 4757.95 470.219 749.82 247.947 1284.53 1410.75 1191.28 910.197 912.756 17.1791 895.577 815.969 156.005 55.5816 698.802
internal_count=531486 497419 467607 34067 26430 404448 29812 7637 63159 193983 28734 6612 25036 18274 19818 210465 4702 19511 6762 37240 38123 24032 17692 24565 284 24281 14804 3127 894 19475
is_linear=0
shrinkage=0.1


Tree=7
num_leaves=31
num_cat=0
split_feature=18 28 360 30 5 14 367 14 204 139 3 31 122 1 394 271 0 43 25 119 1 0 1 48 154 5 25 335 97 29
split_gain=2166.54 1332.08 1370.54 593.578 339.336 325.028 316.883 237.956 245.234 229.795 199.008 198.451 184.144 186.392 176.553 165.472 152.889 152.642 173.626 150.334 146.25 179.677 140.423 133.903 128.703 127.958 126.95 126.524 119.318 118.243
threshold=1.5000000000000002 1.0000000180025095e-35 67.963897705078139 25.500000000000004 69.000000000000014 1.5000000000000002 67.969997406005874 16.500000000000004 1.5000000000000002 2.5000000000000004 11045.500000000002 459.50000000000006 1.0000000180025095e-35 335.00500000000005 1.0000000180025095e-35 1.5000000000000002 2530958.0000000005 3.5000000000000004 4.5000000000000009 2.5000000000000004 107.01950000000001 11445001.500000002 171.06500000000003 1.5000000000000002 2.5000000000000004 38.500000000000007 1.5000000000000002 3.5000000000000004 2.5000000000000004 1.0000000180025095e-35
decision_type=2 2 10 10 2 2 8 2 8 10 2 8 10 2 10 8 2 10 2 8 2 2 2 2 8 2 2 8 8 8
left_child=1 7 4 5 12 -2 23 8 25 14 16 -10 13 24 19 -11 -7 18 29 -6 -20 -22 -18 -4 -3 -1 -9 -19 -12 -8
right_child=3 2 6 -5 9 10 17 26 11 15 28 -13 -14 -15 -16 -17 22 27 20 -21 21 -23 -24 -25 -26 -27 -28 -29 -30 -31
leaf_value=0.32697853851248593 -0.02732016559213515 -0.052577946749261834 0.012428783253550723 -0.02747164031118679 -0.014639897176796889 0.085997397668935702 0.029043834020871073 0.012467671617281618 -0.0073959509931567149 0.77751554537366063 0.0092984804248335672 0.16360094836334299 -0.076932187214115377 0.037318816268536115 0.41112920657911084 0.15131708470164268 0.15809388867264038 -0.0048244694971363612 0.090642986986839313 0.62508317513505451 0.40763789142329759 1.389402811323917 0.29408763241590052 -0.043843674684210063 0.074193959323672773 0.026054330289870503 0.11780096675241664 0.068478937374688381 0.13882761347136063 0.12081243820283671
leaf_weight=14.624461252242325 139.6732989475131 4745.0058572907001 1441.4066327698529 336.31657787784934 967.08465831540525 278.95489374920726 227.7987900711596 1007.242556175217 79.968099400401115 4.6240908578038216 183.60249894484878 448.61777160316706 3110.1756513249129 254.80279554612935 9.9524050261825305 48.276587890461087 819.43228606879711 486.94931155629456 8.0470553077757376 3.6874564345926037 6.9851472936570627 2.5427168495953083 83.681831829249859 598.41922960430384 81.457983052358031 418.26684038341045 129.08390705473721 455.92865156568587 116.07787213660777 365.9854584839195
leaf_count=187 2144 190669 40068 8548 32139 3244 4237 18933 794 88 2084 2987 151313 8616 240 356 6436 12885 172 82 136 59 624 20621 1993 6706 1331 6797 1000 5997
internal_value=0 -0.0184572 -0.0305459 0.0934309 -0.050955 0.118509 0.0218393 0.0554135 0.0920276 0.00303693 0.132255 0.137731 -0.0577679 -0.0460377 -0.00791387 0.206054 0.150707 0.0558561 0.0947748 -0.0122099 0.404535 0.669643 0.170695 -0.00407974 -0.0504384 0.0362205 0.0244333 0.0306214 0.0594702 0.0856064
internal_weight=0 14916.9 12819.1 1957.74 9225.07 1621.42 3594.06 2097.8 961.477 1033.63 1481.75 528.586 8191.44 5081.27 980.725 52.9007 1182.07 1554.24 611.359 970.772 17.5749 9.52786 903.114 2039.83 4826.46 432.891 1136.33 942.878 299.68 593.784
internal_count=531486 507406 476468 24080 385496 15532 90972 30938 10674 32905 13388 3781 352591 201278 32461 444 10304 30283 10601 32221 367 195 7060 60689 192662 6893 20264 19682 3084 10234
is_linear=0
shrinkage=0.1


Tree=8
num_leaves=31
num_cat=0
split_feature=253 122 25 30 1 28 367 97 378 15 14 348 32 13 260 385 364 2 364 157 16 114 105 379 5 0 9 15 27 352
split_gain=1800.2 1242.82 759.401 719.932 462.348 394.606 347.195 270.744 247.008 198.615 191.164 175.78 299.675 168.914 210.825 165.934 157.376 157.016 175.054 149.272 247.233 147.719 147.401 146.43 145.296 137.377 136.98 128.161 160.056 125.929
threshold=1.5000000000000002 1.0000000180025095e-35 1.5000000000000002 33.500000000000007 271.97500000000008 1.0000000180025095e-35 59.010400772094734 1.5000000000000002 6.5000000000000009 3.5000000000000004 53.500000000000007 8.5000000000000018 484.50000000000006 15.500000000000002 194.15650177001956 15.500000000000002 215.25000000000003 1.5000000000000002 351.50000000000006 2.5000000000000004 4.5000000000000009 1.5000000000000002 1.5000000000000002 2.5000000000000004 67.000000000000014 14228751.500000002 82.500000000000014 1.0000000180025095e-35 1.0000000180025095e-35 2.5000000000000004
decision_type=10 10 2 10 2 2 8 8 10 2 2 10 10 2 10 8 10 2 10 10 2 8 10 8 2 2 2 2 2 10
left_child=1 2 4 7 5 27 8 21 11 15 -10 -7 -13 -9 26 -2 -3 -6 -19 -18 -21 -4 -5 -12 -17 -24 -15 28 -1 -8
right_child=9 16 3 22 17 6 29 13 10 -11 23 12 -14 14 -16 24 19 18 -20 20 -22 -23 25 -25 -26 -27 -28 -29 -30 -31
leaf_value=0.43108394506590142 0.17315368358531333 -0.07149387889713503 0.020779951093071812 -0.02328390520283535 0.26917031401264158 -0.049328306222705676 0.016055507529492998 -0.0042126366515986826 -0.10597009491276665 0.1290570422438376 1.2169103098974585 0.17755796040139024 1.9250339039041249 0.034778325386377207 0.63808845942341541 -0.022068089541837633 0.034617416547555478 0.019716892107691349 0.12987127643351623 -0.10419753332618756 2.370349500548417 0.10006582341336545 0.12863846175228885 0.37085015609416128 0.077037099552229593 0.84759171380122211 0.14339606083278719 0.020321426511461051 0.0081343028765232684 0.51263708583208978
leaf_weight=17.291880059987307 106.6246805600822 3429.1836908292025 827.04330836050212 1300.8450565524399 31.508830729871988 4871.1061412524432 956.19835739769042 105.06342245265841 6.8446049485355624 853.0228495746851 2.6234153565019369 10.317606659606097 1.0845115035772313 139.28242063894868 8.0958767235279065 243.63894057832658 111.12302952632308 712.07343048602343 180.92265744321048 0.90712574683129676 0.72760070860385895 328.2550147511065 28.686186581850055 9.2880300972610694 376.58308106288314 2.9291123654693356 697.7643386926502 1203.1335364002734 18.540982719510794 5.1341854073107234
leaf_count=146 739 172527 19737 42266 507 196555 22705 1845 193 4333 42 201 35 2656 86 3851 3340 20115 2548 28 23 4073 300 91 3493 51 9396 19320 206 78
internal_value=0 -0.0158966 9.99136e-05 0.0394248 -0.0167449 -0.0254047 -0.0362413 0.0758284 -0.0470189 0.0963278 0.315184 -0.0484103 0.343769 0.115369 0.130234 0.0579169 -0.0676716 0.0497756 0.0420344 0.0485726 0.997199 0.0433075 -0.0180988 0.557189 0.0381061 0.195248 0.125322 0.0258719 0.212237 0.0187076
internal_weight=0 15006 11464 3437.96 8026.07 7101.56 5862.6 2105.5 4901.26 1579.87 18.7561 4882.51 11.4021 950.206 845.143 726.847 3541.94 924.505 892.996 112.758 1.63473 1155.3 1332.46 11.9114 620.222 31.6153 837.047 1238.97 35.8329 961.333
internal_count=531486 519070 343152 80410 262742 239572 219900 37793 197117 12416 326 196791 236 13983 12138 8083 175918 23170 22663 3391 51 23810 42617 133 7344 351 12052 19672 352 22783
is_linear=0
shrinkage=0.1


Tree=9
num_leaves=31
num_cat=0
split_feature=143 15 28 28 360 26 43 2 8 1 40 0 396 29 271 28 4 108 29 19 181 7 3 11 135 32 43 4 20 26
split_gain=1523.72 1197.41 835.706 594.303 691.454 390.448 266.392 206.429 258.565 189 166.008 158.31 163.959 157.349 186.774 148.337 139.339 132.181 128.674 255.073 126.689 119.217 210.69 189.732 205.411 227.722 234.913 157.661 145.043 134.663
threshold=1.0000000180025095e-35 3.5000000000000004 2.5000000000000004 1.0000000180025095e-35 59.010400772094734 16.500000000000004 79.500000000000014 2.5000000000000004 1.5000000000000002 261.96000000000009 28.500000000000004 2414750.5000000005 1.0000000180025095e-35 132.50000000000003 1.5000000000000002 37.500000000000007 499.50000000000006 14.500000000000002 57.500000000000007 1.0000000180025095e-35 104.48500061035158 107.50000000000001 13212.500000000002 1.5000000000000002 1.0000000180025095e-35 77.500000000000014 424.50000000000006 380.50000000000006 8.5000000000000018 1.0000000180025095e-35
decision_type=10 2 2 2 10 2 10 2 2 2 8 2 10 8 10 2 2 8 10 2 10 2 2 8 10 8 10 2 2 2
left_child=1 3 13 11 10 9 7 -6 18 21 16 -1 -13 14 -3 -7 17 -5 -9 -20 -2 -4 23 24 25 26 -23 -24 -29 -27
right_child=20 2 5 4 6 15 -8 8 -10 -11 -12 12 -14 -15 -16 -17 -18 -19 19 -21 -22 22 27 -25 -26 29 -28 28 -30 -31
leaf_value=-0.012690637645831086 -0.068334615036589552 0.20691558108181085 -0.041207991778614513 -0.0088336406899567777 -0.015832910597759108 0.15769825091801429 -0.023831296115898602 0.10399295667767727 0.031526536780926963 0.11683643127576185 -0.045651473707113546 0.041232186294294461 0.11914347802320031 -0.011842310238459573 0.11559134701131331 0.013669394360446556 0.22208916751839949 0.63741219571280583 0.22757358431887945 1.3032215829722507 0.054636639327589345 0.0061173808729838783 -0.10356915175185799 -0.0042069334893866705 0.015891640556730795 0.16796626128554756 2.0085268339574998 0.97751549922698278 -0.080892326439990808 0.76313697226938348
leaf_weight=395.89255964756012 3257.1384398117661 386.07373786531389 604.07985322736204 956.06573698483407 451.51863830536604 267.75548998266459 834.45042297802866 479.23629969358444 1004.4306752383709 130.48034280352294 4485.7873273640871 1261.4821714218706 343.69815331697464 61.052023459225893 533.28695839457214 97.562603574246168 27.38084696047008 3.1755029726773492 37.954384461045265 2.3405181039124718 85.990085851401091 0.906483938917518 3.3314702697098237 533.03616758063436 29.499890375882387 16.70702485553921 1.6564481165260074 5.5031792502850294 1.6931125577539203 4.9214265346527091
leaf_count=7327 173614 3578 14365 30759 9659 1358 24171 5755 21403 2758 191542 16905 3348 1093 2567 1262 284 36 673 51 2866 28 113 14330 906 436 45 96 25 133
internal_value=0 0.0105475 0.070114 -0.00496218 -0.0167787 0.0276516 0.0235437 0.0435551 0.0611505 0.00253056 -0.0374832 0.0439459 0.0579144 0.143618 0.153942 0.119234 -0.000345064 -0.00669429 0.118424 0.290052 -0.0651716 -0.00988451 0.0217969 0.0138409 0.193017 0.409009 1.30029 0.465193 0.728498 0.303394
internal_weight=0 12961 2677.55 10283.4 8282.34 1697.13 2809.93 1975.48 1523.96 1331.82 5472.41 2001.07 1605.18 980.413 919.361 365.318 986.622 959.241 519.531 40.2949 3343.13 1201.34 597.255 586.727 53.6913 24.1914 2.56293 10.5278 7.19629 21.6285
internal_count=531486 355006 43093 311913 284333 35855 61712 37541 27882 33235 222621 27580 20253 7238 6145 2620 31079 30795 6479 724 176480 30477 16112 15878 1548 642 73 234 121 569
is_linear=0
shrinkage=0.1


Tree=10
num_leaves=31
num_cat=0
split_feature=122 25 30 28 366 28 15 331 30 8 27 64 60 378 183 135 139 348 32 30 1 297 134 23 0 9 3 346 27 343
split_gain=1315.17 966.791 775.309 500.124 405.902 254.055 269.113 193.572 177.651 165.819 159.179 154.613 153.936 146.704 137.133 129.733 128.798 126.32 236.696 121.434 120.439 119.641 113.818 155.748 110.482 110.06 161.224 165.102 114.936 136.765
threshold=1.0000000180025095e-35 1.5000000000000002 6.5000000000000009 1.0000000180025095e-35 75.294696807861342 1.5000000000000002 5.5000000000000009 1.5000000000000002 199.50000000000003 1.5000000000000002 42.500000000000007 1.5000000000000002 4.5000000000000009 6.5000000000000009 105.25000000000001 3.5000000000000004 2.5000000000000004 4.5000000000000009 385.50000000000006 413.50000000000006 380.53000000000003 1.5000000000000002 1.5000000000000002 4.5000000000000009 2414750.5000000005 77.500000000000014 10948.500000000002 4.5000000000000009 8.5000000000000018 1.5000000000000002
decision_type=10 2 10 2 8 2 2 10 10 2 2 8 10 10 8 10 10 10 10 8 2 10 10 2 2 2 2 10 2 10
left_child=1 3 5 21 12 7 -7 -3 11 22 -8 25 13 16 -2 -10 17 20 -19 -20 -5 24 23 -6 -1 -4 27 -27 29 -29
right_child=14 2 8 4 9 6 10 -9 15 -11 -12 -13 -14 -15 -16 -17 -18 18 19 -21 -22 -23 -24 -25 -26 26 -28 28 -30 -31
leaf_value=-0.023664532516190624 -0.068717988648769476 0.13475478256738399 -0.061797857355313339 -0.044859961575794541 0.051715354052550622 -0.0034505742440290709 0.11198450773215843 0.040702074581916443 -0.054219141324154556 -0.0017902958692174445 0.0091159050173125426 0.13781410091416546 1.739241304983796 0.22524050204500676 0.012694856465352967 0.93135713654067609 0.088692616537284719 -0.087173677826537607 0.60410752558921654 -0.11552198742982817 0.024377213420117425 0.12194591615240179 0.224077399269593 1.0150223032498442 0.039750939588612984 0.015495280468285647 -0.049849445569535647 0.66426977943830023 0.062471658438195868 0.17859122666072175
leaf_weight=341.04483863711357 2905.6266871038824 988.25116081722081 194.48589147813618 4740.3869242407382 460.11220444925129 535.89244078099728 631.46358888223767 281.06139839999378 530.41714521124959 896.99403550289571 197.4643861092627 97.798481186851859 0.48803798668086429 21.269735466688871 222.75941395014524 1.3389563411474217 79.087381651625037 17.760763516649604 11.524291822686788 2.943907918408514 265.30145483464003 144.96487480401993 43.700372073799372 1.6845404319465149 1412.7927779741585 556.87969583459198 246.19236061349511 6.3363721929490557 122.81880817189813 68.240171499550343
leaf_count=6800 167363 10046 5522 201962 7006 12931 4989 3136 19131 23578 2959 1660 12 285 8555 36 1226 533 94 44 7950 750 352 19 18364 16874 6741 92 1766 710
internal_value=0 0.00935356 0.0470209 -0.010545 -0.0236602 0.0817257 0.0517761 0.113929 -0.00308424 0.0240223 0.0874795 0.0169286 -0.0366739 -0.0368426 -0.0629209 -0.0517375 -0.037932 -0.0399198 0.157422 0.457681 -0.0411904 0.0346361 0.0698263 0.0552293 0.0274194 0.007035 0.0204158 0.04335 0.121932 0.219857
internal_weight=0 12898.7 4458.64 8440.06 6541.25 2634.13 1364.82 1269.31 1824.51 1402.49 828.928 1292.75 5138.76 5138.27 3128.39 531.756 5117 5037.92 32.229 14.4682 5005.69 1898.8 505.497 461.797 1753.84 1194.95 1000.47 754.275 197.395 74.5765
internal_count=531486 355568 86593 268975 243061 34061 20879 13182 52532 30955 7948 33365 212106 212094 175918 19167 211809 210583 671 138 209912 25914 7377 7025 25164 31705 26183 19442 2568 802
is_linear=0
shrinkage=0.1


Tree=11
num_leaves=31
num_cat=0
split_feature=143 15 259 28 335 28 1 30 27 303 34 105 0 20 9 1 332 262 1 25 4 13 20 217 397 75 40 4 183 139
split_gain=1132.75 822.135 606.448 380.752 525.919 248.388 153.167 141.218 158.493 139.06 137.592 132.395 132.274 133.945 130.319 128.404 125.57 122.421 121.049 126.575 151.768 180.533 517.538 118.286 116.724 115.903 112.627 130.036 106.992 103.647
threshold=1.0000000180025095e-35 3.5000000000000004 3.6646999120712285 1.0000000180025095e-35 1.5000000000000002 1.5000000000000002 261.96000000000009 1.0000000180025095e-35 1.5000000000000002 1.5000000000000002 297.50000000000006 1.5000000000000002 12334265.500000002 1.5000000000000002 218.00000000000003 4.5390000000000006 4.5000000000000009 34.769599914550788 335.00500000000005 2.5000000000000004 10.500000000000002 8.5000000000000018 3.5000000000000004 502.50000000000006 -4.4999999999999991 1.5000000000000002 35.500000000000007 499.50000000000006 105.25000000000001 2.5000000000000004
decision_type=10 2 8 2 8 2 2 10 2 10 10 10 2 2 2 2 10 10 2 2 2 2 2 10 8 8 8 2 8 10
left_child=1 3 10 9 11 -4 -7 -6 12 23 15 17 13 -9 -13 -3 -10 18 19 26 21 22 -21 24 -1 -19 27 -5 -2 -14
right_child=28 2 5 4 7 6 -8 8 16 -11 -12 14 29 -15 -16 -17 -18 25 -20 20 -22 -23 -24 -25 -26 -27 -28 -29 -30 -31
leaf_value=0.079812552845362664 -0.065693577170197234 -0.13533349422993346 0.14473051539255069 -0.0145150193158603 -0.0065114431698499444 -0.012387599852163396 0.096281621493681968 0.11036111518403234 0.005170408375738773 0.16830600827933004 -0.0062215800312662257 -0.056158085342809888 -0.014138506060447573 0.30766836453529917 0.47771354362303048 0.12272139300448995 0.074641171973932469 -0.02960505971259535 0.024770412227153302 0.028744891406495783 -0.0014344387561929532 0.16309517570535537 3.354184538255705 -0.070788020085286563 0.020870234954482089 0.16977931922135334 -0.048992366084506314 0.20816826108672182 0.0057105645085193104 0.43474576617919941
leaf_weight=434.62877147272229 2735.8280065283179 19.616803824901581 130.36514124833047 693.57056357897818 973.25152040831745 1146.6226410586387 146.24712754413486 166.41143425926566 862.75611634366214 73.588070977479219 96.125188542529941 8.3672822471708077 93.051063317805529 43.374529151245952 10.081134278327225 1130.2969728726894 372.53163885883987 59.200830463320017 319.06179150938988 1.4361748509109014 236.39459026418626 33.594607599079609 0.69421961717307556 113.57128884270787 1480.1503703258932 57.445105452090502 4056.2307142093778 27.253756439313293 227.28212109766901 5.4448196440935126
leaf_count=4490 167745 130 1112 25692 22106 30338 2924 2874 19432 404 1233 279 1540 552 113 7356 4071 1334 9701 49 7625 635 28 1858 20828 1082 186942 246 8735 32
internal_value=0 0.00840115 0.0577699 -0.00461776 -0.0145467 0.0131706 -9.51309e-05 0.0233197 0.0421289 0.0332673 0.108711 -0.0318641 0.106272 0.151156 0.235576 0.118319 0.026121 -0.0327636 -0.0349659 -0.0387407 0.0275976 0.219704 1.11239 0.0283681 0.0342493 0.0685866 -0.0425195 -0.00609555 -0.0602166 0.0106757
internal_weight=0 12791.4 2669.27 10122.1 8020.15 1423.23 1292.87 2516.82 1543.57 2101.94 1246.04 5503.33 308.282 209.786 18.4484 1149.91 1235.29 5484.88 5368.24 5049.17 272.12 35.725 2.13039 2028.35 1914.78 116.646 4777.06 720.824 2963.11 98.4959
internal_count=531486 355006 43093 311913 284333 34374 33262 50607 28501 27580 8719 233726 4998 3426 392 7486 23503 233334 230918 221217 8337 712 77 27176 25318 2416 212880 25938 176480 1572
is_linear=0
shrinkage=0.1


Tree=12
num_leaves=31
num_cat=0
split_feature=122 15 28 8 0 26 369 43 36 400 205 1 28 28 31 364 14 397 29 5 314 424 7 27 20 3 25 9 87 135
split_gain=974.972 671.17 536.49 353.249 345.648 267.981 222.371 217.289 209.639 192.834 191.336 144.762 132.554 123.21 124.514 121.808 116.604 121.308 112.094 111.619 108.281 108.093 114.224 123.727 168.167 154.059 147.532 184.366 146.153 137.3
threshold=1.0000000180025095e-35 3.5000000000000004 2.5000000000000004 1.5000000000000002 2370335.5000000005 16.500000000000004 47.961750030517585 93.500000000000014 54.895832061767585 1.5000000000000002 1.5000000000000002 226.10200000000003 37.500000000000007 1.0000000180025095e-35 2.5000000000000004 200.02529907226565 9.5000000000000018 -1.0000000180025095e-35 226.50000000000003 41.500000000000007 2.5000000000000004 5.5000000000000009 101.50000000000001 103.50000000000001 8.5000000000000018 12403.500000000002 5.5000000000000009 310.50000000000006 1.0000000180025095e-35 3.5000000000000004
decision_type=10 2 2 2 2 2 10 10 10 10 8 2 2 2 8 10 2 8 8 2 10 2 2 2 2 2 2 2 8 10
left_child=1 3 18 4 10 21 13 8 9 11 -1 19 -7 -5 -15 -2 -13 -18 -3 -6 -16 -4 -23 24 25 -24 27 -26 -29 -28
right_child=15 2 5 6 7 12 -8 -9 -10 -11 -12 16 -14 14 20 -17 17 -19 -20 -21 -22 22 23 -25 26 -27 29 28 -30 -31
leaf_value=-0.070892716939157926 -0.062653850016892693 0.11800008696850431 0.33357387286191609 0.0042261981573674381 -0.049618175918949022 0.13674754220169894 0.015687384022198225 -0.038437962042781888 -0.02965001831268101 0.33163586077402862 0.020716378977929755 -0.066265195872141872 0.0022024348594124692 -0.0015960121907358316 -0.047064528100263757 0.034016720094577978 0.31347853608881743 0.1069592318313447 -0.058594990706473705 0.049614685564492583 0.18876849839872101 -0.045936356429975525 -0.0044445413600479591 -0.072112377183839504 0.23039483644934108 0.14386271838327699 0.044024060731146439 0.47771713617267919 1.6449944674322066 0.95680919543188425
leaf_weight=544.8345233630389 2646.5015505207703 935.37038716301322 9.5265175700187665 906.65041488967836 122.1184224691242 243.56671465560794 1441.0413364246488 330.93958476744592 305.54988760873675 25.608008779585361 392.04888966679573 35.419946664944291 104.70129272341728 807.50078703649342 3136.9457858204842 137.09545231517404 30.865375105291605 362.34875656850636 37.380179999396205 1578.9354268088937 19.59050165489316 444.19545175135136 581.80686721950769 135.1364361140877 28.661254927515984 79.628878109157085 65.450172184035182 2.8744287900626651 1.7112339716404674 1.6904715169221152
leaf_count=22643 171749 6504 53 12470 2809 1358 27303 10854 7899 305 8999 709 1262 26021 152512 4169 317 5412 747 33724 178 10725 16031 3777 344 1417 1112 23 30 30
internal_value=0 0.00744891 0.0519929 -0.00440403 0.02 0.0180853 -0.0188208 0.0376377 0.0478686 0.0588581 -0.0325579 0.0555782 0.0962987 -0.0290304 -0.0366368 -0.0578927 0.107516 0.12317 0.111214 0.0424908 -0.0456009 -0.00208176 -0.00446599 0.0160711 0.0317136 0.0134099 0.152313 0.324588 0.913311 0.0670062
internal_weight=0 12712.1 2671.7 10040.4 3728.67 1698.95 6311.73 2791.79 2460.85 2155.3 936.883 2129.69 348.268 4870.69 3964.04 2783.6 428.634 393.214 972.751 1701.05 3156.54 1350.68 1341.16 896.96 761.823 661.436 100.388 33.2469 4.58566 67.1406
internal_count=531486 355568 43413 312155 93671 36162 218484 62029 51175 43276 31642 42971 2620 191181 178711 175918 6438 5729 7251 36533 152690 33542 33489 22764 18987 17448 1539 397 53 1142
is_linear=0
shrinkage=0.1


Tree=13
num_leaves=31
num_cat=0
split_feature=122 25 30 28 180 97 14 14 49 29 3 0 32 6 104 9 181 135 11 38 151 43 0 8 30 3 3 134 3 135
split_gain=835.353 585.637 489.361 290.154 282.652 227.782 195.432 125.957 115.64 172.239 163.059 194.139 141.118 137.032 114.805 112.425 111.99 110.016 117.272 250.32 100.081 198.726 99.0662 125.517 95.4861 116.747 125.131 174.366 128.312 177.033
threshold=1.0000000180025095e-35 1.5000000000000002 28.500000000000004 1.0000000180025095e-35 30.967950820922855 1.5000000000000002 15.500000000000002 16.500000000000004 1.0000000180025095e-35 359.50000000000006 7952.0000000000009 2074748.0000000002 10.500000000000002 1.5000000000000002 1.0000000180025095e-35 249.50000000000003 104.48500061035158 1.5000000000000002 1.5000000000000002 61.500000000000007 8.5000000000000018 529.50000000000011 3104298.5000000005 1.5000000000000002 214.50000000000003 7051.0000000000009 6499.5000000000009 1.0000000180025095e-35 6995.5000000000009 1.0000000180025095e-35
decision_type=10 2 10 2 8 8 2 2 2 8 2 2 10 2 10 2 8 10 8 10 10 8 2 2 10 2 2 10 2 10
left_child=1 3 5 -1 22 -3 -7 -8 9 13 14 15 -10 -6 -11 -12 20 -15 19 -19 -2 -22 -5 -24 25 26 -4 28 -28 -30
right_child=16 2 24 4 8 6 7 -9 12 10 11 -13 -14 17 -16 -17 -18 18 -20 -21 21 -23 23 -25 -26 -27 27 -29 29 -31
leaf_value=0.024065474389798058 -0.060257683636330765 0.02796660148313573 0.017266623713741571 -0.05829758147217539 0.30896010596777573 -0.032361514023784281 0.12433062944228446 0.067062010287001803 0.01667384142008143 -0.071288467666707475 1.2911013562026969 0.25164739566415933 -0.058468250907524978 0.0072155815420975643 1.4363589592520933 -0.10682182398547527 0.052366820162088469 0.21842876668928832 0.098860125033629218 1.959382133917237 0.11606286112321547 1.739585974428884 0.005157572077006331 -0.038508269427105113 -0.050705865697227195 -0.030889762728062577 0.24245139338206606 0.01158975930946666 0.52525943312524892 2.1622752727130421
leaf_weight=1978.9201376680285 2532.2982779117301 1387.1601258311421 381.72525250725448 1225.6831267029047 16.921428743749857 135.85006441548467 695.68345062993467 857.34694915544242 723.23264251276851 18.941116247326139 2.9372858479619022 35.470749080181122 381.90447993390262 660.06306775845587 0.5189193245023479 0.71543056331574906 93.200853101909161 3.6648221649229518 82.801930146291852 1.06615250185132 5.7267665937542906 0.86824792250990857 965.60223394073546 2068.4051090013236 463.6056704102084 454.38342447392642 32.149925390258431 39.537931372411549 3.9223752059042445 0.79441328346729267
leaf_count=25914 172790 24087 11234 60964 213 1768 5157 11019 16371 802 86 692 11666 17544 14 18 2915 68 1567 33 182 31 33182 99841 17985 13561 445 1220 90 27
internal_value=0 0.00664066 0.0358179 -0.0092653 -0.0199246 0.0579927 0.0826547 0.0927156 0.0118414 0.0402177 0.205469 0.323132 -0.00929316 0.0275548 -0.0310857 1.0173 -0.0552924 0.0211853 0.126527 0.610763 -0.0592445 0.329803 -0.0343041 -0.0246112 -0.0137497 0.00502606 0.0406482 0.157465 0.313909 0.80097
internal_weight=0 12619 4452.16 8166.85 6187.93 3076.04 1688.88 1553.03 1928.24 823.101 58.5835 39.1235 1105.14 764.517 19.46 3.65272 2632.09 747.596 87.5329 4.73097 2538.89 6.59501 4259.69 3034.01 1376.12 912.513 458.13 76.4046 36.8667 4.71679
internal_count=531486 355568 86593 268975 243061 42031 17944 16176 49074 21037 1612 796 28037 19425 816 104 175918 19212 1668 101 173003 213 193987 133023 44562 26577 13016 1782 562 117
is_linear=0
shrinkage=0.1


Tree=14
num_leaves=31
num_cat=0
split_feature=143 239 16 333 28 1 105 20 97 3 257 27 36 38 8 107 5 118 1 2 217 1 29 1 36 381 180 348 49 279
split_gain=718.991 513.092 280.886 266.235 304.05 254.542 204.708 143.578 141.079 132.926 132.086 123.731 122.527 105.641 122.527 103.892 99.0678 114.545 112.534 131.137 100.263 97.7743 93.7458 97.713 92.6186 91.9271 91.3743 91.2665 229.646 92.4452
threshold=1.0000000180025095e-35 1.5000000000000002 3.5000000000000004 1.0000000180025095e-35 1.0000000180025095e-35 370.01000000000005 1.5000000000000002 10.500000000000002 2.5000000000000004 11045.500000000002 12.81750011444092 38.500000000000007 103.50000000000001 67.500000000000014 1.5000000000000002 3.5000000000000004 61.000000000000007 1.0000000180025095e-35 129.96000000000001 1.5000000000000002 457.50000000000006 4.5390000000000006 206.50000000000003 1054.8650000000002 34.645832061767585 1.5000000000000002 68.53039932250978 2.5000000000000004 1.0000000180025095e-35 1.5000000000000002
decision_type=10 10 2 8 2 2 8 2 10 2 10 2 10 8 2 10 2 10 2 2 8 2 8 2 10 10 8 10 2 10
left_child=1 2 3 4 16 7 8 13 9 11 12 15 21 14 -6 22 18 -18 -1 20 24 -3 25 -24 -20 -4 -2 29 -29 -15
right_child=26 10 6 -5 5 -7 -8 -9 -10 -11 -12 -13 -14 27 -16 -17 17 -19 19 -21 -22 -23 23 -25 -26 -27 -28 28 -30 -31
leaf_value=-0.021107699203289743 -0.060752059463344159 -0.15343138801337552 0.064512535891201886 0.039383701509090978 0.009927391184833061 0.04444292132703366 0.11174105552996312 0.28037964150273259 0.098322548633712384 -0.04210646831790512 -0.0018389108226958943 -0.027495805677594895 -0.001257726325663187 -0.053842786330061135 -0.032475419790017106 -0.069548564770197344 0.15299270042872162 0.034701723022555538 0.25188260752635366 0.014418408381507259 -0.0066605576198020076 0.10717931762371712 -0.030063867093000997 0.8037460148981842 -0.019264365664292307 0.8675434900993535 -0.0079177979129790976 0.18011767130979892 -0.084599246244156351 0.13729701337587952
leaf_weight=745.08167537301779 2130.5244214637205 14.673356406390665 777.17939051613212 1050.2255348963663 973.27628047578037 487.50207364559174 279.59196341130883 14.786896374076603 205.80456217378378 372.78794427122921 205.05675443448126 331.26867878995836 134.11946277320385 2317.3926600245759 2272.8573456928134 75.748544668778777 96.657707758247852 534.71069535240531 62.365956250578165 478.37306045927107 34.941715013235807 761.46590712666512 142.5804798360914 1.419451830908655 15.786398433148859 1.4281583838164795 386.75684491172433 59.174920313060284 73.446434917859733 25.582921377383173
leaf_count=11842 158161 97 15588 18005 28537 11505 2886 89 1470 8649 2230 9208 1157 111556 102549 1220 782 4185 654 7942 439 5097 5419 22 197 18 18319 893 2349 421
internal_value=0 0.00592599 -0.000391346 -0.00801846 -0.0140955 -0.0249285 0.0318286 -0.0308238 0.0201198 0.0106658 0.0706672 0.0254617 0.0870009 -0.0316281 -0.0197619 0.0430337 0.0201664 0.0528112 0.00474541 0.037313 0.134154 0.102252 0.052277 -0.0218447 0.197112 0.0659855 -0.0526346 -0.0471876 0.033516 -0.0517557
internal_weight=0 12545.3 11430 9242.16 8191.94 6224.02 2187.81 5736.52 1908.22 1702.41 1115.32 1329.62 910.259 5721.73 3246.13 998.356 1967.92 631.368 1336.55 591.467 113.094 776.139 922.607 144 78.1524 778.608 2517.28 2475.6 132.621 2342.98
internal_count=531486 355006 346425 301945 283940 257899 44480 246394 41594 40124 8581 31475 6351 246305 131086 22267 26041 4967 21074 9232 1290 5194 21047 5441 851 15606 176480 115219 3242 111977
is_linear=0
shrinkage=0.1


Tree=15
num_leaves=31
num_cat=0
split_feature=100 239 154 8 423 29 5 14 14 4 217 360 14 1 221 1 5 4 337 4 128 4 24 0 323 167 1 1 0 5
split_gain=623.826 431.48 288.063 252.189 260.888 180.068 139.896 182.939 146.35 183.409 131.351 126.312 125.084 123.109 110.663 104.918 104.982 107.759 90.1079 85.3623 79.1432 77.9862 77.9697 75.4828 79.8032 74.4699 73.4332 72.1935 74.362 69.0461
threshold=1.0000000180025095e-35 1.5000000000000002 1.0000000180025095e-35 1.5000000000000002 2.5000000000000004 89.500000000000014 41.500000000000007 17.500000000000004 15.500000000000002 499.50000000000006 593.00000000000011 59.010400772094734 1.5000000000000002 226.10200000000003 3.5000000000000004 140.41500000000002 64.000000000000014 102.50000000000001 2.5000000000000004 26.500000000000004 2.5000000000000004 446.50000000000006 1.5000000000000002 2842400.5000000005 84.884651184082045 2.5000000000000004 265.53400000000005 4.5390000000000006 2530958.0000000005 37.500000000000007
decision_type=10 10 8 2 2 10 2 2 2 2 10 10 2 2 8 2 2 2 8 2 10 2 2 2 10 8 2 2 2 2
left_child=1 2 3 4 23 6 26 8 9 -8 18 15 -3 -9 27 16 20 19 -4 -18 -5 -10 -17 -1 29 -13 -6 -14 -29 -25
right_child=-2 12 10 11 5 -7 7 13 21 -11 -12 25 14 -15 -16 22 17 -19 -20 -21 -22 -23 -24 24 -26 -27 -28 28 -30 -31
leaf_value=-0.078577334472158589 -0.05651087815581201 -0.050627384998700932 0.047901020792109145 -0.048784418763809664 -0.069906316552579575 -0.042564406322367097 -0.048561326634937368 0.0066180467329993338 0.12770922999003731 0.1996359375875113 -0.082511117986436996 0.0030144602957726074 -0.1445641417023035 0.073981639766404053 -0.02541821412296499 -0.0044143225600854034 -0.028366293473754418 -0.026298667259342153 0.0081886501693264249 0.10891811428900589 0.49658539224706905 0.026749789324031589 0.14982972918396154 0.18238013516457111 0.17883991783628689 0.92720849116983539 0.33375516151979084 0.030654068433795385 0.10236834470908251 -0.03204122307107856
leaf_weight=310.64764771610498 1939.0995772713795 87.778797091916203 1535.9291481217369 2619.0612201532349 145.15839209686965 331.59567996766418 137.76075240597129 1140.3895031493157 442.62478314898908 37.982140920124948 102.33479506894946 1443.2022663569078 13.535250527784227 355.97989551257342 101.33856058493257 769.48374969046563 72.706580494530499 783.08376311324537 909.80881773773581 120.1212605824694 2.6636244645342222 92.500345382839441 34.230314668267965 15.653975272551177 20.56854238267988 0.87240210361778636 4.651090149767696 180.50008665956557 726.78445286117494 369.46187901683152
leaf_count=15402 141374 925 23960 140603 3500 12446 3910 30265 7450 166 2332 41347 95 7514 718 34964 1991 22084 16353 2547 39 2226 504 189 383 26 53 1649 5194 11277
internal_value=0 0.0043197 -0.00128794 -0.00948874 0.0121451 0.0264327 0.0361394 0.0424864 0.0842553 0.00507989 0.0284838 -0.0220905 0.0639281 0.0226436 0.0737657 -0.0305106 -0.0378081 -0.00980939 0.0331281 0.0571544 -0.0482303 0.110258 0.00215496 -0.0414814 -0.0130756 0.00357279 -0.057374 0.0846811 0.0881011 -0.0233255
internal_weight=0 12908.4 11798.5 9250.4 3404.97 2688.64 2357.05 2207.24 710.868 175.743 2548.07 5845.43 1109.94 1496.37 1022.16 4401.35 3597.64 975.912 2445.74 192.828 2621.72 535.125 803.714 716.332 405.684 1444.07 149.809 920.82 907.285 385.116
internal_count=531486 390112 381531 338886 94781 67530 55084 51531 13752 4076 42645 244105 8581 37779 7656 202732 167264 26622 40313 4538 140642 9676 35468 27251 11849 41373 3553 6938 6843 11466
is_linear=0
shrinkage=0.1


Tree=16
num_leaves=31
num_cat=0
split_feature=31 25 27 0 8 346 331 26 106 392 201 13 36 39 1 25 3 30 9 1 27 20 313 394 25 28 381 43 134 337
split_gain=536.282 407.035 313.27 197.429 230.27 157.916 141.313 134.45 131.026 124.417 123.393 112.52 110.664 118.48 110.282 97.1525 93.8596 98.4224 94.0842 92.2453 91.0453 88.6968 87.8668 89.398 83.4983 77.4398 110.946 97.8172 75.8689 75.7036
threshold=4.5000000000000009 1.5000000000000002 1.5000000000000002 2370335.5000000005 1.5000000000000002 1.0000000180025095e-35 1.5000000000000002 16.500000000000004 1.5000000000000002 -44.499999999999993 1.5000000000000002 1.5000000000000002 101.14583206176759 105.50000000000001 138.05650000000003 2.5000000000000004 10950.500000000002 199.50000000000003 307.50000000000006 60.189000000000014 178.50000000000003 3.5000000000000004 1.5000000000000002 1.0000000180025095e-35 3.5000000000000004 1.5000000000000002 1.5000000000000002 1.0000000180025095e-35 1.5000000000000002 1.0000000180025095e-35
decision_type=10 2 2 2 2 10 10 2 8 8 8 2 10 10 2 2 2 8 2 2 2 2 10 10 2 2 10 10 10 10
left_child=1 3 6 10 9 -2 15 12 19 -5 -1 -11 13 14 16 -3 17 -4 -19 -6 -9 -12 23 25 -16 27 28 -13 -27 -7
right_child=5 2 7 4 8 29 -8 20 -10 11 21 22 -14 -15 24 -17 -18 18 -20 -21 -22 -23 -24 -25 -26 26 -28 -29 -30 -31
leaf_value=-0.071045968452704028 -0.049520836973408588 0.070713549282790458 0.051424768297341855 0.13019495736129424 -0.040554737929839171 0.076554623785666284 0.011245213026254482 0.11855933209093986 0.030911761712398369 -0.044375172191775586 -0.018241054946927154 0.015186898412306289 -0.07610286146850298 -0.02817473655692921 0.035555690517376691 0.14102555828934094 -0.037091415156599826 -0.039119036871476512 0.043339448350902289 -0.0057468706616024354 -0.00078371323212144328 0.22629549562207874 0.12467882922648771 0.19783496939884787 0.12285277882198259 -0.056375046421109277 0.46135328941464249 0.072740696167186092 0.19228548730206321 -0.012616771495088714
leaf_weight=680.0346779320389 2660.2408835180104 499.3533468414098 629.70820116344839 107.00025189016014 1522.0727456957102 137.0109672350809 240.45419130660594 197.45181917399168 525.84344787709415 243.68448667321354 835.02430897857994 1333.9156068591401 146.28725320938975 541.0579536780715 310.34849441144615 324.03494946286082 316.34598594810814 342.52863432466984 232.15489800274372 1523.3644788516685 94.526265870779753 15.10095070581883 88.981759835034609 28.852373566478491 169.35701770707965 219.78419712558389 4.4539485909044734 379.26399196777493 12.995675751008092 312.02933348715305
leaf_count=34471 169350 6174 13540 1260 65690 2333 2627 1207 13948 6527 30470 35910 2926 21339 6751 2158 9463 16733 2866 59312 1083 272 1020 297 3196 6573 50 6212 184 7544
internal_value=0 0.0065199 0.0321056 -0.0072372 0.000951845 -0.0402618 0.0786885 0.0154744 -0.0151842 0.0247749 -0.0392953 0.0198959 0.00847334 0.0133415 0.0245703 0.098384 0.0113833 0.0241156 -0.00580828 -0.0231434 0.0799227 -0.0138973 0.0274684 0.0230981 0.0663754 0.0205133 -0.0330333 0.0279282 -0.0424928 0.0145912
internal_weight=0 11564 4043.61 7520.37 5990.21 3109.28 1063.84 2979.77 3571.28 2418.93 1530.16 2311.93 2687.79 2541.5 2000.44 823.388 1520.74 1204.39 574.684 3045.44 291.978 850.125 2068.25 1979.27 479.706 1950.41 237.234 1713.18 232.78 449.04
internal_count=531486 352259 90063 262196 196983 179227 10959 79104 138950 58033 65213 56773 76814 73888 52549 8332 42602 33139 19599 125002 2290 30742 50246 49226 9947 48929 6807 42122 6757 9877
is_linear=0
shrinkage=0.1


Tree=17
num_leaves=31
num_cat=0
split_feature=100 25 30 28 364 14 114 43 348 0 30 14 195 378 31 392 397 365 12 303 64 9 3 3 11 11 9 43 3 32
split_gain=498.877 323.437 309.635 174.177 189.801 150.44 154.241 99.9272 110.402 97.133 92.3939 92.3351 85.2323 82.049 82.0267 92.2783 79.2318 80.6504 85.2029 78.2238 75.7362 80.4662 101.907 99.6435 313.804 570.515 354.38 161.773 186.223 90.247
threshold=1.0000000180025095e-35 1.5000000000000002 6.5000000000000009 1.0000000180025095e-35 24.073699951171871 15.500000000000002 2.5000000000000004 34.500000000000007 3.5000000000000004 3104298.5000000005 296.50000000000006 16.500000000000004 2.5000000000000004 4.5000000000000009 1.0000000180025095e-35 -10.499999999999998 -6.4999999999999991 400.08999633789068 1950.0000000000002 1.5000000000000002 1.5000000000000002 77.500000000000014 10950.500000000002 9796.5000000000018 85.500000000000014 203.50000000000003 254.00000000000003 477.50000000000006 10205.000000000002 13.500000000000002
decision_type=10 2 10 2 10 2 8 10 10 2 10 2 10 10 8 8 8 8 8 10 10 2 2 2 10 10 2 8 2 8
left_child=1 3 5 14 9 -3 11 13 -9 -5 20 -7 -8 -6 -1 -16 17 -11 -19 -17 21 -4 23 -23 29 26 -26 -27 -29 -25
right_child=-2 2 10 4 7 6 12 8 -10 16 -12 -13 -14 -15 15 19 -18 18 -20 -21 -22 22 -24 24 25 27 -28 28 -30 -31
leaf_value=-0.038457020681791715 -0.052615013223171747 -0.039115599380212467 -0.051087418473734381 -0.054354204333520464 0.022268805239849906 0.070527411765706746 0.10874330389973963 -0.028121813907901416 0.13854326797988142 0.031720581089985211 -0.051452513729174691 0.023694395131546423 -0.022507560447950263 0.19982457443906451 0.069074436606223644 0.0087061481617173517 -0.024654568761168533 1.8208763372201107 0.06589615366502026 0.14651348657434826 0.12625348327424554 0.014500223518667749 -0.044564943956951535 0.23503585135521854 0.54125627827713041 0.24116031954562966 3.6690286245965633 2.6562190533722809 0.088999313893586646 -0.010641413444364391
leaf_weight=234.95185861550272 1788.5623284298927 189.81261364743114 250.02005554642528 1124.0403850059956 1196.0739079359919 629.15824535116553 554.34282729867846 756.02427589055151 41.951094826683402 235.55033755023032 358.51650773361325 1272.2977268602699 54.325278975069523 26.604661969467998 367.22378155216575 1376.1687108799815 2654.7369232559577 0.51908960938453674 0.59227659367024788 42.461115177720785 49.698082377202809 916.92051869817078 263.42902116756886 18.940448618493974 0.61822967231273895 14.786073406226929 0.8748451229184866 0.6159239104017622 0.52205293718725443 71.007201554253697
leaf_count=3225 141374 2563 9308 65549 22885 5645 4467 26542 713 9132 18393 23849 478 257 3226 19614 133168 17 23 243 511 28056 9622 304 25 181 33 18 25 2040
internal_value=0 0.00379414 0.0248075 -0.00832287 -0.0168303 0.0467244 0.0532155 0.00816699 -0.0193599 -0.0294094 -0.00560149 0.0391906 0.0970288 0.0261323 0.0170885 0.0243962 -0.019712 0.0357304 0.885601 0.0128309 0.00475381 0.00082706 0.0109067 0.025173 0.116321 0.504834 2.37393 0.329584 1.47849 0.0410913
internal_weight=0 12702.8 4645.89 8056.9 6036.09 2699.94 2510.12 2020.65 797.975 4015.44 1945.95 1901.46 608.668 1222.68 2020.81 1785.85 2891.4 236.662 1.11137 1418.63 1587.43 1537.73 1287.71 1024.29 107.365 17.4171 1.49307 15.9241 1.13798 89.9477
internal_count=531486 390112 105518 284594 258286 37002 34439 50397 27255 207889 68516 29494 4945 23142 26308 23083 142340 9172 40 19857 50123 49612 40304 30682 2626 282 58 224 43 2344
is_linear=0
shrinkage=0.1


Tree=18
num_leaves=31
num_cat=0
split_feature=100 97 1 2 14 5 360 3 119 217 43 14 25 124 4 13 13 329 23 8 400 7 47 409 1 15 1 0 342 14
split_gain=424.14 281.524 255.151 235.068 243.499 213.438 241.666 201.621 169.59 162.76 154.851 133.736 125.792 121.788 121.668 115.824 108.532 97.1995 86.0204 84.2907 83.4433 81.5639 77.7586 128.564 78.5877 119.741 91.6488 78.5079 80.0975 77.5259
threshold=1.0000000180025095e-35 2.5000000000000004 140.41500000000002 1.5000000000000002 15.500000000000002 67.000000000000014 38.98500061035157 11045.500000000002 2.5000000000000004 355.00000000000006 27.500000000000004 16.500000000000004 2.5000000000000004 1.0000000180025095e-35 492.50000000000006 1.5000000000000002 58.500000000000007 44.922300338745124 1.5000000000000002 1.5000000000000002 1.0000000180025095e-35 7.0000000000000009 1.0000000180025095e-35 7.5000000000000009 422.51500000000004 1.5000000000000002 1012.0450000000002 6911521.5000000009 1.5000000000000002 16.500000000000004
decision_type=10 10 2 2 2 2 8 2 8 8 10 2 2 10 2 2 2 10 2 2 10 2 2 2 2 2 2 2 10 2
left_child=1 2 5 9 -5 6 14 8 11 -4 12 15 22 21 17 -7 -13 -1 -12 -9 -17 -8 24 -24 -6 26 27 -26 -29 -16
right_child=-2 -3 3 4 10 7 13 19 -10 -11 18 16 -14 -15 29 20 -18 -19 -20 -21 -22 -23 23 -25 25 -27 -28 28 -30 -31
leaf_value=-0.042514298496109749 -0.049967030961708785 0.068718713912368987 0.17368766843580175 -0.081125128291963389 0.027601122301155662 -0.04896387248827453 0.075036371821743816 0.026942762460047398 0.14175523241178764 0.037354922466592118 -0.038226822441080881 -0.013362440993255637 0.11615022235381503 -0.079979759733599623 0.16643491884282202 0.059712481304990607 0.12466434550618073 0.061071592080983887 0.019958598014368854 -0.054596671087647757 0.22253970480347718 0.0037566639103041284 0.085321502940944163 -0.021665566831448928 0.057004875727748407 -0.031626165860746881 -0.015648597113356432 0.21592957504531618 0.019152900456008509 -0.013673596050607304
leaf_weight=3294.5681045958772 1699.7274388857186 624.20061643235385 163.2866786653176 245.96086436603218 582.47354492172599 97.497342935763299 172.03425069805235 174.28737343288958 132.82219575624913 188.8424802031368 492.9123838795349 789.0648974198848 197.00144666060805 165.48984838742763 46.927686784416437 684.00321519840509 61.401030000299215 93.147513153962791 524.38804843183607 465.08461046777666 32.990959991700947 2401.3635868849233 147.52077819872648 470.70756186451763 70.915305804461241 66.459716618061066 42.831582207232714 128.54946855828166 24.652843747287989 48.700918221846223
leaf_count=173486 141374 4829 2131 7855 15006 2429 2747 2660 939 3105 19514 17077 2369 3965 422 12014 1181 1227 16248 11862 260 63148 2999 15156 1170 944 660 1887 242 2580
internal_value=0 0.00324161 -0.000162619 0.0232877 0.0141991 -0.00922524 -0.0190509 0.0158604 0.0330132 0.100574 0.0227299 0.0243383 0.040926 0.00317432 -0.0365261 0.0532989 -0.00339733 -0.0396661 -0.00823397 -0.0323697 0.0672046 0.00852178 0.0312661 0.00386354 0.0497631 0.0884805 0.118382 0.143997 0.184265 0.0747108
internal_weight=0 12630.1 12005.9 3346.5 2994.37 8659.38 6222.23 2437.15 1797.78 352.129 2748.41 1664.96 1731.11 2738.89 3483.34 814.492 850.466 3387.72 1017.3 639.372 716.994 2573.4 1534.11 618.228 915.882 333.409 266.949 224.118 153.202 95.6286
internal_count=531486 390112 385283 89286 84050 295997 247575 48422 33900 5236 76195 32961 40433 69860 177715 14703 18258 174713 35762 14522 12274 65895 38064 18155 19909 4903 3959 3299 2129 3002
is_linear=0
shrinkage=0.1


Tree=19
num_leaves=31
num_cat=0
split_feature=31 25 27 0 8 346 25 201 27 25 39 23 1 421 106 1 43 346 20 392 13 36 38 15 130 7 38 33 332 0
split_gain=364.141 264.647 171.515 155.558 144.175 143.13 115.857 112.715 96.8649 147.263 99.4909 93.9851 92.0061 88.3862 87.0933 83.7424 83.36 101.664 126.8 74.9323 85.2812 73.042 72.3232 110.92 87.9398 70.9169 76.5902 68.9186 68.3983 151.257
threshold=2.5000000000000004 1.5000000000000002 1.5000000000000002 2414750.5000000005 1.5000000000000002 1.0000000180025095e-35 2.5000000000000004 1.5000000000000002 38.500000000000007 16.500000000000004 17.500000000000004 8.5000000000000018 107.01950000000001 6.5000000000000009 1.5000000000000002 59.005000000000003 484.50000000000006 1.0000000180025095e-35 6.5000000000000009 -44.499999999999993 1.5000000000000002 101.14583206176759 134.50000000000003 32.500000000000007 3.5000000000000004 107.50000000000001 6.5000000000000009 1.5000000000000002 1.0000000180025095e-35 12044065.000000002
decision_type=10 2 2 2 2 10 2 8 2 2 8 2 2 2 8 2 8 10 2 8 2 10 10 2 10 2 10 8 8 2
left_child=1 3 6 7 19 27 -3 -1 9 11 12 13 -10 -4 15 -6 -13 18 -18 -5 -21 22 -15 24 -24 -14 28 -2 29 -27
right_child=5 2 8 4 14 -7 -8 -9 10 -11 -12 16 25 21 -16 -17 17 -19 -20 20 -22 -23 23 -25 -26 26 -28 -29 -30 -31
leaf_value=-0.067271497193149662 0.035499047507881097 0.037082800624591482 0.18512705173505645 0.10116000389188816 -0.036582019683585147 0.010985229588475353 0.10635918910861904 -0.010248554742045874 -0.022657781751193554 0.11184502115196571 -0.033226548817066208 0.10080367594960407 0.012325425447001706 0.02560902356494137 0.025833276713046971 -0.0016604694628497515 2.1107566243882707 0.28288762565287956 0.2898845474720218 -0.041496633841417746 0.023413547466739529 -0.073624515868434062 -0.027933505409835954 1.2867158005046389 1.0267175263619224 0.58845129022722298 0.15016056133092126 -0.044999432192482633 0.43937430999596816 2.6867806526442894
leaf_weight=614.95249726623297 110.88836318813264 681.7426457516849 29.419458730146289 110.78591838944703 1339.7362258518115 636.39325686451048 373.75931498408318 794.4917655903846 23.39023535232991 175.67422808893025 553.11498353071511 30.775971940718591 7.9138224106282005 1397.2288213074207 523.14313747175038 1408.7414071410894 0.76695714611559995 5.5966169517487288 0.76280658692121506 224.92699101567268 2021.7161512793973 97.955972444266081 380.00784546975046 0.64502359926700492 0.79226861707866092 1.3049196498468489 7.6056712754070768 2601.9608338745311 6.4581385171040901 0.46628772933036078
leaf_count=34764 3077 8047 292 1239 61621 13490 2705 30102 1409 1170 16924 559 295 33496 13448 56302 21 43 33 6387 48662 2057 14018 9 13 114 157 180902 89 41
internal_value=0 0.00603896 0.027399 -0.00541837 0.00202059 -0.0316965 0.061614 -0.0351281 0.0141212 0.0241638 -0.0213413 0.0162401 0.118116 0.0131395 -0.0115646 -0.0186829 0.172167 0.480356 1.20279 0.020874 0.0169149 0.0104433 0.0150731 -0.0235199 -0.0257393 0.256764 0.378926 -0.041709 0.590355 1.14086
internal_weight=0 10813.9 3775.38 7038.49 5629.05 3349.24 1055.5 1409.44 2719.88 2119.63 600.254 1943.95 47.1391 1906.05 3271.62 2748.48 37.9024 7.12638 1.52976 2357.43 2246.64 1876.63 1778.67 381.445 380.8 23.7488 15.835 2712.85 8.22935 1.77121
internal_count=531486 334017 81492 252525 187659 197469 10752 64866 70740 51711 19029 50541 2105 49885 131371 117923 656 97 54 56288 55049 49593 47536 14040 14031 696 401 183979 244 155
is_linear=0
shrinkage=0.1


Tree=20
num_leaves=31
num_cat=0
split_feature=100 15 27 394 31 217 204 186 36 8 43 14 4 396 106 422 30 372 211 41 223 167 185 362 9 20 340 87 3 3
split_gain=341.902 227.162 193.692 184.214 157.802 162.27 170 146.944 134.194 144.587 110.081 92.4764 135.346 105.041 85.5709 91.9159 94.9426 79.732 75.4894 72.3287 79.6845 72.1371 101.476 71.1106 70.5876 97.4562 119.381 175.09 111.602 83.5487
threshold=1.0000000180025095e-35 7.5000000000000009 25.500000000000004 1.0000000180025095e-35 19.500000000000004 957.50000000000011 1.5000000000000002 14.139349937438967 103.50000000000001 1.5000000000000002 201.50000000000003 9.5000000000000018 499.50000000000006 1.0000000180025095e-35 1.5000000000000002 36.500000000000007 193.50000000000003 77.953296661376967 102.50000000000001 10.500000000000002 20.500000000000004 2.5000000000000004 57.925001144409187 192.90999603271487 163.50000000000003 1.5000000000000002 1.5000000000000002 1.0000000180025095e-35 9457.5000000000018 3069.5000000000005
decision_type=10 2 2 10 10 10 10 8 10 2 10 2 2 10 8 2 8 10 10 10 10 8 10 10 2 2 10 8 2 2
left_child=1 3 19 4 5 6 7 8 9 10 11 12 -1 -13 17 16 -16 -11 -17 -3 -21 -4 23 -23 -19 26 -26 -28 29 -27
right_child=-2 2 21 -5 -6 -7 -8 -9 -10 14 -12 13 -14 -15 15 18 -18 24 -20 20 -22 22 -24 -25 25 28 27 -29 -30 -31
leaf_value=-0.052503000152959382 -0.046388787893222788 0.089619767150104543 -0.0063728667792537236 0.12753517357274796 -0.044929834734102753 -0.081219980756037646 0.09957840327885259 0.025261777671143557 -0.05417689330416986 -0.022249921181218883 -0.049849422265433992 0.020258118699659339 0.15882056614616813 0.082282670532178387 1.375532465048662 0.014553122171695361 0.23847362288299895 -0.01514159802299414 0.51702425610885816 0.020589185812004696 -0.31533837897172379 0.3859356267408367 0.040778421512368324 1.616611289418918 -0.030639029755108512 -0.07875668746278916 1.6121369521803317 -0.10530685693283592 -0.074441880788968198 0.27120231931848748
leaf_weight=275.95855121035129 1590.1247357707471 620.06875082105398 504.62983737699687 109.45976359304041 824.34243395645171 237.16438247077167 177.08800906129181 1957.7315315157175 525.17673582397401 3670.6312192110345 232.90645783208311 1951.928648326546 34.046806629747152 317.45074934884906 0.80965491756796559 614.86745378375053 7.8940025912597784 154.06739968620241 3.0045587718486777 61.413753975182772 7.9786424487829199 1.0207575792446721 3.4578292295336723 0.86940990388393391 64.595931818708777 7.8737808298319569 1.104855474084615 1.282822730951011 15.852270458824931 51.065031994134188
leaf_count=9774 141374 5810 15176 1809 49493 10686 1640 28389 18089 159227 8495 45409 187 6320 24 19688 195 5164 46 394 38 41 63 16 2108 278 21 35 488 1009
internal_value=0 0.00285643 0.0442235 -0.00155937 -0.00282933 0.000539289 0.00246574 0.000726556 -0.00533022 -0.00186608 0.0159911 0.0219362 -0.0292941 0.0289344 -0.0127999 0.0215423 0.344248 -0.0182248 0.0169965 0.0787846 -0.0180353 -0.00250107 0.362837 0.952003 0.0317158 0.0826361 -0.00497239 0.68941 0.161099 0.22445
internal_weight=0 12435.7 1199.44 11236.3 11126.8 10302.5 10065.3 9888.25 7930.52 7405.34 2812.29 2579.38 310.005 2269.38 4593.05 626.576 8.70366 3966.47 617.872 689.461 69.3924 509.978 5.348 1.89017 295.842 141.775 66.9836 2.38768 74.7911 58.9388
internal_count=531486 390112 21538 368574 366765 317272 306586 304946 276557 258468 70185 61690 9961 51729 188283 19953 219 168330 19734 6242 432 15296 120 57 9103 3939 2164 56 1775 1287
is_linear=0
shrinkage=0.1


Tree=21
num_leaves=31
num_cat=0
split_feature=100 97 0 113 36 0 207 8 29 23 16 269 9 38 5 14 11 348 85 6 15 45 48 5 1 27 394 105 181 64
split_gain=289.979 192.607 178.133 215.231 178.948 181.261 143.609 134.224 120.83 132.502 104.955 112 104.93 124.933 100.539 103.282 99.6284 96.249 92.206 86.3988 147.487 85.3329 91.5412 79.2844 77.3114 74.7958 74.7886 73.5674 71.6727 71.2757
threshold=1.0000000180025095e-35 3.5000000000000004 2370335.5000000005 1.5000000000000002 119.52083206176759 6390393.0000000009 1.5000000000000002 1.5000000000000002 200.50000000000003 4.5000000000000009 1.5000000000000002 3.5000000000000004 288.50000000000006 456.50000000000006 41.500000000000007 18.500000000000004 77.500000000000014 2.5000000000000004 1.0000000180025095e-35 1.5000000000000002 1.5000000000000002 1.0000000180025095e-35 1.0000000180025095e-35 37.500000000000007 149.96000000000001 28.500000000000004 1.0000000180025095e-35 1.5000000000000002 24.551300048828129 1.0000000180025095e-35
decision_type=10 10 2 8 10 2 8 2 8 2 2 8 2 10 2 2 10 10 10 2 2 2 2 2 2 2 10 8 10 10
left_child=1 2 6 7 5 24 -1 8 9 14 18 -12 -11 -14 -4 -16 17 26 23 20 -17 22 -18 -7 -5 -21 -9 -8 -2 -19
right_child=28 -3 3 4 -6 10 27 16 -10 12 11 -13 13 -15 15 19 21 29 -20 25 -22 -23 -24 -25 -26 -27 -28 -29 -30 -31
leaf_value=-0.061936868144271288 -0.049598583903778276 0.077980753216006227 -0.066078995906550586 0.06523130494268746 -0.037000600556856743 0.22650951086162807 -0.013939021036090325 -0.018538319355076532 -0.061125124726283189 0.13953687798568967 0.092678841908633236 0.0052389356790891739 -0.002608018586868913 1.5070538716894695 0.062131685187905683 0.20800318624108508 0.15238527749095362 -0.027754106619793023 0.15095152242577112 0.010902435569188957 -0.043039406928928083 0.0016774947986871727 -0.0068665894263067132 -0.023478337850398559 0.14073530486748026 -0.098640548420668342 0.14456230024125122 0.068155133367569398 0.037241620074073188 0.12564946067837254
leaf_weight=709.17658243328333 1418.2816605353728 329.10235977172852 130.90992734767497 368.04511080123484 291.98417240567505 13.012254070490597 1497.7608864698559 4466.8505356656387 183.67551231756806 63.322869719937444 329.59807462058961 263.67301006987691 0.98365353606641237 1.2382091786712406 541.24819193221629 56.451925129629672 99.056118157692254 47.738097801804543 34.780892881564796 1543.240149974823 39.97343347594142 274.05689811706543 56.787996681407094 507.14034932199866 214.73832706082612 64.955134550109506 28.292184756137431 117.74044174794108 101.86759080830961 82.858777921646833
leaf_count=37264 136460 2234 3137 7442 7870 152 51106 184478 7579 1188 3636 3448 38 21 7105 939 2423 1263 223 31781 871 11485 2129 13675 3034 2433 293 1063 4914 1802
internal_value=0 0.00250472 0.000439814 0.00639567 0.0354156 0.0476308 -0.0244235 -0.00124676 0.0170945 0.022977 0.0245766 0.0538171 0.163237 0.838703 0.019109 0.0240745 -0.0107736 -0.0150531 -0.00668402 0.0119907 0.103933 0.0352744 0.0943555 -0.0172246 0.0930523 0.00647799 -0.0175118 -0.00795586 -0.0437793 0.0695747
internal_weight=0 12358.4 12029.3 9704.61 2022.97 1730.99 2324.68 7681.64 2626 2442.32 1148.2 593.271 65.5447 2.22186 2376.78 2245.87 5055.64 4625.74 554.933 1704.62 96.4254 429.901 155.844 520.153 582.783 1608.2 4495.14 1615.5 1520.15 130.597
internal_count=531486 390112 387878 298445 39480 31610 89433 258965 55092 47513 21134 7084 1247 59 46266 43129 203873 187836 14050 36024 1810 16037 4552 13827 10476 34214 184771 52169 141374 3065
is_linear=0
shrinkage=0.1


Tree=22
num_leaves=31
num_cat=0
split_feature=33 5 1 14 359 421 14 14 425 3 41 47 20 99 27 23 119 4 46 5 49 6 329 7 331 128 300 47 2 28
split_gain=247.845 164.175 247.543 180.369 169.346 165.725 139.778 128.911 128.638 96.8951 91.8623 89.1493 91.7441 88.8387 84.3956 107.41 84.1428 83.8039 78.7872 78.0926 76.7703 77.2129 70.6593 69.6844 64.0756 62.272 61.639 64.9935 77.7738 61.8652
threshold=5.5000000000000009 67.000000000000014 129.96000000000001 16.500000000000004 74.50370025634767 9.5000000000000018 1.5000000000000002 1.5000000000000002 2.5000000000000004 10376.000000000002 171.50000000000003 2.5000000000000004 2.5000000000000004 2.5000000000000004 85.500000000000014 19.500000000000004 3.5000000000000004 492.50000000000006 1.0000000180025095e-35 80.500000000000014 1.0000000180025095e-35 1.5000000000000002 49.899400711059577 77.500000000000014 1.5000000000000002 2.5000000000000004 1.5000000000000002 1.0000000180025095e-35 1.5000000000000002 1.5000000000000002
decision_type=10 2 2 2 8 2 2 2 2 2 8 2 2 8 2 2 8 2 2 2 2 2 10 2 10 10 10 2 2 2
left_child=1 2 4 7 17 -4 -7 -3 -8 19 -6 12 -2 16 15 18 -5 22 -12 24 21 -10 -1 -23 -9 -20 27 29 -29 -22
right_child=11 3 5 13 10 6 8 9 20 -11 14 -13 -14 -15 -16 -17 -18 -19 25 -21 26 23 -24 -25 -26 -27 -28 28 -30 -31
leaf_value=-0.038640694660330224 -0.032783516404546312 -0.040566806854341747 0.16305118135032781 -0.018365994383001946 -0.084985307545058938 -0.070457594524920203 0.096610726696080118 0.090406793128119445 0.17657788355058843 0.010560647191889927 0.050292008774984513 -0.060789398152279496 0.023304645291871727 0.064741432646145167 -0.060449325236162116 0.68276436373151561 0.1274186626007825 0.065045194085294619 0.00028024025631596521 -0.084436948194200501 0.036217236115916845 -0.013100174709210167 0.044071749977334047 0.045840147361812501 0.0051327327049513994 0.16062860232552667 0.10946581996449634 0.051935404136206946 -0.035215095686053334 -0.026552620671945932
leaf_weight=2687.3168169632554 1163.6262110266834 140.15820417739451 78.302237999625504 1032.0380112053826 115.75318366661668 177.34754868596792 208.79633956495672 821.84376433491707 37.574134918861091 295.30966819263995 408.57633867952973 745.91494143940508 389.16706959344447 171.47766137588769 178.05407395213842 2.3768059927970162 41.170051632449031 85.498553913086653 2024.0057969484478 29.348825092427433 557.20306910295039 270.02001295331866 107.4108788529411 780.12365856301039 98.699180552735925 24.512739862315357 51.1316102668643 120.5572701189667 679.82801550347358 218.62253357190639
leaf_count=153999 58009 3189 1004 20595 2986 5627 3555 10714 665 5206 10460 80301 12853 2874 8524 34 285 2792 62979 479 12234 8436 1561 24347 1128 224 420 2082 28538 5386
internal_value=0 0.00360749 -0.00293589 0.0255337 -0.0155267 0.0193727 0.015745 0.0503563 0.0209736 0.0605905 0.00220646 -0.0323756 -0.0187265 -0.00209439 0.00603305 0.0108461 -0.0127735 -0.0324783 0.0101961 0.0761442 0.0151569 0.0357247 -0.0354618 0.030685 0.0812638 0.00219898 0.00140935 -0.00209595 -0.0220881 0.0185291
internal_weight=0 11443.1 8813.01 2630.05 5633.51 3179.51 3101.2 1385.36 2923.86 1245.2 2753.28 2298.71 1552.79 1244.69 2637.53 2459.47 1073.21 2880.23 2457.09 949.892 2715.06 1087.72 2794.73 1050.14 920.543 2048.52 1627.34 1576.21 800.385 775.826
internal_count=531486 380323 335853 44470 243559 92294 91290 20716 85663 17527 85207 151163 70862 23754 82221 73697 20880 158352 73663 12321 82108 33448 155560 32783 11842 63203 48660 48240 30620 17620
is_linear=0
shrinkage=0.1


Tree=23
num_leaves=31
num_cat=0
split_feature=8 13 19 15 15 27 3 29 405 107 1 7 359 51 20 23 119 348 65 9 0 29 30 11 46 318 421 28 1 11
split_gain=214.147 186.858 168.555 146.423 136.824 112.012 99.8003 81.6379 86.7815 86.0947 81.0661 77.3936 88.2075 76.8041 99.4428 698.119 123.462 76.7028 84.4139 106.923 117.387 92.2172 101.708 76.5098 80.6859 71.9526 70.7601 70.5573 81.6802 79.1842
threshold=1.5000000000000002 13.500000000000002 1.0000000180025095e-35 5.5000000000000009 3.5000000000000004 32.500000000000007 10641.500000000002 200.50000000000003 5.5000000000000009 2.5000000000000004 24.512000000000004 107.50000000000001 188.06439971923831 1.0000000180025095e-35 1.0000000180025095e-35 4.5000000000000009 1.0000000180025095e-35 1.5000000000000002 1.0000000180025095e-35 310.50000000000006 10514542.000000002 345.50000000000006 54.500000000000007 18.500000000000004 1.0000000180025095e-35 2.9976500272750859 12.500000000000002 3.5000000000000004 261.96000000000009 1.5000000000000002
decision_type=2 2 2 2 2 2 2 10 2 10 2 2 10 2 2 2 10 8 10 2 2 10 8 8 2 10 2 2 2 8
left_child=1 10 4 5 6 7 17 8 -3 26 -1 -4 -13 -14 15 16 -15 23 -19 21 -21 22 -20 -2 -25 27 -10 28 -6 -29
right_child=2 3 11 -5 25 -7 -8 -9 9 -11 -12 12 13 14 -16 -17 -18 18 19 20 -22 -23 -24 24 -26 -27 -28 29 -30 -31
leaf_value=0.077866340059006417 -0.033121493156127994 -0.025151927611915249 -0.061892564516046016 0.067657894750598038 0.049664563417485368 -0.10451614741768085 -0.03632356182253034 -0.053940758275975047 0.13813218284389386 -0.063039499524480611 -0.03416303630928981 -0.041055817418374094 0.084544571990582185 2.0824531508419595 -0.027410330514468891 5.1882195189049192 0.084609344092641536 -0.03126077197166665 0.12062393162377659 1.2057433904165209 -0.10539769701730486 0.23811655171208282 -0.049831669562050269 0.045929649697823281 -0.0054529670456511994 -0.07377749629497582 0.02742169450807724 0.13857055497037393 0.19298264584616873 -0.0020576333072842971
leaf_weight=69.632318878546357 885.5107701793313 365.1186749143526 807.50727633945644 620.33013646118343 429.78626224398613 76.672180254943669 1204.2370398715138 152.3726826692 58.925335448235273 103.75250473897904 892.25368156842887 714.96125112753361 121.2084382455796 0.32019684091210088 221.90096377953887 0.28357804007828313 9.1067863283678872 87.992307189851999 78.963564546778798 1.7501876661553972 1.1196954473853109 29.970058681443334 62.880976957269013 343.07815633527935 2798.1746488194913 64.816960510797799 2848.870522226207 43.681791975162923 43.820790111087263 480.25770937185735
leaf_count=1050 38825 11985 71671 8759 6066 3434 47213 7964 1160 1345 29187 72817 7511 13 14045 23 653 2366 1272 32 37 429 2047 11706 107813 555 69210 955 605 10738
internal_value=0 0.0137269 -0.012095 0.0227811 -0.00453301 0.0150605 -0.0108858 0.0176584 0.0208894 0.0264714 -0.0260531 -0.0385318 -0.0208653 0.0200491 -0.0137031 0.299527 0.152468 -0.00374431 0.0486124 0.0888463 0.694197 0.0787349 0.0450594 -0.00715968 0.000158887 0.0283185 0.0296652 0.0349524 0.0629252 0.0096668
internal_weight=0 5187.93 8431.33 4226.04 6556.04 3605.71 5493.68 3529.04 3376.67 3011.55 961.886 1875.29 1067.78 352.82 231.612 9.71056 9.42698 4289.44 262.677 174.684 2.86988 171.815 141.845 4026.76 3141.25 1062.36 2907.8 997.547 473.607 523.94
internal_count=531486 134094 397392 103857 230659 95098 211740 91664 83700 71715 30237 166733 95062 22245 14734 689 666 164527 6183 3817 69 3748 3319 158344 119519 18919 70370 18364 6671 11693
is_linear=0
shrinkage=0.1


Tree=24
num_leaves=31
num_cat=0
split_feature=31 0 201 25 38 27 114 26 9 422 32 342 400 343 1 1 214 424 31 47 58 14 372 134 311 105 103 1 19 60
split_gain=199.478 159.564 137.827 134.976 127.304 110.979 109.879 94.4984 87.8011 86.8448 79.0791 82.783 76.2803 75.5107 74.7682 72.7332 74.961 74.9342 67.9164 63.665 63.1248 62.1476 58.2639 55.3093 55.4376 54.5439 53.6057 50.004 71.9602 58.708
threshold=2.5000000000000004 2414750.5000000005 2.5000000000000004 1.5000000000000002 53.500000000000007 1.5000000000000002 3.5000000000000004 21.500000000000004 281.00000000000006 36.500000000000007 271.50000000000006 1.5000000000000002 1.0000000180025095e-35 2.5000000000000004 279.98500000000007 200.09000000000003 22.500000000000004 76.000000000000014 57.500000000000007 1.0000000180025095e-35 1.5000000000000002 1.5000000000000002 249.98500061035159 1.5000000000000002 2.5000000000000004 1.5000000000000002 1.0000000180025095e-35 85.125000000000014 1.0000000180025095e-35 1.5000000000000002
decision_type=10 2 8 2 10 2 8 2 2 2 10 10 10 10 2 2 10 2 10 2 10 2 10 10 10 8 8 2 2 10
left_child=1 2 -1 9 10 18 -4 22 14 -3 11 21 15 20 -6 16 23 -17 -2 26 -10 -5 -7 24 -11 -25 -19 28 -23 -29
right_child=5 3 6 4 8 7 -8 -9 13 12 -12 -13 -14 -15 -16 17 -18 19 -20 -21 -22 27 -24 25 -26 -27 -28 29 -30 -31
leaf_value=-0.056986322883127064 0.071696173766422289 0.10424782657424728 -0.0085250635567740984 -0.034837189977097956 -0.031338226499691167 -0.035736137569756042 0.12618547791421716 0.097355155127684584 -0.013591058907537285 -0.013608442212410915 -0.022382530976224183 0.016548534072827078 0.088106394121941739 0.20319426058927423 0.064892168786745127 0.14550756400533979 0.12194155317733729 0.021554875357504888 -0.041763952117561592 -0.013821408811758758 0.78577778480656324 0.060123755050685491 0.063820135080581097 0.028196241336659447 0.061999464140232864 0.21439444445933142 0.096792237937591341 0.09724066787954451 -0.036325129221203963 -0.06600514317667773
leaf_weight=694.52205841196701 179.11650851741433 80.508370134979486 1296.7867154157721 65.307179657742381 601.54069374455139 2629.2750192945823 63.515002575702965 56.33492105267942 42.131515987217426 3867.4469746453688 184.74550181999803 641.76613509561867 95.723023462109268 34.768247096799314 93.258042845875025 45.327732655219734 43.701430611312389 603.52713728882372 74.785802230704576 476.26697037834674 1.011602584272622 674.45758080948144 60.128726369701326 96.641554755624384 99.471648309379816 18.791510958224535 112.32311418373138 478.42645628284663 87.37854507798329 23.093301470391452
leaf_count=37448 4084 1456 42209 1014 24009 187409 529 536 1836 145273 4750 7836 1328 282 1988 555 738 12876 3476 20806 43 7798 1964 1981 646 173 1827 8670 7536 410
internal_value=0 0.00425703 -0.0207408 0.0103232 0.0276899 -0.0249762 -0.00223518 -0.0308253 -0.007134 0.00114454 0.0401755 0.0460409 -0.000375947 0.0935292 -0.0184219 -0.0019551 -0.00833242 0.019309 0.038277 0.0145106 0.00515222 0.0602862 -0.0335103 -0.009727 -0.0117126 0.0585077 0.0333603 0.0652034 0.0490616 0.0897237
internal_weight=0 10522.4 2054.82 8467.61 2927.88 2999.64 1360.3 2745.74 772.71 5539.73 2155.17 1970.43 5459.22 77.9114 694.799 5363.5 4126.05 1237.44 253.902 1192.12 43.1431 1328.66 2689.4 4082.35 3966.92 115.433 715.85 1263.36 761.836 501.52
internal_count=531486 334017 80186 253831 66172 197469 42738 189909 28158 187659 38014 33264 186203 2161 25997 184875 148811 36064 7560 35509 1879 25428 189373 148073 145919 2154 14703 24414 15334 9080
is_linear=0
shrinkage=0.1


Tree=25
num_leaves=31
num_cat=0
split_feature=33 397 13 1 97 333 313 400 411 1 134 5 346 7 362 47 20 127 38 38 9 15 275 267 113 126 135 3 1 9
split_gain=178.035 135.577 112.566 114.571 104.264 108.392 87.6642 84.6235 83.9519 79.4468 77.6521 101.716 69.7092 68.3284 67.2521 66.9982 68.0277 65.3327 67.3975 80.7645 94.5777 73.4846 60.8056 68.7025 60.5248 106.527 62.8539 79.1617 62.2523 59.6815
threshold=8.5000000000000018 -6.4999999999999991 3.5000000000000004 226.10200000000003 1.5000000000000002 1.0000000180025095e-35 1.5000000000000002 3.5000000000000004 308.50000000000006 124.99500000000002 1.0000000180025095e-35 53.000000000000007 12.500000000000002 107.50000000000001 323.87500000000006 2.5000000000000004 2.5000000000000004 1.5000000000000002 51.500000000000007 101.50000000000001 218.00000000000003 7.5000000000000009 1.0000000180025095e-35 13.194400310516359 1.0000000180025095e-35 1.0000000180025095e-35 1.5000000000000002 12615.500000000002 105.004 150.00000000000003
decision_type=10 8 2 2 10 10 10 10 2 2 8 2 8 2 10 2 2 10 10 10 2 2 10 8 8 8 10 2 2 2
left_child=1 8 12 4 5 6 7 17 -1 -10 14 -12 -3 -7 -6 16 -2 -4 -19 20 -20 -21 23 -13 25 -15 -26 -28 -27 -8
right_child=15 2 3 -5 10 13 29 -9 9 -11 11 22 -14 24 -16 -17 -18 18 19 21 -22 -23 -24 -25 26 28 27 -29 -30 -31
leaf_value=0.017917274685613275 -0.031907430075538971 -0.035573063256454332 -0.016101184153185139 0.028854442408114613 0.22335287269210582 0.00042328810982290399 0.13799609226061568 0.23128723005542384 0.049221104560014647 0.16385702723800755 -0.023279062721473134 0.086542972368237325 0.099992208718889738 0.082399966393305879 -0.097693093874680961 -0.059644770523002079 0.021826812046524272 -0.021438507047668098 -0.10384867851252866 0.072036300985583543 0.96205488345258061 0.59194920518239647 -0.021107469664155595 0.011731560063667497 0.017431043526823311 0.25642680749405267 0.09872044553468716 0.60739085031185058 0.74516708337674453 0.020263436375590305
leaf_weight=928.97849121503532 924.22005749400705 1102.8740425161086 5550.3055145675316 1387.4964323043823 33.647899717558175 495.83602592116222 54.809119338169694 13.987770004663615 255.83311995770782 79.161946452222764 330.57063688710332 336.38094107247889 39.281938593834639 47.55712720984593 8.0945260729640705 569.33723798114806 316.21500360313803 28.621637057047337 1.2234088080003886 24.065044333226982 2.6048487825319171 3.0647469749674192 114.55250163376331 193.29154346697032 274.08121576998383 7.8546029161661846 73.295105604454875 3.19270912464708 3.9002408087253571 200.81149352714419
leaf_count=19607 50054 41683 257320 38558 777 9164 634 251 5415 1162 9199 2522 328 1004 227 69877 10676 651 48 329 42 45 991 1760 5181 64 762 48 42 3065
internal_value=0 0.00247903 -0.00130312 0.00237687 -0.00233202 -0.00680659 -0.0117673 -0.0143706 0.0333934 0.0763105 0.0275349 0.0218156 -0.0309106 0.0253959 0.161097 -0.0312445 -0.0182094 -0.0149831 0.0891761 0.191443 0.621421 0.130769 0.044955 0.0592423 0.0556055 0.149028 0.0397995 0.119953 0.41859 0.0455072
internal_weight=0 11595.4 10331.4 9189.25 7801.75 6785.21 5879.49 5623.87 1263.97 334.995 1016.54 974.796 1142.16 905.717 41.7424 1809.77 1240.44 5609.89 59.5797 30.958 3.82826 27.1298 644.225 529.672 409.881 59.312 350.569 76.4878 11.7548 255.621
internal_count=531486 400879 374695 332684 294126 278650 262385 258686 26184 6577 15476 14472 42011 16265 1004 130607 60730 258435 1115 464 90 374 5273 4282 7101 1110 5991 810 106 3699
is_linear=0
shrinkage=0.1


Tree=26
num_leaves=31
num_cat=0
split_feature=8 13 97 15 27 4 4 24 105 348 49 1 25 36 3 107 32 65 3 29 16 11 78 4 11 343 26 39 19 367
split_gain=156.4 129.298 125.434 106.661 109.469 102.057 143.163 92.8021 93.8022 87.3164 84.7702 84.7077 83.9099 78.8842 74.3144 73.6023 70.605 94.6377 275.255 70.2102 81.7222 67.9006 154.797 461.587 102.226 448.735 66.2502 67.0746 62.3267 61.8129
threshold=1.5000000000000002 13.500000000000002 1.5000000000000002 7.5000000000000009 33.500000000000007 452.50000000000006 446.50000000000006 1.5000000000000002 1.5000000000000002 2.5000000000000004 1.0000000180025095e-35 249.00000000000003 1.5000000000000002 139.68750000000003 4306.5000000000009 2.5000000000000004 44.500000000000007 1.5000000000000002 3124.5000000000005 197.50000000000003 2.5000000000000004 844.50000000000011 1.0000000180025095e-35 388.50000000000006 903.00000000000011 2.5000000000000004 1.0000000180025095e-35 56.500000000000007 1.0000000180025095e-35 151.25000000000003
decision_type=2 2 8 2 2 2 2 2 10 10 2 2 2 10 2 10 8 10 2 10 2 10 8 2 10 8 2 10 2 10
left_child=1 16 5 4 13 6 9 8 11 21 -11 -4 -8 15 -14 19 -1 -18 -19 20 -3 28 23 -23 25 -24 27 -22 -2 -26
right_child=2 3 7 -5 -6 -7 12 -9 -10 10 -12 -13 14 -15 -16 -17 17 18 -20 -21 26 22 24 -25 29 -27 -28 -29 -30 -31
leaf_value=0.0083680729596745905 -0.014808345958486444 0.017030441883983248 -0.013370380685237146 0.064078029727286642 -0.10332752678793172 -0.059259919786370852 -0.024087999691323921 0.042093874979138947 0.098621127050689955 0.11337358035892305 -0.04545612923594114 0.048499540479853054 0.50131034223355531 -0.038077670042829498 0.15808572793159636 -0.063608363358074294 -0.050677680293270355 2.0553137460239488 -0.10716844933974348 -0.047338524995759051 0.11032961019183218 -0.027348746248075213 0.16566756062301097 3.6153955725037492 -0.025898623463791411 2.8203472458102046 0.028920259793532563 -0.023188394607536078 -0.043544938151289028 0.16549090376289249
leaf_weight=412.31580383330584 3346.8048073407263 2486.4044684944674 2038.7267731884494 468.82310110144317 78.538147157989442 583.65298247663304 17.604296018835157 572.50424586329609 87.888562999200076 97.48180427448824 51.279923188034445 248.23545176442713 8.4863044205121678 251.44764707796276 24.580224548000842 102.27250678651035 501.50507074501365 0.83375943172722999 2.0019175638444722 137.90749312192202 258.90320003917441 1.2359553999267516 9.1823333464562875 0.48410123307257902 83.065802855417132 0.68418976105749507 399.64902738435194 44.02280737971887 974.51825786102563 21.177149073220789
leaf_count=9798 133237 66649 99230 6403 3768 34455 1025 7881 994 1930 1468 7869 160 8224 544 1338 20345 28 66 7641 3662 65 418 23 4803 31 4511 1661 102867 392
