tree
version=v3
num_class=1
num_tree_per_iteration=1
label_index=0
max_feature_idx=432
objective=binary sigmoid:1
feature_names=TransactionID TransactionDT TransactionAmt ProductCD card1 card2 card3 card4 card5 card6 addr1 addr2 dist1 dist2 P_emaildomain R_emaildomain C1 C2 C3 C4 C5 C6 C7 C8 C9 C10 C11 C12 C13 C14 D1 D2 D3 D4 D5 D6 D7 D8 D9 D10 D11 D12 D13 D14 D15 M1 M2 M3 M4 M5 M6 M7 M8 M9 V1 V2 V3 V4 V5 V6 V7 V8 V9 V10 V11 V12 V13 V14 V15 V16 V17 V18 V19 V20 V21 V22 V23 V24 V25 V26 V27 V28 V29 V30 V31 V32 V33 V34 V35 V36 V37 V38 V39 V40 V41 V42 V43 V44 V45 V46 V47 V48 V49 V50 V51 V52 V53 V54 V55 V56 V57 V58 V59 V60 V61 V62 V63 V64 V65 V66 V67 V68 V69 V70 V71 V72 V73 V74 V75 V76 V77 V78 V79 V80 V81 V82 V83 V84 V85 V86 V87 V88 V89 V90 V91 V92 V93 V94 V95 V96 V97 V98 V99 V100 V101 V102 V103 V104 V105 V106 V107 V108 V109 V110 V111 V112 V113 V114 V115 V116 V117 V118 V119 V120 V121 V122 V123 V124 V125 V126 V127 V128 V129 V130 V131 V132 V133 V134 V135 V136 V137 V138 V139 V140 V141 V142 V143 V144 V145 V146 V147 V148 V149 V150 V151 V152 V153 V154 V155 V156 V157 V158 V159 V160 V161 V162 V163 V164 V165 V166 V167 V168 V169 V170 V171 V172 V173 V174 V175 V176 V177 V178 V179 V180 V181 V182 V183 V184 V185 V186 V187 V188 V189 V190 V191 V192 V193 V194 V195 V196 V197 V198 V199 V200 V201 V202 V203 V204 V205 V206 V207 V208 V209 V210 V211 V212 V213 V214 V215 V216 V217 V218 V219 V220 V221 V222 V223 V224 V225 V226 V227 V228 V229 V230 V231 V232 V233 V234 V235 V236 V237 V238 V239 V240 V241 V242 V243 V244 V245 V246 V247 V248 V249 V250 V251 V252 V253 V254 V255 V256 V257 V258 V259 V260 V261 V262 V263 V264 V265 V266 V267 V268 V269 V270 V271 V272 V273 V274 V275 V276 V277 V278 V279 V280 V281 V282 V283 V284 V285 V286 V287 V288 V289 V290 V291 V292 V293 V294 V295 V296 V297 V298 V299 V300 V301 V302 V303 V304 V305 V306 V307 V308 V309 V310 V311 V312 V313 V314 V315 V316 V317 V318 V319 V320 V321 V322 V323 V324 V325 V326 V327 V328 V329 V330 V331 V332 V333 V334 V335 V336 V337 V338 V339 id_01 id_02 id_03 id_04 id_05 id_06 id_07 id_08 id_09 id_10 id_11 id_12 id_13 id_14 id_15 id_16 id_17 id_18 id_19 id_20 id_21 id_22 id_23 id_24 id_25 id_26 id_27 id_28 id_29 id_30 id_31 id_32 id_33 id_34 id_35 id_36 id_37 id_38 DeviceType DeviceInfo
feature_infos=[2987002:3577534] [86469:15811030] [0.29199999999999998:31937.391] [0:4] [1:13551] [0:500] [0:114] [0:4] [0:119] [0:4] [0:332] [0:74] [0:10286] [0:11623] [0:59] [0:60] [0:4682] [0:5690] [0:16] [0:2250] [0:349] [0:2250] [0:2252] [0:3328] [0:210] [0:3254] [0:3185] [0:3185] [0:2914] [0:1425] [0:640] [0:640] [0:784] [-53:864] [0:801] [0:869] [0:801] [0:1638.875] [0:0.95833301544189442] [0:876] [-29:670] [0:648] [0:818] [-193:868] [-53:876] [0:2] [0:2] [0:2] [0:3] [0:2] [0:2] [0:2] [0:2] [0:2] [0:1] [0:6] [0:8] [0:6] [0:6] [0:8] [0:8] [0:6] [0:7] [0:4] [0:5] [0:3] [0:6] [0:1] [0:7] [0:15] [0:14] [0:14] [0:7] [0:15] [0:5] [0:8] [0:12] [0:12] [0:4] [0:11] [0:4] [0:4] [0:5] [0:9] [0:7] [0:15] [0:4] [0:11] [0:3] [0:4] [0:54] [0:54] [0:14] [0:24] [0:1] [0:8] [0:8] [0:48] [0:48] [0:6] [0:12] [0:5] [0:5] [0:5] [0:6] [0:12] [0:5] [0:5] [0:14] [0:47] [0:4] [0:10] [0:14] [0:14] [0:5] [0:10] [0:7] [0:7] [0:1] [0:6] [0:8] [0:2] [0:4] [0:5] [0:4] [0:10] [0:6] [0:8] [0:4] [0:5] [0:30] [0:30] [0:7] [0:19] [0:19] [0:7] [0:7] [0:7] [0:7] [0:30] [0:30] [0:1] [0:2] [0:5] [0:6] [0:7] [0:7] [0:2] [0:878] [0:1410] [0:975] [0:8] [0:87] [0:28] [0:867] [0:1285] [0:927] [0:15] [0:99] [0:54] [0:1] [0:7] [0:7] [0:7] [0:9] [0:9] [0:9] [0:6] [0:6] [0:6] [0:3] [0:3] [0:3] [0:3] [0:3] [0:3] [0:13] [0:13] [0:13] [0:108800] [0:146211] [0:108800] [0:55125] [0:55125] [0:55125] [0:93524] [0:133915] [0:98420] [0:64800] [0:64800] [0:64800] [0:22] [0:31] [0:31] [0:4] [0:9] [0:867] [0:62] [0:297] [0:24] [0:25] [0:20] [0:20] [1:3388] [1:57] [1:69] [0:18] [0:18] [0:24] [0:24] [0:24] [0:24] [0:55125] [0:641411.4375] [0:3000] [0:3000] [0:3000] [0:93524] [0:98420] [0:64800] [0:870] [0:963] [0:18] [0:48] [0:56] [0:30] [0:7] [0:5] [0:13] [0:48] [0:859] [0:1235] [0:919] [0:83] [0:24] [0:83] [0:40] [0:15] [0:30] [0:38] [0:218] [0:27] [0:27] [0:42] [0:21] [0:44] [0:37] [0:6] [0:16] [0:38] [0:13] [0:21] [0:45] [0:45] [0:50] [0:93841] [0:139736] [0:102331] [0:55125] [0:55125] [0:55125] [0:3250] [0:8050] [0:3250] [0:92676] [0:129006] [0:97572] [0:64800] [0:64800] [0:64800] [0:302] [0:400] [0:378] [0:24] [0:210] [0:210] [0:16] [0:143] [0:51] [0:128] [0:202] [0:54] [1:176] [0:64] [0:291] [0:337] [0:332] [0:120] [0:23] [0:45] [0:39] [0:23] [0:23] [0:7] [0:5] [0:19] [0:57] [0:21] [0:173] [0:45] [0:18] [1:36] [0:22] [0:18] [0:18] [0:24] [1:163] [0:60] [0:70] [0:70] [0:48] [0:65] [0:184] [0:8] [0:49] [0:20] [0:102400] [0:102400] [0:102400] [0:55125] [0:55125] [0:55125] [0:55125] [0:4000] [0:4000] [0:4000] [0:29785] [0:33606] [0:33181] [0:64800] [0:64800] [0:64800] [0:878] [0:974] [0:22] [0:31] [0:68] [0:9] [0:95] [0:7] [0:31] [0:10] [0:12] [1:66] [1:1048] [1:315] [0:867] [0:1286] [0:927] [0:93] [0:11] [0:93] [0:49] [0:11] [0:11] [0:15] [0:20] [0:15] none [0:94689] [0:145724] [0:103384] [0:55125] [0:55125] [0:55125] [0:55125] [0:4159.89990234375] [0:7519.8701171875] [0:4489.85009765625] [0:93524] [0:134021] [0:98420] [0:64800] [0:64800] [0:64800] [0:878] [0:1411] [0:975] [0:7] [0:44] [0:18] [0:15] [0:99] [0:54] [0:108800] [0:146317] [0:108800] [0:55125] [0:55125] [0:55125] [0:64800] [0:64800] [0:64800] [-100:0] [60:999595] [-13:10] [-28:0] [-72:52] [-100:0] [-33:51] [-100:0] [-17:17] [-100:0] [90:100] [0:2] [0:54] [0:25] [0:3] [0:2] [0:104] [0:18] [0:522] [0:394] [0:490] [0:25] [0:3] [0:12] [0:341] [0:95] [0:2] [0:2] [0:2] [0:75] [2:130] [0:4] [0:260] [0:4] [0:2] [0:2] [0:2] [0:2] [0:2] [2:1786]
tree_sizes=3418 3429 3447 3459 3453 3446 3486 3480 3473 3472 3476 3497 3489 3474 3482 3503 3488 3498 3474 3471 3487 3478 3503 3484 3456 3509 3505 3483 3495 3443 3480 3473 3487 3533 3501 3460 3493 3480 3495 3508 3507 3518 3479 3502 3499 3483 3488 3403 3474 3482 3535 3463 3489 3468 3460 3499 3489 3487 3537 3488 3534 3489 3520 3419 3484 3497 3464 3501 3503 3453 3506 3482 3470 3518 3519 3464 3499 3481 3477 3484 3451 3502 3438 3442 3523 3470 3458 3476 3499 3448 3482 3476 3481 3457 3434 3493 3489 3397 3498 3437 3492 3464 3422 3450 3474 3461 3466 3484 3444 3464 3471 3503 3451 3441 3441 3461 3467 3499 3449 3487 3459 3458 3470 3472 3439 3446 3447 3431 3427 3445 3477 3416 3474 3444 3473 3484 3481 3458 3418 3450 3446 3469 3497 3423 3447 3459 3448 3414 3460 3401 3480 3431 3402 3455 3376 3394 3444 3406 3435 3411 3479 3411 3443 3404 3408 3454 3481 3465 3427 3486 3471 3416 3463 3432 3427 3409 3429 3445 3416 3420 3438 3477 3465 3484 3434 3465 3467 3434 3441 3442 3431 3446 3466 3428 3485 3476 3455 3414 3421 3429 3420 3469 3446 3432 3457 3425 3508 3452 3417 3402 3407 3453 3483 3429 3462 3406 3447 3517 3452 3456 3440 3470 3442 3429 3446 3424 3455 3481 3465 3407 3471 3395 3442 3413 3428 3444 3402 3425 3442 3431 3471 3440 3429 3422 3412 3433 3474 3454 3480 3445

Tree=0
num_leaves=31
num_cat=0
split_feature=311 27 16 209 28 29 347 16 29 16 10 202 115 183 336 28 423 208 140 200 242 366 5 31 315 6 98 140 225 65
split_gain=55519.9 10115.5 9347.28 8270.18 6119.43 5155.17 4674.92 4526.4 4355.03 3316.43 2901.64 1749.54 1717.85 1672.18 1624.82 1572.71 1501.72 1446.53 1280.95 1276.54 1127.24 1049.7 1034.98 1019.48 954.676 849.443 824.032 733.42 653.859 602.873
threshold=2.5000000000000004 5.5000000000000009 4.5000000000000009 1.5000000000000002 13.500000000000002 1.0000000180025095e-35 1.0000000180025095e-35 2.5000000000000004 1.0000000180025095e-35 11.500000000000002 329.50000000000006 1.5000000000000002 2.5000000000000004 32.98500061035157 10.500000000000002 4.5000000000000009 106.50000000000001 1.5000000000000002 1.5000000000000002 1.0000000180025095e-35 1.5000000000000002 166.99500274658206 499.50000000000006 3.5000000000000004 3.5000000000000004 71.500000000000014 3.5000000000000004 3.5000000000000004 1.5000000000000002 1.5000000000000002
decision_type=10 2 2 10 2 2 10 2 2 2 2 10 10 8 10 2 2 8 10 10 10 10 2 8 10 2 10 10 10 10
left_child=1 3 8 5 9 7 20 10 17 15 -1 -5 21 28 -14 -3 -9 -2 22 -13 23 27 -12 -7 -25 -10 -6 29 -4 -8
right_child=2 4 13 11 26 6 12 16 25 -11 18 19 14 -15 -16 -17 -18 -19 -20 -21 -22 -23 -24 24 -26 -27 -28 -29 -30 -31
leaf_value=-3.2479194762268064 -2.5138757617739387 -1.6577374660600925 -0.8224080491830934 -3.0157179364130537 -3.1102737301774623 -3.2492758891676314 -3.2669867997840072 -1.3847308688359281 -3.2206569087893575 -0.91051303408520434 -2.9497813900938512 -2.3652259999809653 -2.9033071208346755 -3.3174206723568078 -1.4109846492684373 -3.292227891523257 -2.8592179591842797 -1.0750714360756555 -2.1730672600993772 -0.93969576545467826 -2.9270717471185113 -3.0033153275907551 -0.89560428983800611 -3.3871006223416007 -1.4027367801945076 -2.4416701677600159 -0.77697453958547724 -2.1926946031561361 -3.4234647033073351 -2.8844638326161194
leaf_weight=798.08493145555258 9.5647601187229156 11.383411690592768 92.347085371613503 9.5647601187229139 65.774565182626247 560.88561625778675 1585.5273833423853 19.129520237445831 31.556972645223141 29.36785501241684 154.95584966987371 9.7331537827849406 36.911891162395477 2.8290135562419882 9.093257859349249 12.191701278090475 10.810873232781889 25.932624265551567 27.111379913985729 17.715013459324837 54.795298285782337 188.02836529165506 2.4922262281179419 14055.078207135201 2.4248687624931327 25.158013410866261 1.549221709370612 6.4999954327940932 0.97668325155973335 42.300488412380219
leaf_count=23697 284 338 2742 284 1953 16654 47078 568 937 872 4601 289 1096 84 270 362 321 770 805 526 1627 5583 74 417328 72 747 46 193 29 1256
internal_value=-3.31985 -3.33801 -1.61209 -3.34426 -2.42402 -3.34741 -3.36082 -3.12838 -2.33142 -1.61964 -3.16528 -1.85104 -3.21184 -0.922237 -2.60834 -2.503 -1.91714 -1.46276 -2.80794 -1.44519 -3.37979 -3.22707 -2.91727 -3.38148 -3.38676 -2.87511 -3.05658 -3.25281 -0.84963 -3.25705
internal_weight=0 17711.4 188.365 17591.1 120.267 17554.1 16541.5 1012.58 92.2124 52.943 982.644 37.0129 1868.36 96.1528 46.0051 23.5751 29.9404 35.4974 184.559 27.4482 14673.2 1822.36 157.448 14618.4 14057.5 56.715 67.3238 1634.33 93.3238 1627.83
internal_count=531486 525893 5593 522322 3571 521223 491157 30066 2738 1572 29177 1099 55476 2855 1366 700 889 1054 5480 815 435681 54110 4675 434054 417400 1684 1999 48527 2771 48334
is_linear=0
shrinkage=1


Tree=1
num_leaves=31
num_cat=0
split_feature=311 347 29 23 9 3 31 115 31 0 28 0 106 347 14 368 25 193 361 16 120 48 393 5 107 10 32 23 193 360
split_gain=9354.49 4157.48 2640.01 1438.16 1039.45 1008.02 860.413 676.133 961.116 612.837 572.149 495.533 434.536 1604.37 569.502 413.749 412.208 399.297 387.872 381.989 376.55 370.727 427.609 2267.76 394.894 454.732 338.452 333.629 452.063 325.397
threshold=1.5000000000000002 1.0000000180025095e-35 1.0000000180025095e-35 3.5000000000000004 1.5000000000000002 1.5000000000000002 3.5000000000000004 1.5000000000000002 142.50000000000003 3117631.0000000005 2.5000000000000004 3108319.5000000005 1.5000000000000002 16.500000000000004 1.0000000180025095e-35 165.91089630126956 1.5000000000000002 1.5000000000000002 214.00379943847659 3.5000000000000004 1.5000000000000002 2.5000000000000004 -48.999999999999993 499.50000000000006 2.5000000000000004 271.00000000000006 1.0000000180025095e-35 3.5000000000000004 1.5000000000000002 828.57501220703136
decision_type=10 8 2 2 2 2 8 10 10 2 2 2 8 10 2 10 2 8 10 2 10 2 8 2 8 2 8 2 8 10
left_child=1 2 5 6 7 11 18 15 -9 19 17 -1 14 27 -6 -3 -7 -5 -4 -2 -16 22 23 -8 -24 -26 -11 -14 -29 -10
right_child=9 4 3 10 12 16 21 8 29 26 -12 -13 13 -15 20 -17 -18 -19 -20 -21 -22 -23 24 -25 25 -27 -28 28 -30 -31
leaf_value=0.055563946380990326 0.017329815143945059 0.12335583811546598 0.01769229638065475 1.7391038209727581 2.0097879312266858 0.014007822648474933 -0.008967473771948219 0.38430269221256519 0.30877158564670859 0.14688939768740211 0.099112024310212182 0.31091645472507684 0.10338726823320588 1.7508768367327225 0.021238775692140277 0.36345590491522994 0.45103068082819375 0.42010901392267475 0.22617465341137724 0.24863332604506205 0.18336643051834078 -0.083206912736984343 -0.051724867335299775 2.8967111680941464 0.094938600261388492 1.9589232579750817 0.30461634102458607 1.7459728702625943 0.31441703579835795 2.7232177714551282
leaf_weight=104.61299842223525 164.97898345440626 468.41792619973421 479.23772318288684 2.4422539696097374 1.4662846401333798 547.85042387247086 20.11498220637441 101.17501259967685 0.72686136141419355 159.88877325132489 297.31799040734768 277.81702069938183 138.22373474016786 6.5149815008044234 1380.1084784865379 84.758353319019079 22.46797351911664 38.102733198553324 109.65718626976013 125.87169607542455 159.84665859118104 6786.9367044530809 6144.2670610100031 3.0999052077531806 3.5190352275967589 2.0837938152253628 912.31965271010995 2.8651977963745594 9.5861280746757966 2.4053512364625931
leaf_count=2517 3601 11823 13288 76 39 15066 631 1918 20 2123 6947 5252 3347 132 36829 1949 192 443 3045 969 3669 214165 193906 98 108 60 9004 81 120 68
internal_value=0 -0.0259826 -0.0455752 -0.0566232 0.0974188 0.115454 -0.061705 0.204179 0.437712 0.246173 0.147167 0.241065 0.0560948 0.21448 0.0399432 0.160144 0.0312246 0.49956 0.0565135 0.117431 0.0380676 -0.0670768 -0.0493426 0.37903 -0.0509597 0.788188 0.281096 0.148048 0.643835 2.16292
internal_weight=0 17195.6 14839.5 13886.8 2356.09 952.748 13548.9 657.484 104.307 1363.06 337.863 382.43 1698.61 157.19 1541.42 553.176 570.318 40.545 588.895 290.851 1539.96 12960 6173.08 23.2149 6149.87 5.60283 1072.21 150.675 12.4513 3.13221
internal_count=531486 515789 455794 432767 59995 23027 425301 15778 2006 15697 7466 7769 44217 3680 40537 13772 15258 519 16333 4570 40498 408968 194803 729 194074 168 11127 3548 201 88
is_linear=0
shrinkage=0.1


Tree=2
num_leaves=31
num_cat=0
split_feature=254 347 29 23 224 31 31 9 44 0 16 29 48 48 373 9 336 23 37 2 21 377 2 16 26 78 349 50 183 342
split_gain=6912.26 3111.37 2302.73 1456.31 746.478 739.092 608.234 501.67 451.142 420.468 368.353 507.18 349.295 346.568 346.826 346.088 322.28 356.688 300.159 292.567 279.062 277.951 264.743 264.737 243.605 236.621 212.292 315.475 402.803 293.941
threshold=1.5000000000000002 1.0000000180025095e-35 1.0000000180025095e-35 2.5000000000000004 1.5000000000000002 3.5000000000000004 6.5000000000000009 1.5000000000000002 60.500000000000007 3108319.5000000005 2.5000000000000004 1.0000000180025095e-35 2.5000000000000004 1.0000000180025095e-35 866.71499633789074 1.5000000000000002 4.5000000000000009 3.5000000000000004 31.729166030883786 75.003000000000014 3.5000000000000004 1.5000000000000002 335.02500000000003 3.5000000000000004 1.5000000000000002 1.0000000180025095e-35 2.5000000000000004 1.0000000180025095e-35 1380.2249755859377 2.5000000000000004
decision_type=10 8 2 2 8 8 10 2 8 2 2 2 2 2 10 2 8 2 8 2 2 10 2 2 2 8 10 2 8 8
left_child=1 2 4 5 9 19 -5 8 13 -1 11 21 15 14 25 22 17 26 -11 -4 -10 -2 -7 -15 -18 -3 -9 28 29 -28
right_child=10 7 3 6 -6 12 -8 16 20 18 -12 -13 -14 23 -16 -17 24 -19 -20 -21 -22 -23 -24 -25 -26 -27 27 -29 -30 -31
leaf_value=0.024542644129927418 0.32375727766032625 1.0187771248636697 -0.016458689430371851 0.19617482346316176 0.016567064230904198 -0.012206534826952449 -0.014499371111209278 0.0053595883529409085 0.018326380012131476 0.49933729570263935 0.25305806791157853 0.028148948675162828 -0.081728900063903709 0.0622056070846723 1.0069816883350231 -0.059729007549365831 0.049435343958876145 0.22009427894563138 0.20316612141183002 0.12137117856291867 0.22197436553683764 -0.010054867746623144 0.16980195613702145 0.29917649778355732 0.21998246927133003 0.26530765979631893 0.24933827750908369 -0.050139365457056662 2.166568137580724 1.6219609064195752
leaf_weight=130.98038876801729 137.41456622630358 4.2605569586157799 336.71524788811803 317.05053157731891 565.73300562426448 1058.6760778129101 241.36780043318868 1333.450289029628 307.98350162804127 37.653599437326193 901.20330381765962 202.68987185880542 6268.7800349295139 170.41125066205859 6.8224892802536479 4736.1282917223871 165.80767829716206 90.047950468957424 375.13388369232416 283.81944547966123 86.099676888436079 30.476007532328367 86.442859392613173 65.173915877938271 169.23707726225257 191.73360455408692 41.545769568532705 35.167012676596642 1.189096875488757 1.6209928430616845
leaf_count=3064 1371 75 9106 4740 14199 34150 6450 34581 7039 560 6010 4398 213632 3554 114 156552 3977 1044 5625 7159 1508 656 2868 669 3097 3414 859 949 32 34
internal_value=0 -0.0230951 -0.0414353 -0.0529572 0.0969837 -0.0598692 0.105114 0.0760619 0.140464 0.180649 0.218547 0.134621 -0.065306 0.210259 0.306085 -0.0478009 0.0468932 0.0271233 0.230182 0.0465818 0.0628196 0.263163 0.00153294 0.127763 0.135582 0.281687 0.0148254 0.173549 0.350898 0.300883
internal_weight=0 17109 14438.5 13329 1109.5 12770.6 558.418 2670.55 832.485 543.768 1271.78 370.58 12150 438.402 202.817 5881.25 1838.07 1503.02 412.787 620.535 394.083 167.891 1145.12 235.585 335.045 195.994 1412.97 79.5229 44.3559 43.1668
internal_count=531486 519051 458105 434657 23448 423467 11190 60946 16373 9249 12435 6425 407202 7826 3603 193570 44573 37499 6185 16265 8547 2027 37018 4223 7074 3489 36455 1874 925 893
is_linear=0
shrinkage=0.1


Tree=3
num_leaves=31
num_cat=0
split_feature=254 347 29 23 31 15 31 144 2 31 25 334 3 48 15 9 9 2 49 17 373 33 31 16 109 16 98 4 2 16
split_gain=5157.43 2474.63 1862.85 1198.15 655.488 492.946 408.604 406.742 331.953 525.874 339.248 331.892 332.195 323.089 321.054 298.869 258.135 250.729 398.654 230.078 224.921 1041.67 219.768 209.953 205.075 229.931 202.231 196.919 191.69 191.329
threshold=1.5000000000000002 1.0000000180025095e-35 1.0000000180025095e-35 2.5000000000000004 6.5000000000000009 54.500000000000007 6.5000000000000009 1.0000000180025095e-35 350.0800000000001 520.50000000000011 3.5000000000000004 1.0000000180025095e-35 2.5000000000000004 2.5000000000000004 1.5000000000000002 1.5000000000000002 1.5000000000000002 664.45500000000004 1.0000000180025095e-35 1.5000000000000002 2494.1899414062505 432.50000000000006 24.500000000000004 1.5000000000000002 13.500000000000002 3.5000000000000004 1.5000000000000002 10349.500000000002 1012.4500000000002 1.0000000180025095e-35
decision_type=10 8 2 2 8 2 10 10 2 10 2 10 2 2 2 2 2 2 2 2 10 10 8 2 8 2 8 2 2 2
left_child=1 2 5 4 16 23 26 8 10 22 11 -3 -13 15 -2 -6 17 -4 28 -16 -17 -22 -10 29 25 -21 -5 -12 -19 -1
right_child=14 7 3 6 13 -7 -8 -9 9 -11 27 12 -14 -15 19 20 -18 18 -20 24 21 -23 -24 -25 -26 -27 -28 -29 -30 -31
leaf_value=0.40108091820459219 0.0097498572282598613 0.033428697313129391 0.099061066162653727 0.063742830078330773 -0.00023622974883079741 0.0032435399773847367 -0.013227417928505167 -0.040262182145158254 0.2976149862794103 1.8330786612484449 0.24331267919398797 -0.025070509926180574 0.17710281258610044 -0.079985208081049364 0.081438525269403275 -0.058700820047135116 -0.0029060393314202437 1.4452818707793573 0.016856615779299543 0.1001275140482899 -0.10302410351297669 3.4067617343452201 0.081075265963944335 0.23813557583373815 0.2745385579231378 0.21679626998253365 0.21744167641040277 0.03106107413241236 0.11007107251518569 0.093543323962408609
leaf_weight=21.028634540736675 104.0726658757776 1645.8362302482128 191.09468116983771 142.76364511996508 1128.9230331927538 490.72629768028855 238.28902155160904 334.85665299743414 91.993618465960026 1.9617931656539429 159.11569349467754 105.98659328371286 348.54487152770162 5755.3591524474323 163.29608111642301 4394.4113961476833 591.67773546464741 4.7079557850956899 6.5477942563593388 244.15424582734704 4.2737650685012332 1.0541953835636375 95.55160428956151 151.3841910213232 331.30029990337789 548.21706333011389 213.82145176455379 60.265945464372635 1.3934734389185903 532.26604387909174
leaf_count=254 1361 37613 4934 2295 36390 12633 6450 8372 1409 54 1682 2373 6580 211812 2478 153643 16232 100 139 3447 150 37 2175 1016 2301 2848 2445 688 30 9545
internal_value=0 -0.0217133 -0.0391377 -0.0503928 -0.0572159 0.0801952 0.0881563 0.063259 0.0770737 0.204328 0.0666779 0.0543187 0.129961 -0.0634007 0.178691 -0.0461361 0.030523 0.127602 0.558776 0.192352 -0.0579135 0.591426 0.187291 0.133783 0.208471 0.180847 0.155906 0.185005 1.14034 0.105232
internal_weight=0 16713.8 13869.7 12674.3 12079.4 1195.41 594.874 2844.11 2509.26 189.507 2319.75 2100.37 454.531 11284 1391.04 5528.66 795.422 203.744 12.6492 1286.97 4399.74 5.32796 187.545 704.679 1123.67 792.371 356.585 219.382 6.10143 553.295
internal_count=531486 519051 458105 434657 423467 23448 11190 60946 52574 3638 48936 46566 8953 402032 12435 190220 21435 5203 269 11074 153830 187 3584 10815 8596 6295 4740 2370 130 9799
is_linear=0
shrinkage=0.1


Tree=4
num_leaves=31
num_cat=0
split_feature=311 347 29 23 28 31 16 386 398 9 123 6 368 366 28 9 218 6 9 20 26 2 24 31 27 40 21 7 17 422
split_gain=4010.2 2079.57 1422.05 846.543 509.776 506.656 403.887 361.038 355.229 321.463 320.572 303.372 296.683 390.537 272.641 253.552 251.369 226.382 213.01 208.982 302.961 197.98 193.678 261.2 188.297 188.213 194.966 175.552 199.289 181.919
threshold=1.5000000000000002 1.0000000180025095e-35 1.0000000180025095e-35 1.5000000000000002 1.5000000000000002 4.5000000000000009 5.5000000000000009 15.500000000000002 -4.4999999999999991 1.5000000000000002 1.0000000180025095e-35 41.500000000000007 289.44999694824224 194.95999908447268 25.500000000000004 1.5000000000000002 805.00000000000011 48.500000000000007 1.5000000000000002 1.0000000180025095e-35 1.5000000000000002 75.003000000000014 8.5000000000000018 50.500000000000007 5.5000000000000009 25.500000000000004 1.5000000000000002 1.5000000000000002 3.5000000000000004 4.5000000000000009
decision_type=10 8 2 2 2 8 2 10 8 2 8 2 10 10 2 2 10 2 2 2 2 2 2 10 2 10 2 2 2 2
left_child=1 2 8 5 -5 21 12 11 -1 16 15 -2 -6 -14 24 -7 25 -10 -19 20 -11 -4 23 -22 -8 26 27 28 -3 -29
right_child=7 9 3 4 6 10 14 -9 17 19 -12 -13 13 -15 -16 -17 -18 18 -20 -21 22 -23 -24 -25 -26 -27 -28 29 -30 -31
leaf_value=0.17166075271322701 -0.02559544952359848 0.2407777729423112 -0.027857807681015336 0.25172131503281131 -0.040227221283896462 -0.0028355305251972496 0.45188249135943581 0.035998492965706945 0.0095272260235907125 0.010405469124281337 -0.07970866608795725 0.16930357193795095 2.6783929738915782 0.26786540237185014 0.013410414774807153 -0.056056210710499044 -0.08695872244652153 0.2271360900466172 0.034531594264486522 -0.031058238074554545 0.12990660203448007 0.079980086220085914 0.38923277259129746 -0.012567817000613851 0.1604970423465015 0.013423961112242795 0.19131870608184337 0.91385040060158529 1.282097440350606 0.059923618991754302
leaf_weight=248.17277686297894 84.802248999476433 34.940219391137362 333.79942468553782 107.72714605368674 479.10878648981452 1138.5592607446015 29.5148342307657 291.27568409405649 716.93999253958464 887.68625492602587 5127.7421299144626 1371.7670594155788 0.8985552098602051 2.6669276859611273 108.07396420836449 4187.5517326835543 65.219375666230917 106.5542931035161 124.52558054029942 419.4917850419879 456.7086234241724 347.46049141511321 22.355626586824656 179.15258203819394 89.205757496878505 147.50119613483548 349.15081651136279 2.5129731558263293 1.9399160742759693 345.16460520401597
leaf_count=3321 1163 628 9242 2295 14504 37284 498 4549 16877 20835 203398 9985 28 61 2037 155129 1441 1285 1544 10771 8013 7748 225 4373 543 2839 4355 35 34 6446
internal_value=0 -0.021869 -0.0388027 -0.0492066 0.0490322 -0.0564162 0.0182554 0.137632 0.065152 0.0545965 -0.0618616 0.157956 -0.0334639 0.875355 0.128327 -0.0446793 0.102478 0.0372701 0.123344 0.0315395 0.0485258 0.0271424 0.0999358 0.0897647 0.232938 0.116498 0.137219 0.0881012 0.295552 0.0660957
internal_weight=0 16060.3 13148.5 11952.3 817.196 11135.1 709.469 1747.84 1196.19 2911.82 10453.9 1456.57 482.674 3.56548 226.795 5326.11 946.429 948.02 231.08 1965.39 1545.9 681.26 658.217 635.861 118.721 881.21 733.709 384.558 36.8801 347.678
internal_count=531486 515789 455794 432767 19966 412801 17671 15697 23027 59995 395811 11148 14593 89 3078 192413 15778 19706 2829 44217 33446 16990 12611 12386 1041 14337 11498 7143 662 6481
is_linear=0
shrinkage=0.1


Tree=5
num_leaves=31
num_cat=0
split_feature=254 144 26 31 29 361 28 367 379 16 29 17 2 28 24 26 16 40 106 10 262 0 336 135 16 2 16 15 37 224
split_gain=3191.41 1800.03 1085.62 1167.46 801.024 880.981 405.548 345.856 269.781 267.114 262.002 249.2 244.86 234.025 248.996 421.768 224.701 227.948 224.025 222.028 210.734 200.535 197.736 196.386 192.752 174.805 170.43 167.521 160.234 156.12
threshold=1.5000000000000002 1.0000000180025095e-35 1.5000000000000002 33.500000000000007 1.0000000180025095e-35 152.02320098876956 1.5000000000000002 75.95999908447267 6.5000000000000009 3.5000000000000004 1.0000000180025095e-35 3.5000000000000004 350.0800000000001 42.500000000000007 9.5000000000000018 3.5000000000000004 8.5000000000000018 111.50000000000001 1.5000000000000002 172.50000000000003 145.67714691162112 3110593.5000000005 2.5000000000000004 1.5000000000000002 3.5000000000000004 274.99500000000006 1.5000000000000002 16.500000000000004 34.812498092651374 20.500000000000004
decision_type=10 10 2 10 2 10 2 8 10 2 2 2 2 2 2 2 2 8 10 2 10 2 10 10 2 2 2 2 10 8
left_child=1 2 4 6 21 8 20 -7 -6 10 -2 22 23 14 16 -16 17 -13 -5 -10 24 -1 -8 -9 -4 -18 -14 28 -23 -12
right_child=9 -3 3 18 5 7 11 12 19 -11 29 13 26 -15 15 -17 25 -19 -20 -21 -22 27 -24 -25 -26 -27 -28 -29 -30 -31
leaf_value=-0.017307869299366237 0.14786962195041173 -0.074048967378563202 0.12639414082932676 -0.026479653905950667 -0.049026933780409378 -0.015592409583862111 -0.018029787711432772 0.047202949591079485 0.64564849718488859 0.16901308406804905 0.016704880038337238 0.23163708607324318 0.28541586859273982 0.004334781415398576 2.2601510451238069 0.19553510718081754 0.190281219413896 0.042618772559146943 0.24551255732249722 -0.10379678531321895 0.8430653643159145 0.15611386139637121 0.099868959663005616 0.26799238246117191 0.25602853921357072 0.69388448801140279 0.015677588520998782 0.041475012301736836 -0.0026701529488829148 0.69191688671894869
leaf_weight=296.38592000678182 334.87082798779011 4357.489988937974 367.35990038327873 1376.4965629689395 5744.6699950341135 521.05844686366618 404.38602522015572 521.88729497790337 10.167353732511403 854.68495694175363 339.47860524430871 80.842605423182249 94.519274203106761 172.60355383902788 1.4798743966966856 2.9857219755649567 240.01620713621378 302.6605787537992 30.963045736774802 6.4675455298274747 4.6489208564162245 329.38527324795723 219.4539318010211 43.655855650082231 166.76781154796481 7.0962936189025632 31.141587004065514 567.52715585380793 78.74781908839941 3.4592346139252177
leaf_count=6422 2556 176354 7002 42997 209370 14991 12815 11413 109 4309 5539 1455 1301 3424 36 73 1685 6099 362 202 68 4271 3455 676 1048 112 523 11519 1269 31
internal_value=0 -0.0192355 0.00131356 0.0490632 -0.0182467 -0.0315585 0.0987519 0.0459265 -0.0478625 0.131834 0.0849527 0.0709189 0.0923021 0.107587 0.135649 0.879738 0.13038 0.0824639 -0.020496 0.354269 0.172704 0.0547305 0.0234445 0.0642463 0.166869 0.204743 0.218569 0.0766143 0.125477 0.0235158
internal_weight=0 15980.9 11623.4 3377.76 8245.61 6973.57 1970.3 1212.26 5761.3 1532.49 677.809 1431.52 691.204 807.685 635.081 4.4656 630.616 383.503 1407.46 16.6349 538.777 1272.05 623.84 565.543 534.128 247.113 125.661 975.66 408.133 342.938
internal_count=531486 519051 342697 80631 262066 238585 37272 28904 209681 12435 8126 29154 13913 12884 9460 109 9351 7554 43359 311 8118 23481 16270 12089 8050 1797 1824 17059 5540 5570
is_linear=0
shrinkage=0.1


Tree=6
num_leaves=31
num_cat=0
split_feature=254 123 348 29 16 31 28 16 2 183 10 28 29 152 370 16 365 41 98 136 46 12 5 23 263 29 222 3 48 28
split_gain=2544.77 1589.35 868.362 828.583 645.364 416.543 322.522 231.2 226.667 196.58 206.525 192.137 190.391 188.277 187.679 196.143 186.777 175.863 234.915 174.282 172.492 185.039 166.571 161.741 159.091 155.997 140.65 137.603 127.638 178.553
threshold=1.5000000000000002 1.0000000180025095e-35 1.0000000180025095e-35 1.0000000180025095e-35 8.5000000000000018 11.500000000000002 25.500000000000004 3.5000000000000004 335.02500000000003 2538.5000000000005 97.000000000000014 1.5000000000000002 1.0000000180025095e-35 11.500000000000002 250.08264923095706 5.5000000000000009 215.25000000000003 197.50000000000003 1.5000000000000002 2.5000000000000004 1.0000000180025095e-35 33.500000000000007 499.50000000000006 1.5000000000000002 83.335903167724624 23.500000000000004 1.0000000180025095e-35 1.5000000000000002 1.0000000180025095e-35 8.5000000000000018
decision_type=10 10 8 2 2 8 2 2 2 10 2 2 2 10 8 2 10 8 8 10 2 10 2 2 10 2 10 2 2 2
left_child=1 2 3 23 5 11 -6 12 17 19 -11 -5 -2 14 15 -4 -3 18 22 -8 21 -16 -7 -1 -19 -21 -9 -10 29 -22
right_child=7 16 13 4 6 8 9 26 27 10 -12 -13 -14 -15 20 -17 -18 24 -20 25 28 -23 -24 -25 -26 -27 -28 -29 -30 -31
leaf_value=0.04773371623740829 0.12442887962781182 -0.075542017221960259 0.01766093990705251 0.10948066932086349 0.17593824197185262 -0.026374736971148224 -0.010727108510722736 0.16908377381896803 0.78656258897302533 1.6535308619250946 -0.10399109459429073 0.0038670331860058745 0.020582687026984511 -0.086655560064208381 0.066243885878383466 0.13374641472436585 0.054574306819552755 -0.052371532366967899 0.17524529938907002 1.4475648213242645 0.14574078253665429 0.3192677573924444 0.22646638170805222 0.15149436519657522 0.18456041700552078 0.12917525305124425 0.064239458733195337 0.03731475992753279 0.028726689564042868 0.029834217363914201
leaf_weight=1103.6785289272666 356.84972149133682 3938.323456723243 1028.6474224217236 242.44844924099743 223.45063627697527 779.09109461307526 236.40052327513695 708.98289701715112 2.4709839504212132 1.4774280134588473 1.2213124707341192 594.96396695636213 349.42362595535815 89.699212174862623 52.13896582275629 169.54172897338867 113.50059648416936 5433.6446745935827 68.293306160718203 1.5461595039814704 385.62689886987209 64.854335445910692 26.957406362518668 173.89996558055282 28.488535074517131 2.1392370667308569 156.13014718517661 305.96281050331891 338.55230699852109 202.80645998939872
leaf_count=19686 2556 172426 20782 5610 1724 27994 6417 3418 89 27 34 16285 5570 2253 814 1834 3408 209811 1397 41 5649 843 261 1048 601 58 891 10606 5617 3736
internal_value=0 -0.0180049 0.000887828 -0.0128922 -0.0249068 -0.0320196 0.0892427 0.115504 -0.0403956 0.00945107 0.858166 0.0344444 0.0730517 0.0554092 0.0610926 0.0340868 -0.0718972 -0.0444704 -0.00283104 -8.90992e-05 0.0920875 0.206506 -0.0179187 0.0618573 -0.0511358 0.682288 0.150162 0.0433173 0.077647 0.105793
internal_weight=0 15609.8 11558 9226.14 7948.56 7482.32 466.235 1571.39 6644.91 242.785 2.69874 837.412 706.273 2331.87 2242.17 1198.19 4051.82 6336.48 874.342 240.086 1043.98 116.993 806.049 1277.58 5462.13 3.6854 865.113 308.434 926.986 588.433
internal_count=531486 519051 343217 301689 280955 272654 8301 12435 250759 6577 61 21895 8126 41528 39275 22616 175834 240064 29652 6516 16659 1657 28255 20734 210412 99 4309 10695 15002 9385
is_linear=0
shrinkage=0.1


Tree=7
num_leaves=31
num_cat=0
split_feature=23 144 29 361 16 28 28 242 334 2 0 240 333 26 280 2 2 50 184 339 44 334 354 311 27 29 29 183 8 128
split_gain=2128.25 1251.2 881.911 1130.9 641.764 459.469 305.667 237.293 231.965 231.564 201.112 193.367 191.613 176.013 179.151 170.208 142.744 142.147 138.371 133.507 151.469 133.381 121.248 120.356 212.413 150.985 123.476 120.24 119.51 116.142
threshold=1.5000000000000002 1.0000000180025095e-35 1.0000000180025095e-35 118.00014877319337 5.5000000000000009 1.5000000000000002 25.500000000000004 1.5000000000000002 1.0000000180025095e-35 834.27500000000009 3108319.5000000005 1.5000000000000002 1.5000000000000002 14.500000000000002 2.5000000000000004 422.64500000000004 994.47500000000014 1.0000000180025095e-35 105.25000000000001 1.0000000180025095e-35 113.50000000000001 1.0000000180025095e-35 3.5000000000000004 2.5000000000000004 5.5000000000000009 11.500000000000002 7.5000000000000009 3572.0000000000005 7.5000000000000009 1.5000000000000002
decision_type=2 10 2 10 2 2 2 10 8 2 2 10 10 2 10 2 2 2 8 10 10 8 8 8 2 2 2 8 2 8
left_child=1 2 7 11 5 12 23 10 9 17 -1 15 -2 14 -7 21 -11 22 -3 20 -10 -4 27 24 26 -26 -6 -5 -12 -20
right_child=4 18 3 8 6 13 -8 -9 19 16 28 -13 -14 -15 -16 -17 -18 -19 29 -21 -22 -23 -24 -25 25 -27 -28 -29 -30 -31
leaf_value=-0.020877239977214166 0.14099768154369183 -0.074383437973262773 -0.047189309227128072 0.042515307847857398 0.31597719025730481 -0.032167475835009923 0.024502052364631183 0.15923900346015915 0.13721038986529333 0.31411271619832987 0.18569958061242189 0.07056491529067975 0.0095819019832150132 0.28940011594900805 0.22403327697235845 0.048464970454093204 0.016391869647203978 -0.013515151226439943 -0.0057910216457353961 -0.0011643920359474423 -0.012528832085116856 0.013737739804100958 0.93083492995587935 0.13248539800966846 0.11648008509454051 0.54501146039222803 -0.12241091548814292 1.0364023238263245 0.058017780961138937 0.46404189500469128
leaf_weight=338.53044027462602 390.75645826011896 3566.5686910320073 5665.3309131711721 816.69964341074228 142.46865320950747 746.58042008243501 204.99876107461751 215.93213661015034 459.52076319791377 43.329059321433306 78.152911350131035 161.50140896253288 154.9459255002439 18.48906147480011 28.329095646739006 208.99722851999104 25.630342349410057 803.98075478896499 228.39223210513592 120.69243297353387 79.197272758930922 383.64716305211186 1.5445556212216605 600.29671977460384 178.42153302580118 8.6189946644008142 6.7282995246350756 1.2190509699285019 1182.3372667171061 5.3854762762784949
leaf_count=6792 4241 167633 224741 19186 1076 19464 2901 1069 6142 465 1110 2072 2376 83 312 7074 481 21005 8615 2096 1388 9706 39 2690 882 70 63 22 17586 106
internal_value=0 -0.020278 -0.00260852 -0.0157378 0.0800154 0.0330537 0.135105 0.0608428 0.043586 0.0239823 0.0475553 -0.0374715 0.103684 -0.0155259 -0.0228013 -0.0402596 0.203458 0.0163587 -0.0694982 0.0938994 0.115197 -0.0433251 0.0456682 0.159315 0.207214 0.136227 0.296207 0.0439966 0.0659343 0.0050324
internal_weight=0 14386.6 10586.2 8771.29 2480.63 1339.1 1141.53 1814.95 2351.81 1692.4 1599.02 6419.48 545.702 793.399 774.91 6257.98 68.9594 1623.44 3800.35 659.41 538.718 6048.98 819.463 936.534 336.237 187.041 149.197 817.919 1260.49 233.778
internal_count=531486 497328 320974 294417 34158 26476 7682 26557 50824 41198 25488 243593 6617 19859 19776 241521 946 40252 176354 9626 7530 234447 19247 4781 2091 952 1139 19208 18696 8721
is_linear=0
shrinkage=0.1


Tree=8
num_leaves=31
num_cat=0
split_feature=123 16 29 29 367 27 361 120 304 2 107 365 0 30 272 2 41 242 401 61 397 8 12 135 73 62 5 12 21 24
split_gain=1733.89 1320.53 843.858 725.552 804.245 452.099 208.36 198.215 173.081 172.124 165.381 163.496 157.848 152.498 164.415 141.991 153.801 164.804 143.997 139.658 133.949 133.922 199.286 296.895 515.337 273.767 310.639 163.659 160.862 216.895
threshold=1.0000000180025095e-35 3.5000000000000004 2.5000000000000004 1.0000000180025095e-35 63.039499282836921 16.500000000000004 250.23999786376956 1.5000000000000002 1.5000000000000002 261.96000000000009 2.5000000000000004 200.08570098876956 3108319.5000000005 126.50000000000001 1.5000000000000002 370.08500000000004 28.500000000000004 2.5000000000000004 2.5000000000000004 4.5000000000000009 1.0000000180025095e-35 107.50000000000001 1.5000000000000002 1.0000000180025095e-35 1.5000000000000002 1.5000000000000002 388.50000000000006 1.0000000180025095e-35 2.5000000000000004 3.5000000000000004
decision_type=10 2 2 2 8 2 10 10 10 2 10 10 2 8 10 2 8 10 10 10 10 2 8 8 8 10 2 8 2 2
left_child=1 3 13 8 7 9 -6 10 12 21 15 -2 -1 14 -3 16 18 19 -5 -18 -14 -4 23 24 25 27 -27 -23 -29 -30
right_child=11 2 5 4 6 -7 -8 -9 -10 -11 -12 -13 20 -15 -16 -17 17 -19 -20 -21 -22 22 -24 -25 -26 26 -28 28 29 -31
leaf_value=-0.013960239511372969 -0.071552067530123054 0.20754324341972616 -0.040945733720711051 -0.0085363778385734706 0.0082026908335772215 0.12804408007210316 0.075886628880512508 0.059169188247334394 0.20342593451898749 0.11255176842263835 0.49971944500624493 0.039747552695350102 0.043591729423596931 -0.001936526514290139 0.12202419067524586 0.028827997358435116 -0.048760862731885006 0.73618971203488104 0.45422048344127469 1.402085039927385 0.11707468838921629 -0.072696956347024319 0.0080360492883176735 -0.0043607170428576975 1.9308117532673734 3.1288111020069271 -0.10260752169638805 -0.075600441949050412 1.49130874618062 0.35837296422955983
leaf_weight=371.26917663216591 3408.901364851743 387.32396736741066 605.60249269008636 1008.2379022333771 928.99076967872679 377.48011794686317 891.09254421666265 221.52326629497111 71.076827444136143 131.78090247698128 5.7344389185309401 137.29967818967998 1197.011187016964 63.812861239537597 535.798345124349 306.59668575227261 4993.4211035873741 2.6774935498833647 6.7694654967635861 0.66356146149337192 312.91259919479489 9.199378054589042 543.20169901289046 28.208184411749244 2.2099935188889495 0.71165804937481769 0.51116572320461273 3.3140462748706323 2.6303926017135382 4.7256537079811096
leaf_count=7210 171681 3564 14466 31738 26614 2649 12606 4224 397 2876 102 4153 16804 1117 2516 9403 199677 27 169 16 3221 275 14610 971 52 26 21 103 78 120
internal_value=0 0.0116349 0.0739449 -0.0046492 -0.0174594 0.0314405 0.04134 -0.0338092 0.050244 0.0040656 -0.0370661 -0.0672428 0.0444563 0.147571 0.157906 -0.0375533 -0.0409387 -0.0481476 -0.00545008 -0.0485681 0.0588201 -0.00784495 0.025862 0.213845 0.477989 0.325766 1.77801 0.236391 0.502876 0.763491
internal_weight=0 13014.5 2696.51 10318 8365.71 1709.58 1820.08 6545.62 1952.27 1332.1 6324.1 3546.2 1881.19 986.935 923.122 6318.37 6011.77 4996.76 1015.01 4994.08 1509.92 1200.31 594.712 51.5105 23.3023 21.0923 1.22282 19.8695 10.6701 7.35605
internal_count=531486 355652 43444 312208 284576 36247 39220 245356 27632 33598 241132 175834 27235 7197 6080 241030 231627 199720 31907 199693 20025 30722 16256 1646 675 623 47 576 301 198
is_linear=0
shrinkage=0.1


Tree=9
num_leaves=31
num_cat=0
split_feature=144 26 31 29 368 98 15 31 9 379 2 115 65 272 15 380 6 2 32 3 198 37 184 8 140 16 4 10 333 367
split_gain=1498.4 1079.09 920.212 586.815 488.256 301.322 260.211 196.42 188.946 170.834 172.376 147.34 139.294 138.779 129.375 151.832 127.051 183.62 168.868 149.096 137.228 135.377 124.73 117.311 116.696 112.155 111.535 140.428 166.029 107.999
threshold=1.0000000180025095e-35 1.5000000000000002 11.500000000000002 1.0000000180025095e-35 75.002799987792983 1.5000000000000002 15.500000000000002 199.50000000000003 1.5000000000000002 6.5000000000000009 279.98500000000007 1.5000000000000002 1.5000000000000002 1.5000000000000002 22.500000000000004 2.5000000000000004 61.500000000000007 149.96000000000001 613.50000000000011 1.5000000000000002 3.5000000000000004 11.374999523162844 105.25000000000001 107.50000000000001 2.5000000000000004 4.5000000000000009 10950.500000000002 77.500000000000014 2.5000000000000004 920.75000000000011
decision_type=10 2 10 2 8 8 2 10 2 10 2 8 8 8 2 8 2 2 8 2 8 10 8 2 10 2 2 2 10 8
left_child=1 3 5 16 9 11 -7 12 -6 10 24 -3 26 -8 -11 -16 17 -1 -18 20 21 -19 -2 -10 -5 29 27 -4 -29 -12
right_child=22 2 7 4 8 6 13 -9 23 14 25 -13 -14 -15 15 -17 18 19 -20 -21 -22 -23 -24 -25 -26 -27 -28 28 -30 -31
leaf_value=-0.013524508180741466 -0.070011564770029677 0.02556891550652865 -0.066290627607430125 -0.045824935258487492 0.084880587178200018 -0.021094548751915545 0.17736642369861583 -0.055312648136600542 -0.039165954289567546 -0.1084984899670287 0.0062594571077049009 0.10439919777481954 0.13693097373550814 0.10784854080717654 0.96336594891048399 0.22633897195087035 -0.029617339886289132 0.32796649675103429 0.099608844898653973 0.038874709450826141 -0.02620409423049011 0.026691090591735918 0.0062018234033703245 0.039204942149556027 0.084667382067415489 0.28471484269569863 -0.0518803140268181 0.0076301967398891904 0.11247874965085836 0.54086615949804873
leaf_weight=695.84105100110173 3112.081132479012 842.4217781946063 140.82178760692477 4862.5341974552721 443.13884043321013 129.3747313786298 396.01207656785846 568.24442207440734 355.98973794467747 7.6498491968959597 439.61577336676419 329.97305401042104 88.70745668746531 1044.7652105186135 3.5985163021832705 12.519344851374628 125.23888312652707 53.456914760172367 525.12731490284204 410.97797495499253 25.201407741755247 20.686525449156761 230.65368244610727 412.10070408321917 69.510449063032866 15.475989075377582 250.20007480308414 440.77329513244331 229.75265074707568 3.8115317132323971
leaf_count=11802 167633 16266 4314 200276 6594 1721 3715 19906 8605 178 14976 3582 1518 10709 52 109 1241 642 3997 7526 370 269 8721 10285 1087 247 7121 13990 3973 61
internal_value=0 0.0103485 0.0501633 -0.0105907 -0.0245131 0.0861153 0.114757 -0.00721237 0.032882 -0.037352 -0.0385314 0.0477559 0.0165499 0.126956 0.230157 0.39089 0.0390986 0.0198892 0.0747242 0.0654497 0.175387 0.243909 -0.0647527 0.00288209 -0.0439858 0.0200904 0.00649039 0.0244905 0.0435561 0.0108547
internal_weight=0 12943.5 4461.05 8482.48 6625.94 2742.55 1570.15 1718.5 1211.23 5414.72 5390.95 1172.39 1150.26 1440.78 23.7677 16.1179 1856.53 1206.16 650.366 510.323 99.3448 74.1434 3342.73 768.09 4932.04 458.903 1061.55 811.348 670.526 443.427
internal_count=531486 355132 86815 268317 242470 35993 16145 50822 25484 216986 216647 19848 30916 14424 339 161 25847 20609 5238 8807 1281 911 176354 18890 201363 15284 29398 22277 17963 15037
is_linear=0
shrinkage=0.1


Tree=10
num_leaves=31
num_cat=0
split_feature=123 240 9 424 156 44 6 17 16 17 21 15 28 31 406 0 365 15 2 15 393 28 4 4 39 6 324 31 259 129
split_gain=1289.65 918.617 514.571 579.462 358.319 335.041 244.955 244.201 209.201 178.29 170.854 163.103 155.824 151.936 143.086 142.809 141.989 138.974 185.211 174.311 203.909 129.519 130.662 203.312 591.14 123.611 133.213 119.977 116.737 115.779
threshold=1.0000000180025095e-35 1.5000000000000002 1.5000000000000002 2.5000000000000004 1.0000000180025095e-35 74.500000000000014 41.500000000000007 3.5000000000000004 13.500000000000002 13.500000000000002 10.500000000000002 1.5000000000000002 1.0000000180025095e-35 5.5000000000000009 5.5000000000000009 3134159.0000000005 200.08570098876956 17.500000000000004 390.03000000000003 15.500000000000002 -48.999999999999993 51.500000000000007 10641.500000000002 10608.000000000002 242.50000000000003 41.500000000000007 83.994400024414077 86.500000000000014 20.858150482177738 2.5000000000000004
decision_type=10 10 2 2 8 10 2 2 2 2 2 2 2 8 2 2 10 2 2 2 8 2 2 2 10 2 10 8 10 10
left_child=1 2 3 15 7 6 -5 10 -7 27 12 -3 -4 -14 -8 -1 -2 19 -19 20 -16 22 23 -9 -25 -17 -27 -10 -13 -15
right_child=16 11 4 5 -6 8 14 21 9 -11 -12 28 13 29 17 25 -18 18 -20 -21 -22 -23 -24 24 -26 26 -28 -29 -30 -31
leaf_value=-0.081985205086000212 -0.066997365154425989 -0.038677105180466263 0.0072960972846636682 -0.055554069838837497 0.03457493507644771 -0.030434042031731778 -0.011429554965720278 0.053422524007896981 1.2402267705545345 0.10049852632577404 0.65058159245728742 0.11291800534873693 0.0091781631129097384 -0.049181073658478819 0.22725994065037575 0.23913861496588065 0.035655764784945358 0.04807019565865954 0.14348855190378682 0.1439236143458687 -0.035974826712947348 -0.052877869351972064 -0.029998066278260099 -0.051236039335083389 3.3761153851445642 -0.028217592478277615 0.18432355520865207 0.35869517032519771 -0.011797504574358054 0.37197554007659883
leaf_weight=442.9242815412581 2989.8657003957778 86.866053145378828 763.93624955043197 158.68622557073832 1217.5882422607392 632.98856223374605 186.8180728033185 666.37915076501667 2.222200457006692 53.829559253528714 3.6441805474460116 1013.5821860153228 518.57947125658393 3856.8675334770232 38.495783038437366 20.084832619875669 141.10372971370816 1308.0793087426573 240.88505397923291 539.56937089562416 124.91760108992457 210.62009103223681 234.66673292033374 1.6792065333575004 0.71859014779329289 444.61613173596561 31.583822941407561 5.0580743681639433 81.054916149005294 6.5384858269244424
leaf_count=16751 171681 925 12044 3742 21408 18048 5371 16795 35 769 47 6729 12198 169402 207 241 4153 29066 3439 8734 3168 6271 5575 55 27 13006 500 83 928 88
internal_value=0 0.0091778 0.000699973 0.028573 -0.0150627 0.048342 0.0648345 -0.0247118 -0.013376 0.163315 -0.0338958 0.0932166 -0.0343805 -0.0416462 0.0726679 -0.0407093 -0.0623711 0.0796445 0.062909 0.11652 0.0260362 0.0177395 0.0342026 0.0567299 0.975899 -0.00387136 -0.0141209 0.62777 0.103683 -0.0484683
internal_weight=0 12893.5 11712 4230.76 7481.22 3291.55 2597.45 6263.63 694.098 61.1098 5149.57 1181.5 5145.92 4381.99 2438.77 939.209 3130.97 2251.95 1548.96 702.983 163.413 1114.06 903.444 668.777 2.3978 496.285 476.2 7.28027 1094.64 3863.41
internal_count=531486 355652 347070 103160 243910 72662 53727 222502 18935 887 193779 8582 193732 181688 49985 30498 175834 44614 32505 12109 3375 28723 22452 16877 82 13747 13506 118 7657 169490
is_linear=0
shrinkage=0.1


Tree=11
num_leaves=31
num_cat=0
split_feature=20 16 29 336 28 361 17 28 30 49 2 304 28 333 218 39 9 276 401 361 44 40 44 2 37 16 363 5 0 21
split_gain=1112.5 1008.59 429.899 514.824 400.996 190.108 165.102 190.018 164.539 147.316 146.345 144.723 123.728 134.171 121.425 115.409 173.348 107.203 104.375 101.032 156.41 134.417 142.632 100.46 102.267 98.1833 93.3066 93.1159 91.4359 99.7331
threshold=1.0000000180025095e-35 4.5000000000000009 1.0000000180025095e-35 1.5000000000000002 26.500000000000004 67.95999908447267 1.5000000000000002 1.5000000000000002 1.0000000180025095e-35 1.0000000180025095e-35 335.02500000000003 1.5000000000000002 1.5000000000000002 4.5000000000000009 502.50000000000006 67.500000000000014 1.5000000000000002 1.0000000180025095e-35 1.0000000180025095e-35 34.00849914550782 433.50000000000006 395.50000000000006 525.50000000000011 4.488500000000001 104.64583206176759 2.5000000000000004 2944.5000000000005 499.50000000000006 3461587.5000000005 1.5000000000000002
decision_type=2 2 2 8 2 10 2 2 8 2 2 10 2 10 10 8 2 10 10 10 8 8 8 2 10 2 8 2 2 2
left_child=1 2 11 6 9 -2 10 25 -5 -3 15 14 28 -14 18 16 27 23 -1 -9 -21 22 -22 -11 -25 -8 -6 -4 29 -10
right_child=5 4 3 8 26 -7 7 19 12 17 -12 -13 13 -15 -16 -17 -18 -19 -20 20 21 -23 -24 24 -26 -27 -28 -29 -30 -31
leaf_value=0.033567871288916987 -0.066133320735549492 -0.0027170825664181476 0.0071097927690289336 -0.010493909812966492 -0.019289973091314406 -0.0097176842151233817 0.02715975605760472 -0.039956657763852176 0.089072318355874744 -0.12449010410941404 0.040227166123782562 0.15951947193395319 0.0067984604585820509 0.076115369662601795 -0.068310930184195512 -0.06800196509095302 -0.050118979585398127 0.0095465297127377956 0.16215393569979053 -0.019835866417210822 0.33439316816716297 0.035234977626986762 -0.02180692337981981 0.13534822893384429 0.037309990776177013 0.14784034565202128 0.31666042353421758 0.18029381038050729 0.016160166217930497 0.23011561027235283
leaf_weight=1897.5738314129412 2776.4227350279689 118.17490367405117 485.9746947363019 910.21050320379436 371.09627087041736 761.04192623402923 222.7858171556145 1051.7154806796461 216.52546980045736 16.306530980393291 200.83007212355733 93.01120313256979 937.86313804239035 397.63354338891804 114.00784098356962 1521.7261820789427 1308.5569551195949 91.278542850166559 65.298357021063566 538.31628915295005 35.597435746341944 149.18045381829143 16.430266631767154 1052.7364064827561 118.36417862772942 96.668128091841936 8.4556467942893487 33.164886776357889 115.74508019350469 65.239842861890793
leaf_count=25031 168026 3185 18765 19553 7249 28080 5093 41500 4203 94 6240 488 21123 4388 1870 75446 64404 513 548 16760 683 4550 556 7927 815 1034 74 471 1958 859
internal_value=0 0.0096673 -0.00214937 -0.0125055 0.0793406 -0.0539962 -0.0295194 -0.00737062 0.0239329 0.104107 -0.0426872 0.0374835 0.0420146 0.027437 0.0320182 -0.0476588 -0.0307211 0.113979 0.0378455 -0.0200416 0.00828052 0.0835037 0.221906 0.122007 0.125439 0.0636782 -0.0118057 0.0181735 0.0909903 0.121729
internal_weight=0 12250.5 10474.1 8304.16 1776.41 3537.46 5660.95 2110.69 2643.22 1396.86 3550.25 2169.89 1733.01 1335.5 2076.88 3349.42 1827.7 1278.69 1962.87 1791.24 739.524 201.208 52.0277 1187.41 1171.1 319.454 379.552 519.14 397.51 281.765
internal_count=531486 335380 315523 287586 19857 196106 235502 70176 52084 12534 165326 27937 32531 25511 27449 159086 83640 9349 25579 64049 22549 5789 1239 8836 8742 6127 7323 19236 7020 5062
is_linear=0
shrinkage=0.1


Tree=12
num_leaves=31
num_cat=0
split_feature=144 26 31 9 39 15 15 29 6 181 31 29 115 184 106 0 409 135 15 7 16 24 10 4 347 2 39 4 349 33
split_gain=962.829 663.565 563.486 355.024 321.982 197.32 207.128 172.443 172.405 166.662 159.18 147.376 136.746 106.863 105.184 104.659 101.799 134.26 157.116 142.742 127.658 97.6666 97.6456 101.631 138.871 97.3894 97.1277 95.0332 94.0201 148.325
threshold=1.0000000180025095e-35 1.5000000000000002 6.5000000000000009 1.5000000000000002 62.500000000000007 1.5000000000000002 16.500000000000004 1.0000000180025095e-35 41.500000000000007 39.07609939575196 199.50000000000003 1.0000000180025095e-35 2.5000000000000004 105.25000000000001 1.5000000000000002 3120021.0000000005 98.000000000000014 1.5000000000000002 18.500000000000004 1.5000000000000002 1.5000000000000002 4.5000000000000009 77.500000000000014 10950.500000000002 2.5000000000000004 184.96000000000001 19.500000000000004 10375.500000000002 3.5000000000000004 361.50000000000006
decision_type=10 2 10 2 8 2 2 2 2 8 10 2 8 8 8 2 2 8 2 2 2 2 2 2 10 2 8 2 10 10
left_child=1 3 5 4 8 -3 25 15 -1 11 14 -5 -8 -2 22 -6 -10 18 -18 20 26 -9 -4 24 -24 27 -20 -7 -11 -30
right_child=13 2 10 9 7 6 12 21 16 28 -12 -13 -14 -15 -16 -17 17 -19 19 -21 -22 -23 23 -25 -26 -27 -28 -29 29 -31
leaf_value=-0.078450954598258793 -0.063097567438811022 -0.042478950366155635 -0.061119128604668921 0.0014904950246090658 -0.040057046398657259 0.11438249263016823 0.035846422743520193 -0.047777441524450071 -0.039619331014635314 -0.00089970973655545796 -0.051179404995836023 -0.047396585780239232 0.11372214714551719 0.0086990181225423246 0.10695613882909594 0.062096246265914402 0.10524656978384679 0.14848337874482961 0.21827233269788879 0.020645065621601132 -0.049567898248818985 0.55785770262091072 0.0031868982306342167 -0.042202693747900123 0.091204234289359712 0.18996114863025149 0.72412217561677295 0.036375285562980121 0.014288244883482473 0.39990961718214968
leaf_weight=107.80640546791255 2581.5250306082889 153.80463588610291 186.01075403019786 782.80637765862048 147.50688060373068 701.8407875765115 1212.1047505978495 887.47219965606928 113.39499013870955 1318.7872578985989 523.57709104754031 2905.1866555782035 277.01310713216662 225.41100090369582 111.60334962978959 313.3426820486784 370.66778607852757 150.02167562022805 41.124088082462549 1012.619364997372 18.042912643402815 2.6707223970443001 500.15241128206253 220.20291497185826 279.39072718285024 128.84957453794777 4.1817444749176493 200.87038084864616 28.870268195867538 15.23973569460213
leaf_count=2920 167633 2072 5629 11320 2901 5788 20445 39044 3261 35416 19906 137019 2278 8721 1676 3710 5455 2479 706 22699 361 35 15708 6521 3753 982 60 2057 754 177
internal_value=0 0.00737824 0.0382687 -0.00951594 0.0167222 0.0674822 0.0741918 -0.0202537 0.0442018 -0.0259773 -0.00463834 -0.0370199 0.0503333 -0.0573319 0.0141443 0.0293994 0.0519342 0.0584363 0.0490981 0.0297551 0.175378 -0.0459603 0.00540885 0.0177869 0.0347326 0.108633 0.264962 0.0970244 0.00390381 0.147518
internal_weight=0 12715.2 4495.42 8219.74 3168.85 2674.48 2520.68 1350.99 1817.86 5050.89 1820.94 3687.99 1489.12 2806.94 1297.36 460.85 1710.05 1596.66 1446.64 1075.97 63.3487 890.143 1185.76 999.746 779.543 1031.56 45.3058 902.711 1362.9 44.11
internal_count=531486 355132 86815 268317 83631 33622 31550 45690 37941 184686 53193 148339 22723 176354 33287 6611 35021 31760 29281 23826 1127 39079 31611 25982 19461 8827 766 7845 36347 931
is_linear=0
shrinkage=0.1


Tree=13
num_leaves=31
num_cat=0
split_feature=82 16 260 9 0 361 44 29 206 29 37 401 2 20 30 35 4 17 46 12 5 21 182 2 0 10 15 279 388 12
split_gain=830.211 551.356 497.047 305.987 308.611 210.132 204.841 186.73 176.669 174.222 162.991 131.344 126.338 143.787 145.079 122.893 113.971 145.054 110.198 131.197 104.944 104.813 104.792 100.867 101.7 99.7872 99.415 131.837 98.8858 98.5569
threshold=1.0000000180025095e-35 3.5000000000000004 2.9112499952316289 1.5000000000000002 3108319.5000000005 59.010400772094734 92.500000000000014 2.5000000000000004 1.5000000000000002 1.0000000180025095e-35 55.645832061767585 1.5000000000000002 226.12500000000003 1.5000000000000002 70.500000000000014 298.50000000000006 12404.000000000002 4.5000000000000009 1.0000000180025095e-35 33.500000000000007 10.500000000000002 2.5000000000000004 35.021799087524421 4.488500000000001 3112971.0000000005 175.50000000000003 9.5000000000000018 1.0000000180025095e-35 407.00000000000006 870.50000000000011
decision_type=10 2 8 2 2 10 10 2 8 2 10 10 2 2 10 10 2 2 2 10 2 2 10 2 2 2 2 8 10 10
left_child=1 3 15 4 8 9 10 -4 -1 -5 11 12 13 28 -15 23 21 -18 19 -7 -21 -9 -2 -3 -25 -23 -14 -28 -6 -27
right_child=22 2 7 5 6 18 -8 16 -10 -11 -12 -13 26 14 -16 -17 17 -19 -20 20 -22 25 -24 24 -26 29 27 -29 -30 -31
leaf_value=-0.069648790645855455 -0.059693297470639284 -0.12486815979217264 0.082393287000839074 0.0090358011130060121 0.035515195219108606 -0.0027412893479145627 -0.039604047076028034 -0.062211069787448198 0.018372395634047935 -0.041435103173771817 -0.025265324357045579 0.27263614187561708 -0.066084943160515663 -0.023183425356915328 1.4809305167886408 -0.015243231799160002 0.17200633627915099 -0.055818468265810377 0.0010613737767166617 0.51518735580299424 0.13486286083618568 -0.025835677593616352 0.029991616623645041 0.04935186070021659 0.12296489458193023 0.045838194405728103 0.28558186699296778 0.09366854270609426 0.29470306386039252 0.5989454684107558
leaf_weight=529.82473859470338 2506.558057510294 19.076718075200915 270.61249588057399 864.52507940493524 1726.6217940943316 89.024762553162873 328.91222325339913 378.76556260325015 400.31676499545574 3274.4070856245235 296.79973708558828 27.054689971730113 33.839946014806628 1.1936284927651279 1.3857832681387661 95.125035917386413 72.119341147132218 45.627198805101216 1883.2170722577721 7.9626508308574548 81.658044818788767 435.75551843363792 137.42627183999866 239.45165504328907 867.97894136980176 251.85529764648527 39.635826367884874 369.42447021044791 14.846459524706004 3.2633190732449284
leaf_count=22669 168963 122 3382 11905 36363 2053 10872 11727 9109 158099 7850 302 703 47 33 1210 1359 1363 45685 168 1415 12462 5475 2037 5313 4810 595 5163 129 103
internal_value=0 0.00658218 0.046853 -0.00424067 0.0182266 -0.0179 0.0346016 0.0074297 -0.031766 -0.0308929 0.0443225 0.0536511 0.050942 0.0388299 0.784898 0.0939041 -0.00965496 0.0837234 0.00818175 0.0832423 0.168654 -0.0199341 -0.0550317 0.103121 0.107048 0.00324387 0.0986371 0.112264 0.0377248 0.0529132
internal_weight=0 12650.3 2679.63 9970.65 3769.86 6200.79 2839.71 1458 930.142 4138.93 2510.8 2214 2186.95 1744.05 2.57941 1221.63 1187.39 117.747 2061.86 178.645 89.6207 1069.64 2643.98 1126.51 1107.43 690.874 442.9 409.06 1741.47 255.119
internal_count=531486 357048 43888 313160 93835 219325 62057 35206 31778 170004 51185 43335 43033 36572 80 8682 31824 2722 49321 3636 1583 29102 174438 7472 7350 17375 6461 5758 36492 4913
is_linear=0
shrinkage=0.1


Tree=14
num_leaves=31
num_cat=0
split_feature=101 240 32 26 1 9 39 15 209 335 21 4 393 370 2 12 15 14 10 21 28 2 131 349 423 33 215 29 2 0
split_gain=713.365 494.455 319.136 310.929 229.656 218.977 206.193 163.314 157.482 124.494 121.843 113.162 112.424 110.741 106.869 104.528 106.055 100.773 100.303 139.258 241.641 115.169 112.045 96.9135 95.6679 94.4744 90.0963 91.0205 94.077 87.047
threshold=1.0000000180025095e-35 1.5000000000000002 4.5000000000000009 1.5000000000000002 2390569.5000000005 1.5000000000000002 55.500000000000007 15.500000000000002 1.5000000000000002 2.5000000000000004 3.5000000000000004 11059.000000000002 -44.499999999999993 6.8369998931884775 171.06500000000003 83.500000000000014 16.500000000000004 1.5000000000000002 281.00000000000006 7.5000000000000009 22.500000000000004 236.97500000000002 3.5000000000000004 4.5000000000000009 36.500000000000007 497.50000000000006 8.7500000000000018 1.5000000000000002 266.97500000000008 3115266.5000000005
decision_type=10 10 10 2 2 2 10 2 8 8 2 2 8 10 2 10 2 2 2 2 2 2 10 10 2 10 10 2 2 2
left_child=1 2 3 4 8 12 7 -5 -1 29 -10 15 -6 -4 24 16 -9 -14 21 -20 -21 22 -8 -12 -7 -22 27 28 -19 -3
right_child=-2 9 13 6 5 14 18 11 10 -11 23 -13 17 -15 -16 -17 -18 26 19 20 25 -23 -24 -25 -26 -27 -28 -29 -30 -31
leaf_value=-0.074148149768204261 -0.05873104547330546 0.019901238168901592 -0.045707703410065914 -0.054453964802984249 0.13255436895473602 0.13652624834502441 -0.03125116988460086 0.10338370760253475 -0.013906276540160179 -0.026724634303108348 0.21525589404060647 0.0087131892190815876 -0.039546463799929488 0.014940533534316553 0.027273594178842078 0.17818050110151742 0.04552246657202054 0.025592425266921612 0.063161414387101183 1.4782409488364865 -0.028445243909358344 0.082286884578122221 1.162448689562626 1.2142379125768459 -0.022819295542427735 1.2700894121099557 0.21521079628285597 -0.032813229739081289 0.087516634289402429 0.093730804702850001
leaf_weight=705.12423029355705 2045.5355691742152 198.52427023462951 1828.9876790232956 134.03754469845444 100.54201398976147 38.233766954392195 716.9410911668092 480.9733638195321 759.2348506860435 124.33582515083253 11.602824282832442 350.42090077325702 220.89094143919647 360.39963209629059 569.60993672348559 87.064982019364834 927.93774939514697 1280.8627143856138 65.813488662242889 1.9531951062381256 4.0067808208987117 104.78737568389624 0.78718911297619243 1.0598138812929381 2591.4754324024543 0.65136524103581894 26.445432463660836 208.62426972296089 303.46170630864799 816.49852977879345
leaf_count=34224 141246 1852 94462 2469 1210 875 21447 5228 25699 1047 236 5923 5738 7748 16923 1347 16535 30240 1458 31 182 2259 14 19 96278 10 387 5650 5066 5683
internal_value=0 0.00479272 -0.00124153 0.00654756 -0.0050845 0.00456831 0.0341258 0.0521272 -0.0399841 0.0677215 -0.00877537 0.0598644 0.0293232 -0.0357243 -0.0119964 0.0718461 0.0652751 0.0242361 -0.00570996 0.107111 0.544611 -0.0156441 -0.0299419 0.298867 -0.0205025 0.153134 0.0319799 0.0292773 0.0374534 0.0792908
internal_weight=0 13021.3 11881.9 9692.54 6817.17 5340.15 2875.38 1980.43 1477.02 1139.36 771.897 1846.4 2140.83 2189.39 3199.32 1495.98 1408.91 2040.29 894.94 72.4248 6.61134 822.516 717.728 12.6626 2629.71 4.65815 1819.39 1792.95 1584.32 1015.02
internal_count=531486 390240 381658 279448 222545 162367 56903 31502 60178 8582 25954 29033 48291 102210 114076 23110 21763 47081 25401 1681 223 23720 21461 255 97153 192 41343 40956 35306 7535
is_linear=0
shrinkage=0.1


Tree=15
num_leaves=31
num_cat=0
split_feature=101 98 2 6 361 3 15 4 120 44 26 218 125 140 393 309 401 91 43 48 9 24 44 301 14 280 0 115 26 90
split_gain=612.36 425.596 336.094 300.182 340.377 297.407 251.54 234.651 224.272 189.941 184.353 169.392 136.624 126.816 117.014 113.957 112.696 100.846 93.9107 132.974 93.3431 89.8551 87.7106 86.1571 84.25 82.6828 81.5558 123.103 142.196 80.5406
threshold=1.0000000180025095e-35 2.5000000000000004 140.25100000000003 68.500000000000014 39.015649795532234 1.5000000000000002 15.500000000000002 11059.000000000002 2.5000000000000004 25.500000000000004 2.5000000000000004 355.00000000000006 1.0000000180025095e-35 1.5000000000000002 -44.499999999999993 1.5000000000000002 1.0000000180025095e-35 3.5000000000000004 129.50000000000003 1.0000000180025095e-35 1.5000000000000002 1.5000000000000002 56.500000000000007 1.5000000000000002 15.500000000000002 2.5000000000000004 3117631.0000000005 1.0000000180025095e-35 127.50000000000001 2.5000000000000004
decision_type=10 10 2 2 8 2 2 2 8 10 2 8 10 8 8 10 10 10 8 2 2 2 10 10 2 10 2 8 2 10
left_child=1 2 3 4 14 11 -7 8 13 10 18 -4 22 16 -1 -16 -5 21 -8 -20 -9 -11 25 -21 -3 -6 -12 28 -28 -15
right_child=-2 24 5 7 12 6 9 20 -10 17 26 -13 -14 29 15 -17 -18 -19 19 23 -22 -23 -24 -25 -26 -27 27 -29 -30 -31
leaf_value=0.066847526225643703 -0.056117275923807886 -0.063883363168162108 0.19219966997529203 0.0050467685806938221 0.024828804457776216 -0.079858565779820367 0.1775944959149599 0.030405749311648956 0.15997991756679267 -0.039771411834019048 0.021604128323317373 0.050698131075600478 -0.079913146767876753 0.083565625006384134 -0.045921615894696788 0.085599430148883202 0.21741141859927998 0.67684848835895151 0.054241175147761812 -0.01644589035008177 -0.054644435359088965 0.019252629321810575 -0.0099921550897652568 0.16133530887256597 0.091576099519291854 0.21369492952796812 0.43522428269918145 0.15306039833671026 2.022482889687867 -0.035897846667454471
leaf_weight=98.603032602928579 1932.6883729659021 36.946261380799115 156.52860627230257 1157.3840935248882 1418.9298419654369 245.58502551540732 44.581395114772022 176.24223987571895 138.69171502813697 501.85860426072031 45.304202394559979 184.1034480445087 173.41575755830854 457.22727878112346 3627.6032611699775 67.098266314715147 25.540044061839581 2.145608088001608 898.52269792649895 541.57335454784334 481.83674432616681 530.62282454036176 1058.2366985371336 28.704392375424504 617.55590771045536 23.564622044563293 7.4002457736060006 137.93116408120841 0.61100885644555081 64.380892258137465
leaf_count=1621 141246 473 2118 26924 30001 7844 729 2661 962 19691 672 3116 3991 5011 176991 643 312 26 19747 17128 11921 16347 34155 213 4340 167 267 1395 19 755
internal_value=0 0.00422629 4.32718e-05 -0.0100247 -0.0214021 0.0271963 0.0170938 0.0193931 0.0376943 0.0257859 0.0463009 0.115721 0.00592103 0.0277443 -0.0406639 -0.0435331 0.00963185 -0.00801399 0.0346104 0.0302705 -0.0318669 -0.00943721 0.0118733 -0.00749744 0.0828005 0.0279141 0.138811 0.175195 0.556283 0.0688205
internal_weight=0 12948.7 12294.2 8968.75 6467.45 3325.47 2984.84 2501.3 1843.22 2739.26 1704.63 340.632 2674.15 1704.53 3793.3 3694.7 1182.92 1034.63 1513.38 1468.8 658.079 1032.48 2500.73 570.278 654.502 1442.49 191.247 145.942 8.01125 521.608
internal_count=531486 390240 385427 296115 247569 89312 84078 48546 33964 76234 40170 5234 68314 33002 179255 177634 27236 36064 37817 37088 14582 36038 64323 17341 4813 30168 2353 1681 286 5766
is_linear=0
shrinkage=0.1


Tree=16
num_leaves=31
num_cat=0
split_feature=32 26 28 1 9 347 26 27 107 209 2 28 24 179 29 14 393 14 314 186 260 359 44 24 143 9 338 2 114 135
split_gain=536.41 368.282 269.78 190.564 208.524 186.828 152.98 138.516 138.51 129.812 113.892 134.138 210.805 108.163 102.522 94.3413 82.0082 89.2101 86.4036 80.2303 86.9937 75.4647 74.2741 88.9301 110.046 84.8963 73.7672 76.1992 73.7425 70.6308
threshold=3.5000000000000004 1.5000000000000002 1.5000000000000002 2927408.0000000005 1.5000000000000002 1.0000000180025095e-35 2.5000000000000004 16.500000000000004 1.5000000000000002 1.5000000000000002 138.05650000000003 83.500000000000014 19.500000000000004 60.100000381469734 37.500000000000007 3.5000000000000004 -29.499999999999996 1.5000000000000002 1.5000000000000002 19.029399871826175 51.597101211547859 13.336699962615969 54.500000000000007 4.5000000000000009 1.0000000180025095e-35 1.5000000000000002 1.0000000180025095e-35 1104.4750000000001 1.5000000000000002 1.0000000180025095e-35
decision_type=10 2 2 2 2 10 2 2 8 8 2 2 2 8 2 2 8 2 10 10 10 10 10 2 10 2 10 2 8 10
left_child=1 3 6 9 16 -2 21 10 13 -1 11 12 19 -6 -9 -12 -5 -18 -19 -4 29 -3 23 -17 -25 -26 27 -7 -11 -21
right_child=5 2 7 4 8 26 -8 14 -10 28 15 -13 -14 -15 -16 22 17 18 -20 20 -22 -23 -24 24 25 -27 -28 -29 -30 -31
leaf_value=-0.067181420893113367 -0.049075261750037284 0.078574149157498441 -0.0098575255150587585 0.099045788790218539 -0.030846571212011675 0.068167614993423595 0.12359421615297431 0.11969932833442321 0.035877957241212288 -0.019297349137907066 -0.044900690999710773 -0.079235261158607628 1.1119717182164199 0.020420421117664761 -0.0035118418031859738 0.077049824700440583 -0.040306589959194117 0.023312571180821428 0.12575016134272821 0.10210022741340315 -0.10340681461819641 0.011304562352186555 0.020459790805760734 0.1311870506200184 1.128413143603795 0.38780277712805011 -0.007991070892586145 0.85252014142322319 0.087890538150897576 0.022101433035950305
leaf_weight=729.18858396634459 2792.1656273296103 336.6508058635518 1225.6291520055383 144.0919329887256 2322.2110005887225 150.85080924630165 397.92003406211734 205.98627218231559 489.17191488295794 989.3746637031436 96.887258148752153 208.86698715481907 1.7201291425153602 500.1710424348712 100.47311633080244 257.73279252275825 212.99816370010376 1842.4106574440375 86.192491526715457 161.20511661749333 41.385919624939561 330.4684889242053 232.37833814509213 21.768961954861883 1.9415818788111225 7.6310817720368469 373.95384200289845 1.2488446850329626 68.636614514514804 349.93768315110356
leaf_count=36818 176455 4116 39737 1753 103819 2501 2733 1189 12700 36620 2191 9283 54 12819 1087 4653 6024 45439 953 2639 1339 3991 6593 306 56 324 8895 24 884 5491
internal_value=0 0.00692564 0.0314523 -0.00628879 0.0027886 -0.0387758 0.0745216 0.0157084 -0.013247 -0.0347178 0.00823276 -0.00342173 0.00547492 -0.0217612 0.0793044 0.0457167 0.0260212 0.021108 0.0278907 0.00440453 0.0360409 0.0452511 0.0625536 0.0963916 0.255445 0.538018 0.015891 0.0746077 -0.0123437 0.0473316
internal_weight=0 11363 3978.58 7384.45 5597.25 3318.22 1065.04 2913.54 3311.55 1787.2 2607.09 1988.74 1779.88 2822.38 306.459 618.34 2285.69 2141.6 1928.6 1778.16 552.529 667.119 521.453 289.074 31.3416 9.57266 526.053 152.1 1058.01 511.143
internal_count=531486 343611 85782 257829 183507 187875 10840 74942 129338 74322 72666 58543 49260 116638 2276 14123 54169 52416 46392 49206 9469 8107 11932 5339 686 380 11420 2525 37504 8130
is_linear=0
shrinkage=0.1


Tree=17
num_leaves=31
num_cat=0
split_feature=101 98 2 6 361 3 15 4 120 422 15 425 125 205 14 14 5 330 14 33 44 422 43 129 6 15 401 16 29 9
split_gain=491.135 313.248 253.691 224.236 272.494 210.48 205.823 183.209 159.102 156.797 119.917 115.818 114.536 113.886 113.809 106.921 103.936 90.9094 86.811 85.7364 83.9557 90.187 96.6627 81.3349 79.2707 79.2487 76.3537 76.0602 83.6461 74.8581
threshold=1.0000000180025095e-35 2.5000000000000004 140.25100000000003 68.500000000000014 39.015649795532234 1.5000000000000002 15.500000000000002 10948.500000000002 2.5000000000000004 12.500000000000002 16.500000000000004 74.500000000000014 1.0000000180025095e-35 1.5000000000000002 1.5000000000000002 58.500000000000007 492.50000000000006 44.682199478149421 15.500000000000002 292.50000000000006 26.500000000000004 49.500000000000007 415.50000000000006 2.5000000000000004 74.000000000000014 16.500000000000004 1.0000000180025095e-35 4.5000000000000009 3.5000000000000004 1.5000000000000002
decision_type=10 10 2 2 8 2 2 2 8 2 2 2 10 10 2 2 2 10 2 10 10 2 8 10 2 2 10 2 2 2
left_child=1 2 3 4 16 11 -7 8 10 -8 14 -4 23 20 -5 -12 17 -1 -13 24 21 -11 -23 -6 26 -18 -16 -22 -29 -9
right_child=-2 -3 5 7 12 6 9 29 -10 13 15 18 -14 -15 19 -17 25 -19 -20 -21 27 22 -24 -25 -26 -27 -28 28 -30 -31
leaf_value=-0.042637296378993335 -0.052313160973157448 0.07203473196021494 0.19770921012648895 -0.048809478404620882 0.0082448561477766833 -0.076975665976851182 0.20862223153802831 0.023575210388100565 0.13379033798622728 -0.042815071283930202 -0.01219721499347811 -0.05872828962221241 -0.077095412544424854 0.14916246253256421 0.073670502960666878 0.11946832428257875 0.16103853359247153 0.057537114579000216 0.089975895596999422 -0.062321331123022294 -0.020499651164659034 0.23425765694588443 0.034167189154697013 0.16556048853586489 -0.090766721482563428 -0.019797203869940768 0.24145992990694679 0.18354935357805535 0.017589043771510732 -0.051128892710746304
leaf_weight=3376.8245334271342 1784.7701650988311 637.27085866499692 85.152261725626886 100.39679893292487 2484.0101265991107 225.86379488650709 44.442513381130993 189.64428596384823 143.17337136529386 154.43989403173327 799.4689723700285 47.500686654821038 159.35276825446635 65.859523002058268 629.17869604192674 66.832314905710518 45.547820759005845 93.090500036254525 226.23512891493738 49.557806946337223 804.51654570084065 24.546946860849857 1470.1564787561074 33.30563535913825 28.045619523152709 51.787842769175768 28.342413105070591 37.19324239436537 165.53041735477746 458.29215230979025
leaf_count=175012 141246 4813 1021 2418 64004 7844 658 2836 959 4764 17005 886 3991 415 10446 1166 420 1204 3327 1005 30504 303 34204 319 551 2619 219 629 4757 11941
internal_value=0 0.00370248 0.000100134 -0.00887225 -0.0189951 0.0234902 0.0148116 0.0164819 0.0325471 0.0223049 0.0240296 0.0958557 0.00512168 0.0192631 0.0510592 -0.00203965 -0.037091 -0.0399498 0.0641716 0.0646984 0.0160425 0.0299362 0.0374532 0.0103262 0.0738803 0.0648241 0.0809031 -0.00670544 0.0480374 -0.0292638
internal_weight=0 12725.6 12088.3 8736.85 6243.92 3351.44 2992.55 2492.93 1845 2766.69 1701.82 358.888 2676.67 2722.24 835.521 866.301 3567.25 3469.92 273.736 735.125 2656.38 1649.14 1494.7 2517.32 685.567 97.3357 657.521 1007.24 202.724 647.936
internal_count=531486 390240 385427 296115 247569 89312 84078 48546 33769 76234 32810 5234 68314 75576 14639 18171 179255 176216 4213 12221 75161 39271 34507 64323 11216 3039 10665 35890 5386 14777
is_linear=0
shrinkage=0.1


Tree=18
num_leaves=31
num_cat=0
split_feature=101 16 28 32 1 107 37 423 202 9 29 3 1 43 6 179 15 218 15 37 115 14 108 152 367 324 6 423 82 31
split_gain=419.378 274.216 241.797 205.642 199.222 192.259 201.619 172.888 170.882 139.556 129.194 126.961 119.906 113.978 110.602 109.045 97.8433 219.903 181.575 291.91 97.6808 96.9128 78.1738 77.058 245.692 72.6203 77.4633 71.9997 72.0937 540.582
threshold=1.0000000180025095e-35 7.5000000000000009 25.500000000000004 11.500000000000002 2390569.5000000005 1.5000000000000002 54.187498092651374 47.500000000000007 1.5000000000000002 1.5000000000000002 1.5000000000000002 1.5000000000000002 11980835.000000002 45.500000000000007 41.500000000000007 24.050100326538089 18.500000000000004 77.500000000000014 22.500000000000004 52.645832061767585 1.0000000180025095e-35 18.500000000000004 2.5000000000000004 8.5000000000000018 165.91089630126956 79.774551391601577 37.500000000000007 27.500000000000004 1.5000000000000002 539.50000000000011
decision_type=10 2 2 10 2 8 10 2 8 2 2 2 2 8 2 8 2 8 2 8 8 2 10 10 8 10 2 2 10 10
left_child=1 3 -3 4 8 9 7 11 -1 10 14 16 13 -9 -6 27 -7 18 19 -18 -15 22 -16 -2 -25 26 -22 -11 -29 -30
right_child=23 2 -4 -5 5 6 -8 12 -10 15 -12 -13 -14 20 21 -17 17 -19 -20 -21 25 -23 -24 24 -26 -27 -28 28 29 -31
leaf_value=-0.06521824703457621 -0.050800120982487457 0.084445152980418159 -0.0042238642933402279 -0.041222139289358556 -0.06611408302224743 0.16473676293438824 -0.03152504441911342 0.15813217750153283 -0.0038147734354979841 0.12550666052469192 -0.023207448276089962 0.060299703773326954 -0.0015496135279470407 0.21738393959973765 0.067476393314121086 0.018890602230096341 0.61238301834801989 0.093620136922892394 0.19439226197232976 1.9284295238442308 0.22840867489110575 0.01353078997841866 -0.087588513837659213 0.060621432050698844 2.118994330851268 0.17779554217496246 0.03081572845675026 -0.020965297285231388 -0.047478379665538646 4.7704654707993921
leaf_weight=700.67826493922621 1691.7804468842223 737.18281221110374 527.68814015574753 1176.1270920131356 103.93989116046578 49.948652138002217 338.2142109144479 110.40196937602013 1283.307144029066 34.127082843333483 507.19783797673881 70.281097717583179 420.88400887697935 33.441767108626664 893.14315050374717 1014.821923468262 6.6341015277430415 12.193664787337184 5.0180239612236628 2.2594330282881838 20.390050737187266 752.76831486914307 33.73942119255662 4.1093419203534713 0.67515993956476439 38.008978464640677 736.16276354994625 3026.7694648103788 1.8302329145371907 0.26683593448251475
leaf_count=36475 141068 6203 15355 66477 2701 613 9668 1393 37853 642 12559 1625 8275 464 13869 23871 68 173 93 62 218 14765 393 148 30 363 14897 121025 120 20
internal_value=0 0.00328398 0.0474536 -0.00162862 0.00293837 0.00980871 0.0382447 0.0539173 -0.0255005 0.00157593 0.0213262 0.157195 0.0427989 0.0626896 0.0339902 -0.00951914 0.246735 0.403628 0.675354 0.946729 0.0499638 0.0401848 0.0618319 -0.0496668 0.351087 0.0429173 0.0361411 -0.0189318 -0.0205592 0.565568
internal_weight=0 12637.4 1264.87 11372.6 10196.4 8212.44 1843.84 1505.62 1983.99 6368.6 2290.79 146.335 1359.29 938.406 1783.59 4077.82 76.0539 26.1052 13.9116 8.89353 828.004 1679.65 926.883 1696.56 4.7845 794.562 756.553 3062.99 3028.87 2.09707
internal_count=531486 390240 21558 368682 302205 227877 37912 28244 74328 189965 44287 2634 25610 17335 31728 145678 1009 396 223 130 15942 29027 14262 141246 178 15478 15115 121807 121165 140
is_linear=0
shrinkage=0.1


Tree=19
num_leaves=31
num_cat=0
split_feature=82 26 31 2 136 29 28 27 42 26 379 10 29 334 182 422 10 40 17 14 8 15 50 39 342 14 21 325 365 66
split_gain=366.986 260.3 236.15 148.469 145.451 147.859 134.929 125.344 129.198 122.515 114.516 131.921 109.053 95.7409 93.6668 91.3235 88.9763 93.9794 112.694 105.733 96.1706 84.7267 81.5727 94.1984 149.177 160.485 82.4755 77.3665 76.5946 76.4359
threshold=1.0000000180025095e-35 1.5000000000000002 199.50000000000003 274.99500000000006 1.5000000000000002 1.0000000180025095e-35 1.5000000000000002 21.500000000000004 10.500000000000002 2.5000000000000004 1.5000000000000002 150.50000000000003 21.500000000000004 1.0000000180025095e-35 35.021799087524421 6.5000000000000009 89.500000000000014 105.50000000000001 3.5000000000000004 3.5000000000000004 84.500000000000014 22.500000000000004 1.0000000180025095e-35 160.50000000000003 2.5000000000000004 3.5000000000000004 1.5000000000000002 44.976249694824226 850.50000000000011 1.5000000000000002
decision_type=10 2 10 2 10 2 2 2 10 2 10 2 2 8 10 2 2 8 2 2 2 2 2 10 10 2 2 10 10 10
left_child=1 3 6 4 5 -1 9 8 15 -3 13 21 -9 -7 -2 -8 29 18 28 -19 -20 -12 23 -6 25 -25 -24 -23 -18 -17
right_child=14 2 -4 -5 22 10 7 12 -10 -11 11 -13 -14 -15 -16 16 17 19 20 -21 -22 27 26 24 -26 -27 -28 -29 -30 -31
leaf_value=0.0095390372577276242 -0.047379425162932531 0.035346660941996975 -0.044616673293610909 0.027404574256631238 0.0858365548174954 -0.032799637896714091 0.18869782634733959 0.12523814669228012 -0.07005757979346966 0.10368757225255823 0.053702696375876803 -0.046234038444161032 0.0034742294941862554 0.0096857745825786323 0.041755048566576372 -0.035304238077699522 0.016357542841353902 -0.068334874835044815 0.0041236987189610282 0.022985062007360113 0.17412415062816944 0.61516531585705225 0.15613655808908597 1.593307241998942 1.3731405165519048 0.14126424860588879 -0.021530064923690362 0.22109806710825089 0.34639536752014533 0.086002875316385424
leaf_weight=1657.6377364564687 1933.4424166074023 720.35790074523538 459.8656162796542 1062.7291027130559 124.36212617810816 4014.2352442294359 30.978925377130508 193.77442961186171 178.91107954178005 412.54653940629214 17.505510180257261 34.58836854249239 118.55330453068018 611.17454688064754 125.5502718789503 446.15473592933267 254.32925104908645 141.91141215991229 45.067399891093373 1189.7912569399923 127.19519599806517 7.2799708563834455 31.619360757060349 0.82530258968472381 1.3418472856283177 9.7936237575486285 150.45994539931417 15.783959127962587 7.2318137846887103 58.786889501847327
leaf_count=21310 168963 8224 20100 23528 2908 203168 302 1210 4247 2912 332 954 1280 12817 5475 11848 6527 3302 932 24014 1947 92 545 37 25 449 3150 91 68 729
internal_value=0 0.00371784 0.0231824 -0.00731166 -0.0128375 -0.0161405 0.0311248 0.0193165 0.0117987 0.060233 -0.0251962 0.0972503 0.079019 -0.0271859 -0.0419443 0.0181621 0.0158353 0.026422 0.0668448 0.0132537 0.129649 0.219581 0.0531194 0.111616 0.379657 0.254117 0.009323 0.345483 0.0254826 -0.0211813
internal_weight=0 12124.8 4385.46 7739.34 6676.61 6358.21 3925.59 2792.69 2480.36 1132.9 4700.57 75.1578 312.328 4625.41 2058.99 2301.45 2270.47 1765.53 433.824 1331.7 172.263 40.5694 318.402 136.323 11.9608 10.6189 182.079 23.0639 261.561 504.942
internal_count=531486 357048 87642 269406 245878 238764 67542 56406 53916 11136 217454 1469 2490 215985 174438 49669 49367 36790 9474 27316 2879 515 7114 3419 511 486 3695 183 6595 12577
is_linear=0
shrinkage=0.1


Tree=20
num_leaves=31
num_cat=0
split_feature=32 26 28 16 1 347 9 33 97 209 349 31 405 98 128 24 107 21 192 29 32 155 373 17 4 373 9 44 14 24
split_gain=321.75 212.826 177.748 139.501 129.667 124.447 124.447 107.829 98.6624 85.7654 78.0987 75.0585 82.0971 68.8158 76.6332 71.9039 64.9246 69.8933 62.9057 74.0401 100.788 80.0808 62.5356 119.044 222.138 62.3741 68.8028 72.9674 67.8733 71.6792
threshold=4.5000000000000009 1.5000000000000002 8.5000000000000018 4.5000000000000009 3262273.5000000005 1.0000000180025095e-35 1.5000000000000002 261.50000000000006 1.5000000000000002 1.5000000000000002 7.5000000000000009 291.50000000000006 4.5000000000000009 1.5000000000000002 1.5000000000000002 5.5000000000000009 1.5000000000000002 3.5000000000000004 3.5000000000000004 1.5000000000000002 1.0000000180025095e-35 12.500000000000002 91.909999847412124 4.5000000000000009 5298.0000000000009 27.991999626159672 1.5000000000000002 484.50000000000006 15.500000000000002 7.5000000000000009
decision_type=10 2 2 2 2 10 2 10 8 8 10 10 2 10 10 2 8 2 10 2 8 10 10 2 2 8 2 8 2 2
left_child=1 4 3 7 9 -2 -6 18 10 -1 -8 12 -4 14 25 -16 17 -11 19 20 -3 22 -21 -24 -25 26 28 -28 -14 -30
right_child=5 2 11 -5 6 -7 8 -9 -10 16 -12 -13 13 -15 15 -17 -18 -19 -20 21 -22 -23 23 24 -26 -27 27 -29 29 -31
leaf_value=-0.057275049344370492 -0.042727311783411992 0.017337299414615356 0.35260208688793859 0.078350776159809871 0.020160790145811305 0.015869351398168134 -0.023468202837189811 -0.059779545438445283 0.016959361951513787 -0.022095155383260998 0.20947536638595665 -0.06469472546774338 -0.078049091453398736 0.056772576404718944 -0.11914131029121365 0.23902018620347812 0.074050320095595576 0.16104536795316596 -0.057161618094662497 -0.0096470563754542504 0.079367821419973394 0.38725956182932908 0.044406744159790568 1.5807063117792359 0.19999939928116833 -0.058025354911075744 -0.0334899336795711 0.048811868482248298 0.044398562545655489 0.21615644772037412
leaf_weight=658.27613118849695 2303.9897862728685 473.51667434629053 6.7435499588027588 681.68919084966183 2274.4636192023754 430.10129902232438 2208.7126203356311 137.86436075996608 921.92891640309244 1097.9125537760556 14.487103858031331 176.73008796200156 38.293309716507792 201.54853720590472 7.4385994495824006 22.742630605585873 81.079753643833101 21.241674116812646 75.04835532233119 462.98836254421622 586.2243676232174 5.4333659671246997 38.153640538454056 1.481317177414893 5.4612519675865769 223.61257416754961 516.63877010252327 136.10174826160073 190.76925045065582 27.843725725077093
leaf_count=37643 169467 6101 63 6457 52953 9865 97929 4297 30111 42118 192 8396 919 3524 121 181 1009 373 722 15696 7748 45 825 37 53 6656 19821 4247 3199 718
internal_value=0 0.00472252 0.0232014 0.0398653 -0.00547478 -0.0335094 0.00234159 0.0251774 -0.0105447 -0.0282681 -0.0219503 -0.0033568 0.00454581 0.00282628 -0.0065191 0.150746 -0.012359 -0.0186191 0.0322832 0.03655 0.0516512 0.00538579 0.0013021 0.113714 0.494597 -0.0107074 0.000924431 -0.0163293 0.0447623 0.0662746
internal_weight=0 11294.4 4016.32 2467.86 7278.1 2734.09 5419.59 1786.17 3145.13 1858.51 2223.2 1548.46 1371.73 1364.99 1163.44 30.1812 1200.23 1119.15 1648.31 1573.26 1059.74 513.518 508.085 45.0962 6.94257 1133.26 909.647 652.741 256.906 218.613
internal_count=531486 352154 89826 41981 262328 179332 181185 35524 128232 81143 98121 47845 39449 39386 35862 302 43500 42491 31227 30505 13849 16656 16611 915 90 35560 28904 24068 4836 3917
is_linear=0
shrinkage=0.1


Tree=21
num_leaves=31
num_cat=0
split_feature=101 98 2 395 21 28 44 15 410 1 423 373 334 31 394 37 32 406 214 107 39 10 108 373 5 131 44 107 149 4
split_gain=290.246 197.389 160.912 164.74 126.905 163.287 154.456 122.847 164.077 116.665 133.365 96.257 92.9496 87.9633 85.1946 89.4726 116.105 85.6902 75.1584 81.6416 74.3423 116.317 73.3344 69.7146 66.2122 65.1927 98.7411 63.2745 96.2853 106.752
threshold=1.0000000180025095e-35 3.5000000000000004 226.12500000000003 1.0000000180025095e-35 2.5000000000000004 14.500000000000002 189.50000000000003 9.5000000000000018 8.5000000000000018 3262273.5000000005 36.500000000000007 166.49500274658206 1.0000000180025095e-35 1.0000000180025095e-35 359620.50000000006 61.187498092651374 inf 4.5000000000000009 12.000000000000002 1.5000000000000002 475.50000000000006 181.50000000000003 3.5000000000000004 562.97500610351574 388.50000000000006 3.5000000000000004 412.50000000000006 1.5000000000000002 8.5000000000000018 4306.5000000000009
decision_type=10 10 2 10 2 2 10 2 2 2 2 8 8 8 8 10 8 2 8 8 10 2 10 10 2 10 8 8 10 2
left_child=1 2 3 4 6 11 9 -4 -9 18 -11 22 14 -14 15 16 -12 -18 -1 -20 -13 -22 -6 -8 -25 -7 -27 -16 -29 -30
right_child=-2 -3 7 -5 5 25 23 8 -10 10 12 20 13 -15 27 -17 17 -19 19 -21 21 -23 -24 24 -26 26 -28 28 29 -31
leaf_value=-0.056163235549432214 -0.043746893907229002 0.078734690062302826 -0.071766314127813341 0.11802501011181486 0.04309855709987008 -0.016631880654977251 -0.047965204826656366 0.14181225287195362 0.026097313547148455 0.113381815694165 -0.035400102273499177 0.14211001639875537 -0.003866484678834626 0.069065393491016619 -0.022058749718238228 -0.034476910704367612 -0.039906476173435873 0.042837856502207769 -0.021313403217672455 0.065884729736629108 0.17888243599392728 1.5653067406902763 -0.10084991245338232 -0.072404404070441949 0.27045779973976386 0.072397140025335704 0.75680431983212737 0.013838185646100874 0.91462167028575991 0.1651868667395574
leaf_weight=597.8213913301006 1522.8350056847557 330.73248703964055 114.03535315953195 108.88620899338275 897.59547312557697 881.4168587718159 1154.0810461044312 133.5079245204106 1491.232864475809 105.70095321070403 298.9049683585763 61.186114623211324 311.66258804686368 352.32290210295469 2333.1374325016513 360.2047843337059 140.51817021239549 1144.8745467420667 1140.0705044250935 118.5375873958692 1.6492989491671317 0.95582400821149338 36.84375512227416 9.6715512350201625 13.486905709840356 10.915227487683294 2.6125358492135993 194.96367727033794 2.1427038330584791 16.826735073700547
leaf_count=33890 141246 2206 3402 1770 15624 29390 60127 1681 34772 1752 6581 809 6105 5512 100905 10537 3704 23780 40600 1796 37 21 307 377 261 100 27 3957 37 173
internal_value=0 0.00252042 0.000426116 -0.00432531 -0.00563294 0.0177287 -0.0109648 0.028564 0.0356058 -0.00541526 0.00218966 0.0455363 -9.00347e-05 0.0348325 -0.00525261 0.0105098 0.020738 0.0337923 -0.0269682 -0.013101 0.164385 0.687564 0.0374229 -0.044518 0.12727 -0.0132882 0.204573 -0.0172861 0.0347644 0.24984
internal_weight=0 12366.5 12035.8 10297 10188.1 1893.18 8294.93 1738.78 1624.74 7117.69 5261.26 998.23 5155.56 663.985 4491.57 1944.5 1584.3 1285.39 1856.43 1258.61 63.7912 2.60512 934.439 1177.24 23.1585 894.945 13.5278 2547.07 213.933 18.9694
internal_count=531486 390240 388034 348179 346409 46315 300094 39855 36453 239329 163043 16798 161291 11617 149674 44602 34065 27484 76286 42396 867 58 15931 60765 638 29517 127 105072 4167 210
is_linear=0
shrinkage=0.1


Tree=22
num_leaves=31
num_cat=0
split_feature=34 25 37 9 332 28 37 50 360 8 50 2 16 48 397 349 0 12 412 21 10 389 15 12 6 213 140 79 12 4
split_gain=251.923 161.035 141.049 154.436 118.553 112.666 103.774 99.086 98.7249 98.7736 104.856 97.6313 95.4548 94.0665 92.2273 91.7802 86.6087 84.8878 82.0089 81.517 79.2168 78.3888 77.4081 73.9743 73.1852 72.9229 78.7565 71.854 157.595 69.5991
threshold=5.5000000000000009 1.5000000000000002 140.81250000000003 1.5000000000000002 3.5000000000000004 1.5000000000000002 101.97916793823244 1.0000000180025095e-35 132.99500274658206 79.500000000000014 1.0000000180025095e-35 224.00500000000002 8.5000000000000018 2.5000000000000004 1.0000000180025095e-35 1.5000000000000002 3152917.5000000005 77.500000000000014 314.50000000000006 3.5000000000000004 78.500000000000014 8.5000000000000018 16.500000000000004 5.5000000000000009 64.500000000000014 190.50000000000003 1.5000000000000002 1.0000000180025095e-35 954.50000000000011 7051.0000000000009
decision_type=10 2 10 2 10 2 10 2 10 2 2 2 2 2 10 10 2 10 2 2 2 10 2 10 2 10 8 10 10 2
left_child=1 2 3 7 5 21 12 -1 11 -10 15 22 25 19 -9 17 -14 -11 -16 -2 -12 -3 24 -17 -5 -7 -27 28 -19 -22
right_child=13 4 -4 8 -6 6 -8 14 9 10 20 -13 16 -15 18 23 -18 27 -20 -21 29 -23 -24 -25 -26 26 -28 -29 -30 -31
leaf_value=0.050810506678307513 -0.028755301495010727 0.069969299509626479 -0.059734410722993285 -0.034437849367032473 -0.049252561191853034 -0.012332943084741858 -0.054295705990182068 0.00089011181414016974 -0.032006963170516364 0.011905063701500787 -0.057613708601532136 0.029071507461065661 0.012520315995221607 -0.06156328348208312 0.025246104945619342 0.16095144938168426 0.1021907016372926 -0.10384220296340996 0.12237216922016586 0.033080442895088685 0.042356203017017882 0.35937388865737185 -0.034441191712894163 0.019208884953065324 0.034111692183943158 -0.10890177232332479 0.16251506460886836 0.088593870030786614 2.010274160937739 -0.025595582451168442
leaf_weight=715.01545732468367 1280.6168158175424 562.85127382632345 399.10219827666879 271.67247672006488 168.30523896403611 429.62442812230438 160.27282180730253 2301.3433445971459 523.16785170510411 727.90438386704773 239.91079733893275 359.6187482625246 180.09108645841479 755.23084411770105 339.97061278577894 99.752683032304049 268.00391622819006 0.8264271207153786 116.80120578873903 255.77056748792529 319.4675705358386 9.5175538510084134 2354.5188540918753 58.361551709473133 364.98431296646595 13.680868328548968 48.916370155289769 143.79841430857778 0.6149959908798337 285.37666305806488
leaf_count=17921 63436 5352 14992 11504 2896 8956 3833 61496 15812 21887 8575 16511 1718 80201 8061 2053 1862 31 2260 7328 10084 116 140748 1448 8700 387 550 3013 22 9733
internal_value=0 0.00365319 -0.0015315 0.000987056 0.0307477 0.038796 0.0200814 0.0176368 -0.00906981 0.0064156 0.0171306 -0.0201574 0.0327587 -0.032666 0.00903682 0.038528 0.0661518 0.025833 0.0500822 -0.0184612 -0.00899089 0.0747816 -0.026076 0.108633 0.00486042 0.00235919 0.103196 0.095636 0.798164 0.0102953
internal_weight=0 11463.5 9622.21 9223.11 1841.26 1672.96 1100.59 3473.13 5749.98 2399.18 1876.01 3350.79 940.317 2291.62 2758.12 1031.26 448.095 873.144 456.772 1536.39 844.755 572.369 2991.18 158.114 636.657 492.222 62.5972 145.24 1.44142 604.844
internal_count=531486 380521 354851 339859 25670 22774 17306 89738 250121 72658 56846 177463 13473 150965 71817 28454 3580 24953 10321 70764 28392 5468 160952 3501 20204 9893 937 3066 53 19817
is_linear=0
shrinkage=0.1


Tree=23
num_leaves=31
num_cat=0
split_feature=20 16 33 28 218 2 2 395 3 406 423 4 8 8 24 8 136 44 26 0 344 24 28 88 33 129 319 180 363 4
split_gain=216.785 212.016 139.947 139.283 129.81 120.784 116 112.556 98.7245 95.866 103.252 98.3143 100.962 112.291 94.4471 86.0146 113.445 95.2235 352.082 265.06 113.469 132.991 124.854 107.65 96.4412 82.3906 80.1908 77.5505 94.8146 89.7005
threshold=1.0000000180025095e-35 4.5000000000000009 60.500000000000007 31.500000000000004 957.50000000000011 58.954500000000003 274.99500000000006 1.0000000180025095e-35 1.5000000000000002 5.5000000000000009 37.500000000000007 10950.500000000002 45.500000000000007 78.000000000000014 4.5000000000000009 107.50000000000001 3.5000000000000004 6.5000000000000009 4.5000000000000009 3456979.5000000005 1.5000000000000002 91.500000000000014 15.500000000000002 1.0000000180025095e-35 2.5000000000000004 1.0000000180025095e-35 2.7188999652862553 39.07609939575196 452.25000000000006 10917.500000000002
decision_type=2 2 10 2 10 2 2 10 2 2 2 2 2 2 2 2 10 8 2 2 10 2 2 10 8 8 10 10 10 2
left_child=1 2 4 26 6 -2 7 9 -8 -1 -11 12 -12 -14 -4 -7 17 18 -17 -20 21 22 23 -21 -23 -16 -3 29 -29 -15
right_child=5 3 14 -5 -6 15 8 -9 -10 10 11 -13 13 27 25 16 -18 -19 19 20 -22 24 -24 -25 -26 -27 -28 28 -30 -31
leaf_value=-0.038345248599592145 -0.058721173226349316 0.060351791502638377 -0.033354240575564659 -0.020141594554711373 -0.076046641757284636 -0.040685797685313774 0.15544109673461129 0.11605048699743735 0.028426726623302458 0.093037757193658435 0.034936079714482156 -0.024928784723452089 -0.047193874315627174 -0.008313280284854235 0.24047604905147058 0.014154480271586833 0.92499875204679327 -0.013119436627252096 0.20353142939795921 2.5146435378752683 0.37030488281436491 3.4560635905020107 0.56757276910594479 0.72504421135481589 1.2895043531128543 0.0022691042602842469 -0.046282381363575036 0.037764025554433159 -0.042385975822743477 0.12645259427000741
leaf_weight=615.95022208429873 899.23789530061185 1131.9054180365056 1576.303107005544 323.92185019142926 200.42770854849368 605.14068364584818 65.210430082865059 83.553762186318636 993.92434670869261 124.86503830738366 1046.1144321104512 1165.2902093073353 447.46309882774949 2125.6962064374238 23.429813458584249 193.37797248456627 1.3494422333315004 608.31557464273646 21.628444378264252 0.76343159750103839 2.8173741260543466 0.39346464443951834 2.9156094193458557 0.60053245630115271 0.42998442146927118 38.183219837956131 75.208993973210454 1039.5394544471055 172.0167035870254 50.564404703676701
leaf_count=23181 85045 12857 68687 6474 10010 46993 563 1269 18427 2094 24921 38707 18439 78887 286 15199 17 47721 887 25 56 27 97 22 17 954 526 24375 4016 707
internal_value=0 0.0034837 -0.0019392 0.0380836 0.00343299 -0.029975 0.00544176 0.000693314 0.0362469 -0.000726727 0.00302778 0.00116906 0.00739916 -0.000111837 -0.0286067 -0.0119955 0.00885703 0.00736976 0.06328 0.384775 0.879701 1.16094 0.937007 1.72671 2.32474 0.0928529 0.053708 0.00610676 0.0263843 -0.00518206
internal_weight=0 11299.6 9768.53 1531.04 8130.62 2336.97 7930.19 6871.05 1059.13 6787.5 6171.55 6046.68 4881.39 3835.28 1637.92 1437.73 832.592 831.242 222.927 29.5488 7.9204 5.10302 4.27957 1.36396 0.823449 61.613 1207.11 3387.82 1211.56 2176.26
internal_count=531486 335380 315523 19857 245596 196106 235586 216596 18990 215327 192146 190052 151345 126424 69927 111061 64068 64051 16330 1131 244 188 144 47 44 1240 13383 107985 28391 79594
is_linear=0
shrinkage=0.1


Tree=24
num_leaves=31
num_cat=0
split_feature=32 14 9 5 37 98 129 189 12 25 16 28 5 396 115 0 108 314 2 2 0 401 5 5 344 4 120 400 50 398
split_gain=197.626 165.132 182.864 107.469 103.104 98.9052 107.675 104.379 109.896 100.529 97.758 109.106 95.5331 82.3874 81.2734 80.3135 80.0002 74.2234 71.9445 80.0576 122.379 70.6071 70.152 132.991 92.881 66.7952 86.6448 80.0037 66.5584 82.8456
threshold=11.500000000000002 3.5000000000000004 1.5000000000000002 483.50000000000006 187.77083587646487 1.5000000000000002 2.5000000000000004 213.25000000000003 5.5000000000000009 1.5000000000000002 5.5000000000000009 32.500000000000007 388.50000000000006 -4.4999999999999991 1.0000000180025095e-35 3475439.0000000005 2.5000000000000004 1.5000000000000002 105.004 107.01950000000001 3551942.0000000005 3.5000000000000004 452.50000000000006 444.50000000000006 3.5000000000000004 10484.500000000002 1.5000000000000002 -45.499999999999993 1.0000000180025095e-35 -6.4999999999999991
decision_type=10 2 2 2 10 8 10 10 8 2 2 2 2 8 10 2 10 10 2 2 2 10 2 2 8 2 8 8 2 8
left_child=1 3 4 -1 10 7 9 22 12 18 11 13 -9 -3 15 -14 17 21 -7 20 -20 28 23 25 -25 26 -4 -27 -15 -30
right_child=-2 2 5 -5 -6 6 -8 8 -10 -11 -12 -13 14 16 -16 -17 -18 -19 19 -21 -22 -23 -24 24 -26 27 -28 -29 29 -31
leaf_value=-0.036230477363224267 -0.03472733268395399 0.50411032445886284 -0.012694344642285868 0.099147683850119253 -0.042430555303958874 -0.014494432164531376 0.31186434601419211 0.061785782583122978 0.015844288466219322 0.049552026905169182 0.066397899700707821 -0.10288637838193411 1.6260650222797726 0.050182847962569367 0.30210312221305874 0.39313146574183483 -0.066920628430537102 0.086296483651814596 0.21024938968579288 0.022310506444607303 1.513544193695662 0.25165060790981725 -0.056106654487701468 0.12065656196202744 0.68770420598729276 1.3539615054845189 0.050085139463318488 -0.041252685360396488 0.056051765575082173 0.0048971288938510701
leaf_weight=1319.0006738989614 1639.7773713725619 3.5571578498929739 2347.7769598904997 61.367107671219856 227.56194860860705 1242.8566521513276 11.89887899905443 19.837704339064658 98.583413164597005 514.73463271092623 537.87538152374327 70.193625378422439 0.97561333421618046 601.88180238287896 16.660774536430836 1.1524157347157595 96.899702407419682 187.81555618532002 7.0879765301942816 667.45241557480767 0.8020042199641465 13.270013771019874 407.76078632939607 40.693619256373495 3.1093159001320592 0.41120914462953806 242.55222434969619 761.4511926244013 375.87676605582237 2007.2321615633555
leaf_count=47838 129092 64 114670 945 7171 52458 112 526 2925 6747 6576 3012 30 14557 274 22 1223 2138 240 21875 21 149 20106 1168 48 14 3449 34491 6959 52586
internal_value=0 0.00230552 0.00657715 -0.030212 0.0229963 -0.00402174 0.011779 -0.013824 0.0718636 0.0103114 0.0268192 0.0204772 0.214837 0.023112 0.376433 0.958381 0.0225908 0.0253131 -0.000218532 0.0260539 0.342727 0.0214931 -0.0169149 -0.0122091 0.160908 -0.0144712 -0.00681582 -0.0404996 0.0204699 0.0129655
internal_weight=0 11888.3 10508 1380.37 4122.16 6385.8 2444.83 3940.97 137.21 2432.93 3894.6 3356.73 38.6265 3286.53 18.7888 2.12803 3282.98 3186.08 1918.2 675.342 7.88998 2998.26 3803.76 3395.99 43.8029 3352.19 2590.33 761.862 2984.99 2383.11
internal_count=531486 402394 353611 48783 94435 259176 81453 177723 3777 81341 87264 80688 852 77676 326 52 77612 76389 74594 22136 261 74251 173946 153840 1216 152624 118119 34505 74102 59545
is_linear=0
shrinkage=0.1


Tree=25
num_leaves=31
num_cat=0
split_feature=101 14 15 15 2 6 21 2 16 28 5 4 145 222 48 14 6 41 17 182 14 39 46 396 314 2 422 65 117 149
split_gain=178.801 146.465 161.39 159.29 155.118 151.61 115.836 124.168 114.852 100.403 85.0297 83.2025 72.1105 71.6437 71.1993 69.9577 64.8529 68.3468 58.919 58.6673 58.2439 84.6903 63.0016 58.1881 58.4521 57.6761 57.3381 56.4163 55.9678 55.4713
threshold=1.0000000180025095e-35 3.5000000000000004 16.500000000000004 9.5000000000000018 200.09000000000003 64.500000000000014 1.5000000000000002 381.55000000000007 2.5000000000000004 2.5000000000000004 483.50000000000006 10375.500000000002 1.0000000180025095e-35 3.5000000000000004 1.0000000180025095e-35 10.500000000000002 80.500000000000014 236.50000000000003 37.500000000000007 35.021799087524421 22.500000000000004 239.50000000000003 1.0000000180025095e-35 -8.4999999999999982 3.5000000000000004 131.03750000000002 1.5000000000000002 1.5000000000000002 1.5000000000000002 9.5000000000000018
decision_type=10 2 2 2 2 2 2 2 2 2 2 2 10 10 2 2 2 10 2 10 2 10 2 8 10 2 2 10 8 10
left_child=1 10 3 -3 5 8 7 20 25 13 -1 16 -10 -8 15 -9 17 28 -15 29 -4 22 -22 -24 -25 26 -5 -11 -7 -2
right_child=19 2 6 4 -6 11 9 14 12 27 -12 -13 -14 18 -16 -17 -18 -19 -20 -21 21 -23 23 24 -26 -27 -28 -29 -30 -31
leaf_value=-0.034357117886022415 -0.044330340250404894 -0.053769376404039282 -0.026796801815442042 0.17587165219134482 0.12658670536272504 0.06157269634666334 0.053741790914720845 0.18543372542735903 0.089441375639722626 0.0010850134458094095 0.086293336328196038 0.0039549979471823447 -0.021649885682230322 -0.036839978905486764 -0.018664931230497787 0.044667302514113036 -0.0885448622952269 -0.030865253031975699 -0.40132278206876609 0.040260945541475773 0.075212302597767636 -0.057340754040623547 0.9297643192574393 -0.0039464543770203397 0.15043656325767368 0.030891986965165919 -0.045609397901831883 0.094425379301109405 0.12432278063830263 0.16694835828416005
leaf_weight=1309.4581563798711 1245.0814980333671 224.99411252560094 2334.3609876837581 11.957320722751318 169.00315589178354 790.50535806640983 680.18343123793602 39.564491061493754 175.27800310589373 2089.1402653190307 61.140865947119892 322.67687132116407 87.648883182555437 21.409093674272302 168.60699595231563 327.93970978725702 27.880119916982949 68.014428365044296 5.5939005464315406 92.580696226097643 113.28868769854307 265.41753151966259 0.67060143314301968 1855.4458987652324 24.853041174821556 143.00872381404042 520.51624131482095 66.825183716602623 173.29768360219896 12.552002574317155
leaf_count=46536 136384 9087 91075 317 2176 11052 11016 426 1636 69853 878 6208 1254 170 4985 5681 515 1335 30 4425 4239 16964 13 78691 210 3623 20118 753 1399 437
internal_value=0 0.00180418 0.00574382 0.0268096 0.0340913 0.0273556 -0.00141081 -0.0104041 -0.00366592 0.0147031 -0.028975 0.0484143 0.0524082 0.0474 0.0351377 0.0598218 0.0619521 0.0660186 -0.112346 -0.036566 -0.0157187 -0.00427436 0.00278829 -0.00157372 -0.00190588 -0.0254924 -0.0406358 0.00397814 0.0728555 -0.0422216
internal_weight=0 12078.7 10708.1 2714.78 2489.79 2320.78 7993.3 5130.15 938.409 2863.15 1370.6 1382.37 262.927 707.186 536.111 367.504 1059.7 1031.82 27.003 1350.21 4594.04 2259.68 1994.26 1880.97 1880.3 675.482 532.474 2155.97 963.803 1257.63
internal_count=531486 390240 342826 58720 49633 47457 284106 202284 26948 81822 47414 20509 2890 11216 11092 6107 14301 13786 200 141246 191192 100117 83153 78914 78901 24058 20435 70606 12451 136821
is_linear=0
shrinkage=0.1


Tree=26
num_leaves=31
num_cat=0
split_feature=34 1 115 209 409 15 2 14 15 6 0 31 32 115 7 187 25 48 309 394 16 362 2 11 28 356 17 24 422 4
split_gain=155.245 131.18 138.036 121.605 101.361 126.319 121.705 98.5828 99.1496 94.1232 91.263 86.4842 84.3077 79.1782 78.4945 70.8398 70.4539 64.6283 64.1979 61.7089 61.7015 61.6983 60.9531 60.91 78.668 56.3294 55.3314 53.6084 52.183 60.8733
threshold=11.500000000000002 2390569.5000000005 1.5000000000000002 2.5000000000000004 98.000000000000014 16.500000000000004 67.955000000000013 14.500000000000002 1.5000000000000002 41.500000000000007 3246046.5000000005 11.500000000000002 1.0000000180025095e-35 3.5000000000000004 1.5000000000000002 17.400400161743168 1.5000000000000002 2.5000000000000004 1.5000000000000002 225927.00000000003 1.5000000000000002 61.595800399780281 146.02100000000004 63.500000000000007 1.0000000180025095e-35 3.5000000000000004 1.5000000000000002 4.5000000000000009 33.500000000000007 12782.500000000002
decision_type=10 2 8 8 2 2 2 2 2 2 2 10 8 8 2 10 2 2 10 8 2 10 2 2 2 10 2 2 2 2
left_child=1 3 4 -1 -3 9 15 -4 -9 -6 11 22 -11 -5 20 -7 18 -2 23 -14 -8 27 28 -12 -25 26 -18 -16 -10 -30
right_child=17 2 7 13 5 6 14 8 10 12 16 -13 19 -15 21 -17 25 -19 -20 -21 -22 -23 -24 24 -26 -27 -28 -29 29 -31
leaf_value=-0.056390319709920159 -0.017423606145073087 -0.07458524813969232 -0.017869530141432843 -0.0095158546071938237 -0.075413079039199402 -0.027490894040419558 0.15380921850983564 -0.069294987620492673 -0.035706453170728722 -0.013824513806733399 -0.0058124117922369644 -0.0078493762524372759 0.082055344139979169 0.10289562942160245 -0.0042515101087798194 0.017172943064625155 -0.042944101223465841 -0.060682809542651851 0.12546704572014863 0.027301843507881812 -0.0077448786020068994 0.037356958345121059 0.13772404203383243 0.1884128255431079 0.0074991261967248275 -0.067642054567460003 0.085942358290841889 0.048002430317322264 0.071306947465638995 0.30377670490813269
leaf_weight=646.43972145952284 1079.147413097322 176.732586462982 390.96234648302197 1491.3182442430407 74.981711692176759 2144.0155383986421 65.169186862185597 83.933208688162267 44.445877815596759 224.05564598832279 731.40211176220328 109.50144591741264 422.14070269931108 65.407253198325634 2433.9253924028017 425.60442000441253 37.123091463930905 507.89458233769983 46.126241969875991 401.71419286821038 37.098440704867244 529.49940896034241 176.34236861672252 38.951035175472498 62.768017861992121 31.058496935293078 324.16983011364937 213.5604402362369 287.13103537354618 11.723951361142097
leaf_count=36883 55071 5537 9791 54781 2106 116248 1206 2586 1188 3072 17231 2264 5625 536 103823 8516 823 64061 323 7349 857 10324 2083 219 625 309 3430 9531 4844 244
